booster[0]:
0:[udu29<4173] yes=1,no=2,missing=1
	1:[ucnt3<21] yes=3,no=4,missing=3
		3:leaf=-0.142857149
		4:leaf=0.138461545
	2:[ucnt28<297] yes=5,no=6,missing=5
		5:leaf=-0.192156866
		6:[ucnt7<254] yes=7,no=8,missing=7
			7:leaf=0.120000005
			8:leaf=-0.142857149
booster[1]:
0:[udu29<4173] yes=1,no=2,missing=1
	1:[ucnt3<21] yes=3,no=4,missing=3
		3:leaf=-0.133154005
		4:leaf=0.129318759
	2:[ucnt28<297] yes=5,no=6,missing=5
		5:leaf=-0.17529653
		6:[ucnt7<254] yes=7,no=8,missing=7
			7:leaf=0.113052242
			8:leaf=-0.131854892
booster[2]:
0:[udu29<4173] yes=1,no=2,missing=1
	1:[ucnt3<21] yes=3,no=4,missing=3
		3:leaf=-0.124944679
		4:leaf=0.121523254
	2:[ucnt28<297] yes=5,no=6,missing=5
		5:leaf=-0.162394926
		6:[ucnt7<254] yes=7,no=8,missing=7
			7:leaf=0.10694325
			8:leaf=-0.122606628
booster[3]:
0:[udu29<4173] yes=1,no=2,missing=1
	1:[ucnt3<21] yes=3,no=4,missing=3
		3:leaf=-0.117890835
		4:leaf=0.114781462
	2:[ucnt28<297] yes=5,no=6,missing=5
		5:leaf=-0.152210444
		6:[ucnt7<254] yes=7,no=8,missing=7
			7:leaf=0.101521507
			8:leaf=-0.114679329
booster[4]:
0:[udu29<4173] yes=1,no=2,missing=1
	1:[ucnt3<21] yes=3,no=4,missing=3
		3:leaf=-0.111745968
		4:leaf=0.108876586
	2:[ucnt28<297] yes=5,no=6,missing=5
		5:leaf=-0.143970817
		6:[ucnt7<254] yes=7,no=8,missing=7
			7:leaf=0.096668385
			8:leaf=-0.107768558
booster[5]:
0:[udu29<4173] yes=1,no=2,missing=1
	1:[ucnt3<21] yes=3,no=4,missing=3
		3:leaf=-0.106326856
		4:leaf=0.103645615
	2:[ucnt28<297] yes=5,no=6,missing=5
		5:leaf=-0.137169063
		6:[ucnt12<386] yes=7,no=8,missing=7
			7:leaf=0.0702278838
			8:leaf=-0.117048934
booster[6]:
0:[tdays<1075.5] yes=1,no=2,missing=1
	1:[udu1<33272] yes=3,no=4,missing=3
		3:leaf=-0.130928263
		4:[ucnt2<246] yes=7,no=8,missing=7
			7:leaf=-0.0968127996
			8:leaf=0.072763592
	2:[udu1<11746] yes=5,no=6,missing=5
		5:leaf=0.0874158442
		6:leaf=-0.102534451
booster[7]:
0:[udu29<4173] yes=1,no=2,missing=1
	1:[ucnt3<21] yes=3,no=4,missing=3
		3:leaf=-0.0970417261
		4:leaf=0.096343711
	2:[ucnt28<297] yes=5,no=6,missing=5
		5:leaf=-0.126868322
		6:[ucnt12<386] yes=7,no=8,missing=7
			7:leaf=0.0644204468
			8:leaf=-0.106418565
booster[8]:
0:[tdays<1075.5] yes=1,no=2,missing=1
	1:[udu1<33272] yes=3,no=4,missing=3
		3:leaf=-0.121459305
		4:[ucnt2<246] yes=7,no=8,missing=7
			7:leaf=-0.0892508253
			8:leaf=0.0675168261
	2:[udu1<11746] yes=5,no=6,missing=5
		5:leaf=0.0797128379
		6:leaf=-0.0938654989
booster[9]:
0:[udu15<4832] yes=1,no=2,missing=1
	1:[tdays<926.5] yes=3,no=4,missing=3
		3:leaf=-0.0935727879
		4:[ucnt6<44] yes=7,no=8,missing=7
			7:leaf=0.0030360159
			8:leaf=0.0881358311
	2:[udu1<33272] yes=5,no=6,missing=5
		5:leaf=-0.120265521
		6:[ucnt2<246] yes=9,no=10,missing=9
			9:leaf=-0.0921801552
			10:leaf=0.0640500337
booster[10]:
0:[udu15<9677] yes=1,no=2,missing=1
	1:[udu19<12649] yes=3,no=4,missing=3
		3:[udu2<2946] yes=7,no=8,missing=7
			7:[ucnt2<27] yes=9,no=10,missing=9
				9:leaf=-0.0381129794
				10:leaf=0.0698820129
			8:leaf=-0.098685205
		4:leaf=0.0861093551
	2:[udu5<57729] yes=5,no=6,missing=5
		5:leaf=-0.117010117
		6:leaf=-0.0196016282
booster[11]:
0:[udu29<4173] yes=1,no=2,missing=1
	1:[ucnt3<21] yes=3,no=4,missing=3
		3:leaf=-0.0831763744
		4:leaf=0.0864011645
	2:[ucnt28<297] yes=5,no=6,missing=5
		5:leaf=-0.113388732
		6:[ucnt12<386] yes=7,no=8,missing=7
			7:leaf=0.0578950234
			8:leaf=-0.0901809856
booster[12]:
0:[udu15<9677] yes=1,no=2,missing=1
	1:[udu19<12649] yes=3,no=4,missing=3
		3:[tdays<934.5] yes=7,no=8,missing=7
			7:leaf=-0.0976429433
			8:[ucnt25<57] yes=9,no=10,missing=9
				9:leaf=0.0763446465
				10:leaf=-0.0660880134
		4:leaf=0.0804983601
	2:[udu21<53347] yes=5,no=6,missing=5
		5:leaf=-0.111384414
		6:leaf=-0.0194141716
booster[13]:
0:[udu15<9677] yes=1,no=2,missing=1
	1:[udu19<12649] yes=3,no=4,missing=3
		3:[udu2<2946] yes=7,no=8,missing=7
			7:leaf=0.020217387
			8:leaf=-0.0894306377
		4:leaf=0.0776299387
	2:[udu13<46706] yes=5,no=6,missing=5
		5:leaf=-0.108797483
		6:leaf=-0.016463222
booster[14]:
0:[tdays<1075.5] yes=1,no=2,missing=1
	1:[udu1<33272] yes=3,no=4,missing=3
		3:leaf=-0.104007557
		4:[ucnt2<246] yes=7,no=8,missing=7
			7:leaf=-0.0699216947
			8:leaf=0.0581728183
	2:[udu1<11746] yes=5,no=6,missing=5
		5:leaf=0.0669274256
		6:leaf=-0.0736326203
booster[15]:
0:[udu29<4173] yes=1,no=2,missing=1
	1:[ucnt3<21] yes=3,no=4,missing=3
		3:leaf=-0.0727079064
		4:leaf=0.0784750506
	2:[ucnt28<297] yes=5,no=6,missing=5
		5:leaf=-0.104533508
		6:[ucnt12<386] yes=7,no=8,missing=7
			7:leaf=0.053453546
			8:leaf=-0.0775510222
booster[16]:
0:[udu15<9677] yes=1,no=2,missing=1
	1:[udu19<12649] yes=3,no=4,missing=3
		3:[tdays<934.5] yes=7,no=8,missing=7
			7:leaf=-0.087583214
			8:[udu2<3589] yes=9,no=10,missing=9
				9:leaf=0.0643315762
				10:leaf=-0.0409447215
		4:leaf=0.0709035248
	2:[udu18<51005] yes=5,no=6,missing=5
		5:leaf=-0.102483727
		6:leaf=-0.0159316044
booster[17]:
0:[udu15<9677] yes=1,no=2,missing=1
	1:[udu19<12649] yes=3,no=4,missing=3
		3:[tdays<934.5] yes=7,no=8,missing=7
			7:leaf=-0.0852568373
			8:[ucnt3<106] yes=9,no=10,missing=9
				9:leaf=-0.00376220862
				10:leaf=0.0245483033
		4:leaf=0.0686072856
	2:[udu16<49290] yes=5,no=6,missing=5
		5:leaf=-0.100357883
		6:leaf=-0.0157912131
booster[18]:
0:[udu15<4832] yes=1,no=2,missing=1
	1:[tdays<926.5] yes=3,no=4,missing=3
		3:leaf=-0.0686926544
		4:[udu28<12447] yes=7,no=8,missing=7
			7:leaf=0.0659271404
			8:leaf=0.012118021
	2:[ucnt28<446] yes=5,no=6,missing=5
		5:[ucnt5<400] yes=9,no=10,missing=9
			9:leaf=-0.0994340628
			10:leaf=-0.0244859438
		6:leaf=0.0047274176
booster[19]:
0:[udu15<9677] yes=1,no=2,missing=1
	1:[udu19<12649] yes=3,no=4,missing=3
		3:[udu2<2946] yes=7,no=8,missing=7
			7:leaf=0.0230439808
			8:leaf=-0.0758245289
		4:leaf=0.0660846755
	2:[udu3<51819] yes=5,no=6,missing=5
		5:leaf=-0.0968012735
		6:leaf=-0.0148162888
booster[20]:
0:[tdays<1075.5] yes=1,no=2,missing=1
	1:[udu1<33272] yes=3,no=4,missing=3
		3:leaf=-0.0928354785
		4:leaf=-0.000202911251
	2:[udu1<11746] yes=5,no=6,missing=5
		5:leaf=0.0573891886
		6:leaf=-0.0594931319
booster[21]:
0:[udu15<9677] yes=1,no=2,missing=1
	1:[ucnt3<141] yes=3,no=4,missing=3
		3:[tdays<977.5] yes=7,no=8,missing=7
			7:leaf=-0.0757354349
			8:leaf=0.00946187135
		4:leaf=0.0476854406
	2:[ucnt1<445] yes=5,no=6,missing=5
		5:leaf=-0.0934781283
		6:leaf=-0.0147225661
booster[22]:
0:[udu29<4173] yes=1,no=2,missing=1
	1:[ucnt3<21] yes=3,no=4,missing=3
		3:leaf=-0.0596186481
		4:leaf=0.0691685379
	2:[ucnt28<297] yes=5,no=6,missing=5
		5:leaf=-0.0936116427
		6:[ucnt12<386] yes=7,no=8,missing=7
			7:leaf=0.0527751856
			8:leaf=-0.0631332621
booster[23]:
0:[udu15<9677] yes=1,no=2,missing=1
	1:[udu19<12649] yes=3,no=4,missing=3
		3:[udu2<2946] yes=7,no=8,missing=7
			7:leaf=0.0237794146
			8:leaf=-0.0685627013
		4:leaf=0.0603560172
	2:[udu14<43135] yes=5,no=6,missing=5
		5:leaf=-0.0902524218
		6:leaf=-0.0136663858
booster[24]:
0:[udu29<4173] yes=1,no=2,missing=1
	1:[ucnt3<48] yes=3,no=4,missing=3
		3:leaf=-0.0446448438
		4:leaf=0.0628412589
	2:[ucnt28<297] yes=5,no=6,missing=5
		5:leaf=-0.0907463357
		6:[ucnt12<386] yes=7,no=8,missing=7
			7:leaf=0.050339438
			8:leaf=-0.0590249486
booster[25]:
0:[udu15<9677] yes=1,no=2,missing=1
	1:[ucnt3<141] yes=3,no=4,missing=3
		3:[tdays<977.5] yes=7,no=8,missing=7
			7:leaf=-0.0685495362
			8:leaf=0.00968741905
		4:leaf=0.0443858132
	2:[udu4<39931] yes=5,no=6,missing=5
		5:leaf=-0.0866012275
		6:leaf=-0.014588994
booster[26]:
0:[udu15<4832] yes=1,no=2,missing=1
	1:[ucnt3<61] yes=3,no=4,missing=3
		3:leaf=-0.0477813631
		4:leaf=0.0512371622
	2:[udu1<33272] yes=5,no=6,missing=5
		5:leaf=-0.0880771205
		6:leaf=0.00026909099
booster[27]:
0:[tdays<1075.5] yes=1,no=2,missing=1
	1:[udu1<33272] yes=3,no=4,missing=3
		3:leaf=-0.0823793635
		4:leaf=0.00725926226
	2:[udu10<7790] yes=5,no=6,missing=5
		5:leaf=0.0503209308
		6:leaf=-0.0334201381
booster[28]:
0:[udu15<9677] yes=1,no=2,missing=1
	1:[ucnt3<141] yes=3,no=4,missing=3
		3:[tdays<876] yes=7,no=8,missing=7
			7:leaf=-0.0621879101
			8:leaf=0.0061927014
		4:leaf=0.0437482186
	2:[ucnt13<400] yes=5,no=6,missing=5
		5:leaf=-0.0820991322
		6:leaf=-0.0139476601
booster[29]:
0:[udu10<6975] yes=1,no=2,missing=1
	1:[ucnt3<67] yes=3,no=4,missing=3
		3:leaf=-0.0450100265
		4:leaf=0.0541508757
	2:[ucnt19<288] yes=5,no=6,missing=5
		5:leaf=-0.0857254863
		6:leaf=0.00890573487
booster[30]:
0:[udu15<9677] yes=1,no=2,missing=1
	1:[ucnt3<63] yes=3,no=4,missing=3
		3:leaf=-0.049254626
		4:[udu10<6975] yes=7,no=8,missing=7
			7:leaf=0.0573328212
			8:leaf=-0.0104539506
	2:[udu7<36530] yes=5,no=6,missing=5
		5:leaf=-0.079027541
		6:leaf=-0.0130508216
booster[31]:
0:[udu15<4832] yes=1,no=2,missing=1
	1:[ucnt3<61] yes=3,no=4,missing=3
		3:leaf=-0.0388858393
		4:leaf=0.0475247614
	2:[udu1<33272] yes=5,no=6,missing=5
		5:leaf=-0.081846796
		6:leaf=0.00606802152
booster[32]:
0:[udu15<9677] yes=1,no=2,missing=1
	1:[ucnt3<141] yes=3,no=4,missing=3
		3:[udu13<3694] yes=7,no=8,missing=7
			7:leaf=0.00475197705
			8:leaf=-0.056472566
		4:leaf=0.0412891768
	2:[udu23<46175] yes=5,no=6,missing=5
		5:leaf=-0.0755403563
		6:leaf=-0.013048254
booster[33]:
0:[udu10<6975] yes=1,no=2,missing=1
	1:[ucnt3<67] yes=3,no=4,missing=3
		3:leaf=-0.0379948355
		4:leaf=0.0495010465
	2:[ucnt19<288] yes=5,no=6,missing=5
		5:leaf=-0.0810608789
		6:leaf=0.0147360265
booster[34]:
0:[tdays<1075.5] yes=1,no=2,missing=1
	1:[udu1<33272] yes=3,no=4,missing=3
		3:leaf=-0.0739973187
		4:leaf=0.01539132
	2:leaf=0.0145392716
booster[35]:
0:[udu15<9677] yes=1,no=2,missing=1
	1:[ucnt3<63] yes=3,no=4,missing=3
		3:leaf=-0.0410031304
		4:[ucnt27<77] yes=7,no=8,missing=7
			7:leaf=0.0527077802
			8:leaf=-0.0067145736
	2:[udu17<37718] yes=5,no=6,missing=5
		5:leaf=-0.0709665045
		6:leaf=-0.0127881235
booster[36]:
0:[ucnt3<141] yes=1,no=2,missing=1
	1:[udu13<3694] yes=3,no=4,missing=3
		3:leaf=0.00233845343
		4:leaf=-0.0735345036
	2:[ucnt14<192] yes=5,no=6,missing=5
		5:leaf=0.0430095382
		6:leaf=-0.0319887623
booster[37]:
0:[udu15<4832] yes=1,no=2,missing=1
	1:leaf=0.0116647985
	2:[udu1<33272] yes=3,no=4,missing=3
		3:leaf=-0.0750079453
		4:leaf=0.0112942951
booster[38]:
0:[ucnt3<141] yes=1,no=2,missing=1
	1:[udu2<3934] yes=3,no=4,missing=3
		3:leaf=0.00186374225
		4:leaf=-0.0710908696
	2:[ucnt14<192] yes=5,no=6,missing=5
		5:leaf=0.0417391099
		6:leaf=-0.0284460094
booster[39]:
0:[ucnt3<141] yes=1,no=2,missing=1
	1:[udu2<3934] yes=3,no=4,missing=3
		3:leaf=0.00177026633
		4:leaf=-0.0693956316
	2:[ucnt14<192] yes=5,no=6,missing=5
		5:leaf=0.0398702435
		6:leaf=-0.0271357503
