booster[0]:
0:[ucnt10<13] yes=1,no=2,missing=1
	1:[ucnt3<5] yes=3,no=4,missing=3
		3:[CASE WHEN a.14 = 'True' THEN 1 ELSE 0 END<1] yes=7,no=8,missing=7
			7:[uage<0.5] yes=15,no=16,missing=15
				15:leaf=-0.0666666701
				16:leaf=0.149647534
			8:[realage<47.5] yes=17,no=18,missing=17
				17:leaf=0.102580145
				18:leaf=0.0250000004
		4:[uage<7.5] yes=9,no=10,missing=9
			9:[ucnt10<3] yes=19,no=20,missing=19
				19:leaf=0.0788399577
				20:leaf=0.0290909093
			10:[ucnt1<8] yes=21,no=22,missing=21
				21:leaf=0.0161764715
				22:leaf=-0.0622680448
	2:[min_price<800] yes=5,no=6,missing=5
		5:[realage<49.5] yes=11,no=12,missing=11
			11:[ucnt5<5] yes=23,no=24,missing=23
				23:leaf=0.0897374675
				24:leaf=-0.00256016385
			12:[ucnt3<15] yes=25,no=26,missing=25
				25:leaf=-0.0265822802
				26:leaf=-0.0996223837
		6:[ucnt6<23] yes=13,no=14,missing=13
			13:[realage<28.5] yes=27,no=28,missing=27
				27:leaf=0.0507982634
				28:leaf=-0.0380255952
			14:[realage<31.5] yes=29,no=30,missing=29
				29:leaf=-0.0773523301
				30:leaf=-0.121821404
booster[1]:
0:[tdays<734.5] yes=1,no=2,missing=1
	1:[ucnt10<5] yes=3,no=4,missing=3
		3:[ucnt3<8] yes=7,no=8,missing=7
			7:[min_price<300] yes=15,no=16,missing=15
				15:leaf=0.103449702
				16:leaf=0.0525492318
			8:[CASE WHEN a.21 = 'True' THEN 1 ELSE 0 END<1] yes=17,no=18,missing=17
				17:leaf=0.0913971588
				18:leaf=-0.0141864931
		4:[min_price<300] yes=9,no=10,missing=9
			9:[realage<41.5] yes=19,no=20,missing=19
				19:leaf=-0.00438049296
				20:leaf=-0.0953493044
			10:[tdays<450.5] yes=21,no=22,missing=21
				21:leaf=-0.137514636
				22:leaf=-0.0916223228
	2:[realage<47.5] yes=5,no=6,missing=5
		5:[tdays<1029.5] yes=11,no=12,missing=11
			11:[ucnt10<28] yes=23,no=24,missing=23
				23:leaf=0.0661457852
				24:leaf=-0.0166365933
			12:[CASE WHEN a.8 = 'True' THEN 1 ELSE 0 END<1] yes=25,no=26,missing=25
				25:leaf=0.150028169
				26:leaf=0.0744614974
		6:[ucnt10<11] yes=13,no=14,missing=13
			13:[CASE WHEN a.16 = 'True' THEN 1 ELSE 0 END<1] yes=27,no=28,missing=27
				27:leaf=0.135543093
				28:leaf=0.00926842447
			14:[tdays<1062.5] yes=29,no=30,missing=29
				29:leaf=-0.0839973614
				30:leaf=-0.0230107717
booster[2]:
0:[tdays<740.5] yes=1,no=2,missing=1
	1:[ucnt10<11] yes=3,no=4,missing=3
		3:[ucnt1<9] yes=7,no=8,missing=7
			7:[CASE WHEN a.19 = 'True' THEN 1 ELSE 0 END<1] yes=15,no=16,missing=15
				15:leaf=0.111251429
				16:leaf=0.0351344123
			8:[uage<7.5] yes=17,no=18,missing=17
				17:leaf=-0.00455736229
				18:leaf=-0.0972664952
		4:[min_price<300] yes=9,no=10,missing=9
			9:[uage<6.5] yes=19,no=20,missing=19
				19:leaf=-0.00493828207
				20:leaf=-0.0747977942
			10:[uage<5.5] yes=21,no=22,missing=21
				21:leaf=-0.0907109603
				22:leaf=-0.134017199
	2:[tdays<1199.5] yes=5,no=6,missing=5
		5:[ucnt1<7] yes=11,no=12,missing=11
			11:[CASE WHEN a.13 = 'True' THEN 1 ELSE 0 END<1] yes=23,no=24,missing=23
				23:leaf=0.13677977
				24:leaf=0.0602257848
			12:[uage<5.5] yes=25,no=26,missing=25
				25:leaf=0.00857970305
				26:leaf=-0.0501533262
		6:[uage<7.5] yes=13,no=14,missing=13
			13:[CASE WHEN a.28 = 'True' THEN 1 ELSE 0 END<1] yes=27,no=28,missing=27
				27:leaf=0.135387406
				28:leaf=0.0753379241
			14:[CASE WHEN a.17 = 'True' THEN 1 ELSE 0 END<1] yes=29,no=30,missing=29
				29:leaf=0.115937531
				30:leaf=-0.0127428193
booster[3]:
0:[tdays<678.5] yes=1,no=2,missing=1
	1:[ucnt1<8] yes=3,no=4,missing=3
		3:[min_price<300] yes=7,no=8,missing=7
			7:[ucnt9<1] yes=15,no=16,missing=15
				15:leaf=0.109883465
				16:leaf=0.0293335561
			8:[tdays<373.5] yes=17,no=18,missing=17
				17:leaf=-0.0467940122
				18:leaf=0.0381741636
		4:[min_price<300] yes=9,no=10,missing=9
			9:[uage<7.5] yes=19,no=20,missing=19
				19:leaf=-0.0114097297
				20:leaf=-0.0899754688
			10:[uage<5.5] yes=21,no=22,missing=21
				21:leaf=-0.0847515091
				22:leaf=-0.125792965
	2:[ucnt3<14] yes=5,no=6,missing=5
		5:[uage<7.5] yes=11,no=12,missing=11
			11:[CASE WHEN a.15 = 'True' THEN 1 ELSE 0 END<1] yes=23,no=24,missing=23
				23:leaf=0.13421391
				24:leaf=0.0760483667
			12:[ucnt2<1] yes=25,no=26,missing=25
				25:leaf=0.0694861785
				26:leaf=-0.0259484854
		6:[tdays<1034.5] yes=13,no=14,missing=13
			13:[uage<5.5] yes=27,no=28,missing=27
				27:leaf=-0.00240986026
				28:leaf=-0.0609666519
			14:[uage<7.5] yes=29,no=30,missing=29
				29:leaf=0.0513634197
				30:leaf=-0.0236513168
booster[4]:
0:[tdays<744.5] yes=1,no=2,missing=1
	1:[ucnt10<5] yes=3,no=4,missing=3
		3:[ucnt4<7] yes=7,no=8,missing=7
			7:[CASE WHEN a.17 = 'True' THEN 1 ELSE 0 END<1] yes=15,no=16,missing=15
				15:leaf=0.0940167531
				16:leaf=0.0460782722
			8:[realage<48.5] yes=17,no=18,missing=17
				17:leaf=0.017834818
				18:leaf=-0.0669153556
		4:[tdays<439.5] yes=9,no=10,missing=9
			9:[realage<31.5] yes=19,no=20,missing=19
				19:leaf=-0.086161077
				20:leaf=-0.120909445
			10:[realage<40.5] yes=21,no=22,missing=21
				21:leaf=-0.0404220633
				22:leaf=-0.0990983471
	2:[ucnt3<15] yes=5,no=6,missing=5
		5:[realage<49.5] yes=11,no=12,missing=11
			11:[CASE WHEN a.9 = 'True' THEN 1 ELSE 0 END<1] yes=23,no=24,missing=23
				23:leaf=0.123190045
				24:leaf=0.0687214136
			12:[CASE WHEN a.14 = 'True' THEN 1 ELSE 0 END<1] yes=25,no=26,missing=25
				25:leaf=0.0906653628
				26:leaf=-0.00330649805
		6:[tdays<1338.5] yes=13,no=14,missing=13
			13:[realage<34.5] yes=27,no=28,missing=27
				27:leaf=0.0121078743
				28:leaf=-0.0412930436
			14:[realage<39.5] yes=29,no=30,missing=29
				29:leaf=0.0793474019
				30:leaf=0.0216457453
booster[5]:
0:[tdays<678.5] yes=1,no=2,missing=1
	1:[ucnt4<10] yes=3,no=4,missing=3
		3:[min_price<300] yes=7,no=8,missing=7
			7:[ucnt5<4] yes=15,no=16,missing=15
				15:leaf=0.100063019
				16:leaf=0.0226141289
			8:[tdays<262] yes=17,no=18,missing=17
				17:leaf=-0.0456223749
				18:leaf=0.0188536476
		4:[min_price<800] yes=9,no=10,missing=9
			9:[uage<6.5] yes=19,no=20,missing=19
				19:leaf=-0.0251938887
				20:leaf=-0.0838628337
			10:[uage<5.5] yes=21,no=22,missing=21
				21:leaf=-0.0805768594
				22:leaf=-0.1129319
	2:[ucnt5<13] yes=5,no=6,missing=5
		5:[CASE WHEN a.9 = 'True' THEN 1 ELSE 0 END<1] yes=11,no=12,missing=11
			11:[tdays<697.5] yes=23,no=24,missing=23
				23:leaf=0.0144050186
				24:leaf=0.115848236
			12:[uage<7.5] yes=25,no=26,missing=25
				25:leaf=0.0627969652
				26:leaf=-0.00865538325
		6:[tdays<1023.5] yes=13,no=14,missing=13
			13:[min_price<1250] yes=27,no=28,missing=27
				27:leaf=-0.00468998356
				28:leaf=-0.0574477427
			14:[uage<7.5] yes=29,no=30,missing=29
				29:leaf=0.0425911956
				30:leaf=-0.0219970345
booster[6]:
0:[tdays<812.5] yes=1,no=2,missing=1
	1:[ucnt7<11] yes=3,no=4,missing=3
		3:[ucnt10<3] yes=7,no=8,missing=7
			7:[ucnt8<52] yes=15,no=16,missing=15
				15:leaf=0.0577828996
				16:leaf=-0.0492202304
			8:[realage<23.5] yes=17,no=18,missing=17
				17:leaf=0.066080533
				18:leaf=-0.0156368278
		4:[tdays<517.5] yes=9,no=10,missing=9
			9:[realage<31.5] yes=19,no=20,missing=19
				19:leaf=-0.0722601414
				20:leaf=-0.104740731
			10:[max_price<800] yes=21,no=22,missing=21
				21:leaf=0.0170754772
				22:leaf=-0.0509072132
	2:[ucnt10<4] yes=5,no=6,missing=5
		5:[realage<47.5] yes=11,no=12,missing=11
			11:[ucnt4<1] yes=23,no=24,missing=23
				23:leaf=0.0994140804
				24:leaf=0.0702732354
			12:[realage<52.5] yes=25,no=26,missing=25
				25:leaf=0.0145626757
				26:leaf=0.123330832
		6:[tdays<1299.5] yes=13,no=14,missing=13
			13:[max_price<1750] yes=27,no=28,missing=27
				27:leaf=0.0131913489
				28:leaf=-0.0351332985
			14:[realage<47.5] yes=29,no=30,missing=29
				29:leaf=0.0616293848
				30:leaf=-0.00472820876
booster[7]:
0:[tdays<587.5] yes=1,no=2,missing=1
	1:[ucnt10<11] yes=3,no=4,missing=3
		3:[ucnt2<5] yes=7,no=8,missing=7
			7:[CASE WHEN a.16 = 'True' THEN 1 ELSE 0 END<1] yes=15,no=16,missing=15
				15:leaf=0.102309264
				16:leaf=0.0358058847
			8:[uage<3.5] yes=17,no=18,missing=17
				17:leaf=0.0605819337
				18:leaf=-0.0350127332
		4:[uage<5.5] yes=9,no=10,missing=9
			9:[tdays<378.5] yes=19,no=20,missing=19
				19:leaf=-0.0795374662
				20:leaf=-0.0415389314
			10:[min_price<300] yes=21,no=22,missing=21
				21:leaf=-0.0628791526
				22:leaf=-0.103874803
	2:[ucnt9<3] yes=5,no=6,missing=5
		5:[CASE WHEN a.22 = 'True' THEN 1 ELSE 0 END<1] yes=11,no=12,missing=11
			11:[tdays<978] yes=23,no=24,missing=23
				23:leaf=0.0762939975
				24:leaf=0.114430808
			12:[CASE WHEN a.6 = 'True' THEN 1 ELSE 0 END<1] yes=25,no=26,missing=25
				25:leaf=0.0921718702
				26:leaf=0.046325203
		6:[tdays<1149.5] yes=13,no=14,missing=13
			13:[uage<6.5] yes=27,no=28,missing=27
				27:leaf=-0.000259155262
				28:leaf=-0.0484104641
			14:[uage<7.5] yes=29,no=30,missing=29
				29:leaf=0.0455748402
				30:leaf=-0.0112740267
booster[8]:
0:[tdays<885.5] yes=1,no=2,missing=1
	1:[ucnt10<11] yes=3,no=4,missing=3
		3:[ucnt3<1] yes=7,no=8,missing=7
			7:[ucnt2<4] yes=15,no=16,missing=15
				15:leaf=0.0767329484
				16:leaf=0.0207189061
			8:[uage<3.5] yes=17,no=18,missing=17
				17:leaf=0.0636251494
				18:leaf=-0.00142254634
		4:[tdays<404.5] yes=9,no=10,missing=9
			9:[uage<5.5] yes=19,no=20,missing=19
				19:leaf=-0.0700034425
				20:leaf=-0.102362409
			10:[uage<5.5] yes=21,no=22,missing=21
				21:leaf=-0.0182497483
				22:leaf=-0.0644814298
	2:[CASE WHEN a.25 = 'True' THEN 1 ELSE 0 END<1] yes=5,no=6,missing=5
		5:[uage<7.5] yes=11,no=12,missing=11
			11:[CASE WHEN a.29 = 'True' THEN 1 ELSE 0 END<1] yes=23,no=24,missing=23
				23:leaf=0.110836305
				24:leaf=0.0791941136
			12:[ucnt1<20] yes=25,no=26,missing=25
				25:leaf=0.0847116932
				26:leaf=-0.0127222305
		6:[uage<4.5] yes=13,no=14,missing=13
			13:[ucnt1<327] yes=27,no=28,missing=27
				27:leaf=0.049821496
				28:leaf=-0.0114976829
			14:[ucnt10<2] yes=29,no=30,missing=29
				29:leaf=0.056463398
				30:leaf=-0.00199367455
booster[9]:
0:[tdays<593.5] yes=1,no=2,missing=1
	1:[ucnt7<12] yes=3,no=4,missing=3
		3:[max_price<800] yes=7,no=8,missing=7
			7:[ucnt5<1] yes=15,no=16,missing=15
				15:leaf=0.098848708
				16:leaf=0.0359910876
			8:[realage<23.5] yes=17,no=18,missing=17
				17:leaf=0.0463775359
				18:leaf=-0.0257161595
		4:[realage<45.5] yes=9,no=10,missing=9
			9:[max_price<1250] yes=19,no=20,missing=19
				19:leaf=-0.0227383077
				20:leaf=-0.0675334334
			10:[ucnt1<11] yes=21,no=22,missing=21
				21:leaf=-0.0114842262
				22:leaf=-0.102884412
	2:[ucnt2<5] yes=5,no=6,missing=5
		5:[CASE WHEN a.8 = 'True' THEN 1 ELSE 0 END<1] yes=11,no=12,missing=11
			11:[0<0.5] yes=23,no=24,missing=23
				23:leaf=0.102146082
				24:leaf=-0.0299651418
			12:[CASE WHEN a.25 = 'True' THEN 1 ELSE 0 END<1] yes=25,no=26,missing=25
				25:leaf=0.0899773091
				26:leaf=0.040597599
		6:[realage<47.5] yes=13,no=14,missing=13
			13:[tdays<1114.5] yes=27,no=28,missing=27
				27:leaf=-0.00535655022
				28:leaf=0.0383649729
			14:[tdays<860.5] yes=29,no=30,missing=29
				29:leaf=-0.0638531819
				30:leaf=-0.0240948889
booster[10]:
0:[tdays<819.5] yes=1,no=2,missing=1
	1:[ucnt9<12] yes=3,no=4,missing=3
		3:[realage<23.5] yes=7,no=8,missing=7
			7:[min_price<800] yes=15,no=16,missing=15
				15:leaf=0.124753676
				16:leaf=0.0431175902
			8:[tdays<23.5] yes=17,no=18,missing=17
				17:leaf=-0.0801595077
				18:leaf=0.0213718433
		4:[min_price<800] yes=9,no=10,missing=9
			9:[realage<47.5] yes=19,no=20,missing=19
				19:leaf=-0.0096135037
				20:leaf=-0.0642739013
			10:[realage<47.5] yes=21,no=22,missing=21
				21:leaf=-0.0554572009
				22:leaf=-0.0998250917
	2:[CASE WHEN a.17 = 'True' THEN 1 ELSE 0 END<1] yes=5,no=6,missing=5
		5:[tdays<1432.5] yes=11,no=12,missing=11
			11:[realage<47.5] yes=23,no=24,missing=23
				23:leaf=0.0812102482
				24:leaf=0.022916887
			12:[CASE WHEN a.20 = 'True' THEN 1 ELSE 0 END<1] yes=25,no=26,missing=25
				25:leaf=0.111945286
				26:leaf=0.0763314366
		6:[realage<28.5] yes=13,no=14,missing=13
			13:[min_price<1750] yes=27,no=28,missing=27
				27:leaf=0.0540839247
				28:leaf=-0.000965998683
			14:[tdays<1422.5] yes=29,no=30,missing=29
				29:leaf=-0.0111744544
				30:leaf=0.0324556343
booster[11]:
0:[tdays<664.5] yes=1,no=2,missing=1
	1:[ucnt6<8] yes=3,no=4,missing=3
		3:[tdays<5.5] yes=7,no=8,missing=7
			7:[realage<21.5] yes=15,no=16,missing=15
				15:leaf=0.0939005539
				16:leaf=-0.0881041363
			8:[ucnt5<1] yes=17,no=18,missing=17
				17:leaf=0.0541304052
				18:leaf=0.00722588087
		4:[realage<31.5] yes=9,no=10,missing=9
			9:[tdays<318.5] yes=19,no=20,missing=19
				19:leaf=-0.0607082807
				20:leaf=-0.0193713792
			10:[min_price<300] yes=21,no=22,missing=21
				21:leaf=-0.0216351058
				22:leaf=-0.0782376006
	2:[ucnt1<7] yes=5,no=6,missing=5
		5:[realage<24.5] yes=11,no=12,missing=11
			11:[min_price<800] yes=23,no=24,missing=23
				23:leaf=0.109754883
				24:leaf=0.0626726449
			12:[CASE WHEN a.7 = 'True' THEN 1 ELSE 0 END<1] yes=25,no=26,missing=25
				25:leaf=0.0782577917
				26:leaf=0.0346192233
		6:[CASE WHEN a.28 = 'True' THEN 1 ELSE 0 END<1] yes=13,no=14,missing=13
			13:[CASE WHEN a.29 = 'True' THEN 1 ELSE 0 END<1] yes=27,no=28,missing=27
				27:leaf=0.088735953
				28:leaf=0.0160986967
			14:[min_price<1750] yes=29,no=30,missing=29
				29:leaf=0.00376059837
				30:leaf=-0.0362265036
booster[12]:
0:[tdays<961.5] yes=1,no=2,missing=1
	1:[ucnt10<2] yes=3,no=4,missing=3
		3:[ucnt2<1] yes=7,no=8,missing=7
			7:[ucnt5<61] yes=15,no=16,missing=15
				15:leaf=0.0705903322
				16:leaf=0.00314290007
			8:[realage<28.5] yes=17,no=18,missing=17
				17:leaf=0.0549440496
				18:leaf=0.00970114488
		4:[min_price<800] yes=9,no=10,missing=9
			9:[uage<3.5] yes=19,no=20,missing=19
				19:leaf=0.0476331636
				20:leaf=-0.019659197
			10:[realage<31.5] yes=21,no=22,missing=21
				21:leaf=-0.0381208956
				22:leaf=-0.0695990101
	2:[realage<47.5] yes=5,no=6,missing=5
		5:[CASE WHEN a.30 = 'True' THEN 1 ELSE 0 END<1] yes=11,no=12,missing=11
			11:[CASE WHEN a.25 = 'True' THEN 1 ELSE 0 END<1] yes=23,no=24,missing=23
				23:leaf=0.0887579098
				24:leaf=0.0573565178
			12:[realage<28.5] yes=25,no=26,missing=25
				25:leaf=0.047185
				26:leaf=0.0147999777
		6:[realage<57.5] yes=13,no=14,missing=13
			13:[ucnt9<7] yes=27,no=28,missing=27
				27:leaf=0.0222386457
				28:leaf=-0.031708587
			14:[ucnt7<14] yes=29,no=30,missing=29
				29:leaf=0.132908493
				30:leaf=0.0394143909
booster[13]:
0:[tdays<534.5] yes=1,no=2,missing=1
	1:[ucnt5<5] yes=3,no=4,missing=3
		3:[max_price<800] yes=7,no=8,missing=7
			7:[tdays<321] yes=15,no=16,missing=15
				15:leaf=0.08411327
				16:leaf=0.0250274092
			8:[usex<0.5] yes=17,no=18,missing=17
				17:leaf=0.144306466
				18:leaf=-0.000667336455
		4:[realage<47.5] yes=9,no=10,missing=9
			9:[tdays<237.5] yes=19,no=20,missing=19
				19:leaf=-0.065888159
				20:leaf=-0.0372380726
			10:[max_price<800] yes=21,no=22,missing=21
				21:leaf=-0.0454047546
				22:leaf=-0.0928097814
	2:[ucnt3<6] yes=5,no=6,missing=5
		5:[CASE WHEN a.14 = 'True' THEN 1 ELSE 0 END<1] yes=11,no=12,missing=11
			11:[realage<49.5] yes=23,no=24,missing=23
				23:leaf=0.0820384249
				24:leaf=0.0358309262
			12:[realage<28.5] yes=25,no=26,missing=25
				25:leaf=0.0613641143
				26:leaf=0.0257402342
		6:[realage<47.5] yes=13,no=14,missing=13
			13:[max_price<2500] yes=27,no=28,missing=27
				27:leaf=0.0169523712
				28:leaf=-0.0239828285
			14:[usex<1.5] yes=29,no=30,missing=29
				29:leaf=-0.0197397377
				30:leaf=-0.0582142584
booster[14]:
0:[tdays<587.5] yes=1,no=2,missing=1
	1:[ucnt8<11] yes=3,no=4,missing=3
		3:[realage<23.5] yes=7,no=8,missing=7
			7:[realage<19.5] yes=15,no=16,missing=15
				15:leaf=0.00517586758
				16:leaf=0.107354425
			8:[tdays<6.5] yes=17,no=18,missing=17
				17:leaf=-0.0795412362
				18:leaf=0.0129202399
		4:[realage<47.5] yes=9,no=10,missing=9
			9:[tdays<224.5] yes=19,no=20,missing=19
				19:leaf=-0.0647430196
				20:leaf=-0.0309944693
			10:[ucnt1<9] yes=21,no=22,missing=21
				21:leaf=0.0203326177
				22:leaf=-0.0814672559
	2:[CASE WHEN a.25 = 'True' THEN 1 ELSE 0 END<1] yes=5,no=6,missing=5
		5:[CASE WHEN a.29 = 'True' THEN 1 ELSE 0 END<1] yes=11,no=12,missing=11
			11:[tdays<695.5] yes=23,no=24,missing=23
				23:leaf=0.124240041
				24:leaf=0.0743402317
			12:[usex<1.5] yes=25,no=26,missing=25
				25:leaf=0.036631044
				26:leaf=0.0765450373
		6:[tdays<1214.5] yes=13,no=14,missing=13
			13:[min_price<1250] yes=27,no=28,missing=27
				27:leaf=0.00510492222
				28:leaf=-0.0299221128
			14:[realage<49.5] yes=29,no=30,missing=29
				29:leaf=0.034719795
				30:leaf=-0.00595869962
booster[15]:
0:[tdays<968.5] yes=1,no=2,missing=1
	1:[min_price<300] yes=3,no=4,missing=3
		3:[uage<3.5] yes=7,no=8,missing=7
			7:[ucnt1<231] yes=15,no=16,missing=15
				15:leaf=0.0920587555
				16:leaf=-0.0363408141
			8:[CASE WHEN a.21 = 'True' THEN 1 ELSE 0 END<1] yes=17,no=18,missing=17
				17:leaf=0.0681078285
				18:leaf=0.0072953538
		4:[ucnt2<12] yes=9,no=10,missing=9
			9:[tdays<366.5] yes=19,no=20,missing=19
				19:leaf=-0.0244069211
				20:leaf=0.0264792722
			10:[realage<47.5] yes=21,no=22,missing=21
				21:leaf=-0.0300932229
				22:leaf=-0.0680702552
	2:[CASE WHEN a.25 = 'True' THEN 1 ELSE 0 END<1] yes=5,no=6,missing=5
		5:[CASE WHEN a.28 = 'True' THEN 1 ELSE 0 END<1] yes=11,no=12,missing=11
			11:[CASE WHEN a.24 = 'True' THEN 1 ELSE 0 END<1] yes=23,no=24,missing=23
				23:leaf=0.0907185599
				24:leaf=0.0526491776
			12:[tdays<1707.5] yes=25,no=26,missing=25
				25:leaf=0.0321365632
				26:leaf=0.0964849442
		6:[ucnt10<1] yes=13,no=14,missing=13
			13:[realage<23.5] yes=27,no=28,missing=27
				27:leaf=0.0853033289
				28:leaf=0.0414248891
			14:[realage<28.5] yes=29,no=30,missing=29
				29:leaf=0.0289653484
				30:leaf=-0.000603720255
booster[16]:
0:[tdays<574.5] yes=1,no=2,missing=1
	1:[realage<31.5] yes=3,no=4,missing=3
		3:[realage<30.5] yes=7,no=8,missing=7
			7:[usex<0.5] yes=15,no=16,missing=15
				15:leaf=0.129449978
				16:leaf=-0.0303405114
			8:[usex<1.5] yes=17,no=18,missing=17
				17:leaf=0.0648455024
				18:leaf=-0.025895793
		4:[ucnt10<6] yes=9,no=10,missing=9
			9:[CASE WHEN a.15 = 'True' THEN 1 ELSE 0 END<1] yes=19,no=20,missing=19
				19:leaf=0.0947837383
				20:leaf=0.00334352232
			10:[tdays<240.5] yes=21,no=22,missing=21
				21:leaf=-0.0835214332
				22:leaf=-0.0486648753
	2:[CASE WHEN a.12 = 'True' THEN 1 ELSE 0 END<1] yes=5,no=6,missing=5
		5:[tdays<1745] yes=11,no=12,missing=11
			11:[ucnt10<287] yes=23,no=24,missing=23
				23:leaf=0.0612073019
				24:leaf=-0.00613040291
			12:[CASE WHEN a.9 = 'True' THEN 1 ELSE 0 END<1] yes=25,no=26,missing=25
				25:leaf=0.114884041
				26:leaf=0.0716476366
		6:[realage<28.5] yes=13,no=14,missing=13
			13:[min_price<1750] yes=27,no=28,missing=27
				27:leaf=0.0350951068
				28:leaf=-0.0102784866
			14:[min_price<800] yes=29,no=30,missing=29
				29:leaf=0.005854527
				30:leaf=-0.0208069813
booster[17]:
0:[tdays<518.5] yes=1,no=2,missing=1
	1:[ucnt4<9] yes=3,no=4,missing=3
		3:[min_price<800] yes=7,no=8,missing=7
			7:[uage<3.5] yes=15,no=16,missing=15
				15:leaf=0.0933969691
				16:leaf=0.0244110897
			8:[usex<0.5] yes=17,no=18,missing=17
				17:leaf=0.150328323
				18:leaf=-0.0175965186
		4:[tdays<242.5] yes=9,no=10,missing=9
			9:[min_price<300] yes=19,no=20,missing=19
				19:leaf=0.00643813331
				20:leaf=-0.0647210851
			10:[CASE WHEN a.27 = 'True' THEN 1 ELSE 0 END<1] yes=21,no=22,missing=21
				21:leaf=0.0504721776
				22:leaf=-0.0331309438
	2:[CASE WHEN a.17 = 'True' THEN 1 ELSE 0 END<1] yes=5,no=6,missing=5
		5:[CASE WHEN a.19 = 'True' THEN 1 ELSE 0 END<1] yes=11,no=12,missing=11
			11:[CASE WHEN a.2 = 'True' THEN 1 ELSE 0 END<1] yes=23,no=24,missing=23
				23:leaf=0.0549762957
				24:leaf=0.0768066943
			12:[ucnt4<2] yes=25,no=26,missing=25
				25:leaf=0.074319087
				26:leaf=0.0273554921
		6:[ucnt2<1] yes=13,no=14,missing=13
			13:[uage<7.5] yes=27,no=28,missing=27
				27:leaf=0.0498788208
				28:leaf=0.00016492627
			14:[uage<6.5] yes=29,no=30,missing=29
				29:leaf=0.00557539798
				30:leaf=-0.0202238802
booster[18]:
0:[tdays<524.5] yes=1,no=2,missing=1
	1:[ucnt1<25] yes=3,no=4,missing=3
		3:[CASE WHEN a.27 = 'True' THEN 1 ELSE 0 END<1] yes=7,no=8,missing=7
			7:[tdays<1] yes=15,no=16,missing=15
				15:leaf=-0.0490511134
				16:leaf=0.0788120553
			8:[uage<3.5] yes=17,no=18,missing=17
				17:leaf=0.0660708174
				18:leaf=-0.0220593922
		4:[tdays<193.5] yes=9,no=10,missing=9
			9:[uage<2.5] yes=19,no=20,missing=19
				19:leaf=-0.0207367819
				20:leaf=-0.071597822
			10:[CASE WHEN a.27 = 'True' THEN 1 ELSE 0 END<1] yes=21,no=22,missing=21
				21:leaf=0.0664132535
				22:leaf=-0.0346126631
	2:[ucnt10<1] yes=5,no=6,missing=5
		5:[ucnt9<61] yes=11,no=12,missing=11
			11:[CASE WHEN a.15 = 'True' THEN 1 ELSE 0 END<1] yes=23,no=24,missing=23
				23:leaf=0.0704045743
				24:leaf=0.0312278178
			12:[ucnt1<25] yes=25,no=26,missing=25
				25:leaf=0.101568617
				26:leaf=0.0478930585
		6:[realage<28.5] yes=13,no=14,missing=13
			13:[ucnt1<266] yes=27,no=28,missing=27
				27:leaf=0.031082442
				28:leaf=-0.0152908564
			14:[tdays<1389.5] yes=29,no=30,missing=29
				29:leaf=-0.0157156866
				30:leaf=0.0215391498
booster[19]:
0:[tdays<918.5] yes=1,no=2,missing=1
	1:[min_price<800] yes=3,no=4,missing=3
		3:[realage<24.5] yes=7,no=8,missing=7
			7:[ucnt1<159] yes=15,no=16,missing=15
				15:leaf=0.0783447847
				16:leaf=-0.00522366259
			8:[uage<7.5] yes=17,no=18,missing=17
				17:leaf=0.00440487312
				18:leaf=-0.0275813341
		4:[ucnt2<27] yes=9,no=10,missing=9
			9:[tdays<347.5] yes=19,no=20,missing=19
				19:leaf=-0.0274534952
				20:leaf=0.0213619974
			10:[realage<47.5] yes=21,no=22,missing=21
				21:leaf=-0.0313119702
				22:leaf=-0.0671065301
	2:[tdays<1573.5] yes=5,no=6,missing=5
		5:[CASE WHEN a.30 = 'True' THEN 1 ELSE 0 END<1] yes=11,no=12,missing=11
			11:[CASE WHEN a.25 = 'True' THEN 1 ELSE 0 END<1] yes=23,no=24,missing=23
				23:leaf=0.0658425242
				24:leaf=0.0258250032
			12:[realage<28.5] yes=25,no=26,missing=25
				25:leaf=0.0177201089
				26:leaf=-0.00410758238
		6:[realage<47.5] yes=13,no=14,missing=13
			13:[ucnt10<45] yes=27,no=28,missing=27
				27:leaf=0.0420386121
				28:leaf=0.0738999844
			14:[realage<52.5] yes=29,no=30,missing=29
				29:leaf=-0.0228970125
				30:leaf=0.0861383006
booster[20]:
0:[ucnt10<7] yes=1,no=2,missing=1
	1:[ucnt9<48] yes=3,no=4,missing=3
		3:[CASE WHEN a.15 = 'True' THEN 1 ELSE 0 END<1] yes=7,no=8,missing=7
			7:[ucnt6<14] yes=15,no=16,missing=15
				15:leaf=0.0584667511
				16:leaf=0.0049303933
			8:[tdays<1572.5] yes=17,no=18,missing=17
				17:leaf=0.00843217876
				18:leaf=0.0442240685
		4:[ucnt3<94] yes=9,no=10,missing=9
			9:[ucnt2<107] yes=19,no=20,missing=19
				19:leaf=0.0506461076
				20:leaf=-0.0186293554
			10:[ucnt2<1] yes=21,no=22,missing=21
				21:leaf=-0.000762996962
				22:leaf=0.0820258185
	2:[tdays<435.5] yes=5,no=6,missing=5
		5:[usex<1.5] yes=11,no=12,missing=11
			11:[usex<0.5] yes=23,no=24,missing=23
				23:leaf=0.127738193
				24:leaf=-0.0277881064
			12:[tdays<261.5] yes=25,no=26,missing=25
				25:leaf=-0.0741456971
				26:leaf=-0.0399595499
		6:[CASE WHEN a.30 = 'True' THEN 1 ELSE 0 END<1] yes=13,no=14,missing=13
			13:[CASE WHEN a.26 = 'True' THEN 1 ELSE 0 END<1] yes=27,no=28,missing=27
				27:leaf=0.0605796576
				28:leaf=0.027743021
			14:[min_price<1250] yes=29,no=30,missing=29
				29:leaf=0.0017013438
				30:leaf=-0.0195369404
booster[21]:
0:[ucnt1<7] yes=1,no=2,missing=1
	1:[CASE WHEN a.13 = 'True' THEN 1 ELSE 0 END<1] yes=3,no=4,missing=3
		3:[tdays<6.5] yes=7,no=8,missing=7
			7:[ucnt1<1] yes=15,no=16,missing=15
				15:leaf=-0.0798626989
				16:leaf=0.0866825506
			8:[min_price<800] yes=17,no=18,missing=17
				17:leaf=0.0797794685
				18:leaf=0.0491039269
		4:[ucnt7<162] yes=9,no=10,missing=9
			9:[ucnt3<1] yes=19,no=20,missing=19
				19:leaf=0.0374829769
				20:leaf=0.010549047
			10:[ucnt6<306] yes=21,no=22,missing=21
				21:leaf=0.049431745
				22:leaf=0.122650027
	2:[tdays<492.5] yes=5,no=6,missing=5
		5:[uage<2.5] yes=11,no=12,missing=11
			11:[ucnt5<160] yes=23,no=24,missing=23
				23:leaf=0.0544535518
				24:leaf=-0.0208953097
			12:[tdays<215.5] yes=25,no=26,missing=25
				25:leaf=-0.0610259064
				26:leaf=-0.0311005022
		6:[realage<39.5] yes=13,no=14,missing=13
			13:[min_price<1750] yes=27,no=28,missing=27
				27:leaf=0.0146925813
				28:leaf=-0.0184094757
			14:[tdays<939.5] yes=29,no=30,missing=29
				29:leaf=-0.0328078978
				30:leaf=-0.00665567163
booster[22]:
0:[ucnt4<7] yes=1,no=2,missing=1
	1:[realage<24.5] yes=3,no=4,missing=3
		3:[0<0.5] yes=7,no=8,missing=7
			7:[ucnt8<261] yes=15,no=16,missing=15
				15:leaf=0.0676733702
				16:leaf=-0.0174983088
			8:[CASE WHEN a.5 = 'True' THEN 1 ELSE 0 END<1] yes=17,no=18,missing=17
				17:leaf=0.0649068877
				18:leaf=-0.102580905
		4:[tdays<130.5] yes=9,no=10,missing=9
			9:[ucnt3<478] yes=19,no=20,missing=19
				19:leaf=-0.0442768633
				20:leaf=0.0698978826
			10:[CASE WHEN a.8 = 'True' THEN 1 ELSE 0 END<1] yes=21,no=22,missing=21
				21:leaf=0.0511715226
				22:leaf=0.0130268112
	2:[tdays<491.5] yes=5,no=6,missing=5
		5:[realage<47.5] yes=11,no=12,missing=11
			11:[3<0.5] yes=23,no=24,missing=23
				23:leaf=-0.0276752412
				24:leaf=0.0695227534
			12:[min_price<300] yes=25,no=26,missing=25
				25:leaf=-0.00450416049
				26:leaf=-0.0747984722
		6:[CASE WHEN a.28 = 'True' THEN 1 ELSE 0 END<1] yes=13,no=14,missing=13
			13:[ucnt4<97] yes=27,no=28,missing=27
				27:leaf=0.0332168601
				28:leaf=0.0671828762
			14:[realage<39.5] yes=29,no=30,missing=29
				29:leaf=0.00134292385
				30:leaf=-0.019690372
booster[23]:
0:[tdays<982.5] yes=1,no=2,missing=1
	1:[max_price<1250] yes=3,no=4,missing=3
		3:[CASE WHEN a.30 = 'True' THEN 1 ELSE 0 END<1] yes=7,no=8,missing=7
			7:[realage<23.5] yes=15,no=16,missing=15
				15:leaf=0.100706816
				16:leaf=0.0379802585
			8:[uage<7.5] yes=17,no=18,missing=17
				17:leaf=0.00641175499
				18:leaf=-0.0205509309
		4:[realage<47.5] yes=9,no=10,missing=9
			9:[ucnt10<35] yes=19,no=20,missing=19
				19:leaf=0.00739931315
				20:leaf=-0.0239686277
			10:[ucnt3<14] yes=21,no=22,missing=21
				21:leaf=0.0108407652
				22:leaf=-0.0579062067
	2:[CASE WHEN a.22 = 'True' THEN 1 ELSE 0 END<1] yes=5,no=6,missing=5
		5:[max_price<2500] yes=11,no=12,missing=11
			11:[ucnt9<12] yes=23,no=24,missing=23
				23:leaf=0.0753643662
				24:leaf=0.0394106247
			12:[ucnt9<2] yes=25,no=26,missing=25
				25:leaf=0.0525700115
				26:leaf=-0.0573506951
		6:[realage<28.5] yes=13,no=14,missing=13
			13:[tdays<1464.5] yes=27,no=28,missing=27
				27:leaf=0.0152850254
				28:leaf=0.0586694144
			14:[realage<57.5] yes=29,no=30,missing=29
				29:leaf=-1.76857338e-05
				30:leaf=0.0631954893
booster[24]:
0:[tdays<375.5] yes=1,no=2,missing=1
	1:[usex<1.5] yes=3,no=4,missing=3
		3:[uage<2.5] yes=7,no=8,missing=7
			7:[tdays<39.5] yes=15,no=16,missing=15
				15:leaf=0.0797509924
				16:leaf=-0.00860369392
			8:[ucnt5<3] yes=17,no=18,missing=17
				17:leaf=0.0126348576
				18:leaf=-0.0336339064
		4:[uage<7.5] yes=9,no=10,missing=9
			9:[tdays<98.5] yes=19,no=20,missing=19
				19:leaf=-0.0740478262
				20:leaf=-0.034966249
			10:[ucnt9<590] yes=21,no=22,missing=21
				21:leaf=-0.0943312049
				22:leaf=0.0768291876
	2:[CASE WHEN a.21 = 'True' THEN 1 ELSE 0 END<1] yes=5,no=6,missing=5
		5:[tdays<575.5] yes=11,no=12,missing=11
			11:[CASE WHEN a.27 = 'True' THEN 1 ELSE 0 END<1] yes=23,no=24,missing=23
				23:leaf=0.103486419
				24:leaf=0.0353337377
			12:[ucnt10<315] yes=25,no=26,missing=25
				25:leaf=0.0424877517
				26:leaf=-0.0426239632
		6:[ucnt10<2] yes=13,no=14,missing=13
			13:[ucnt8<23] yes=27,no=28,missing=27
				27:leaf=0.0152365584
				28:leaf=0.0469703227
			14:[tdays<1399.5] yes=29,no=30,missing=29
				29:leaf=-0.00938192569
				30:leaf=0.0199970324
booster[25]:
0:[ucnt7<2] yes=1,no=2,missing=1
	1:[tdays<1.5] yes=3,no=4,missing=3
		3:[ucnt10<117] yes=7,no=8,missing=7
			7:[uage<6] yes=15,no=16,missing=15
				15:leaf=0.0240460876
				16:leaf=-0.0715529397
			8:[ucnt1<549] yes=17,no=18,missing=17
				17:leaf=-0.110501759
				18:leaf=-0.0314573459
		4:[CASE WHEN a.7 = 'True' THEN 1 ELSE 0 END<1] yes=9,no=10,missing=9
			9:[tdays<103] yes=19,no=20,missing=19
				19:leaf=0.00570494123
				20:leaf=0.0496183857
			10:[ucnt10<20] yes=21,no=22,missing=21
				21:leaf=0.0136394938
				22:leaf=0.040883448
	2:[tdays<400.5] yes=5,no=6,missing=5
		5:[usex<1.5] yes=11,no=12,missing=11
			11:[ucnt10<3] yes=23,no=24,missing=23
				23:leaf=0.040282961
				24:leaf=-0.0225142371
			12:[realage<47.5] yes=25,no=26,missing=25
				25:leaf=-0.0425579138
				26:leaf=-0.081113033
		6:[realage<47.5] yes=13,no=14,missing=13
			13:[tdays<1478.5] yes=27,no=28,missing=27
				27:leaf=-0.00123284885
				28:leaf=0.030759275
			14:[18<0.5] yes=29,no=30,missing=29
				29:leaf=-0.0131038791
				30:leaf=-0.047739327
booster[26]:
0:[CASE WHEN a.11 = 'True' THEN 1 ELSE 0 END<1] yes=1,no=2,missing=1
	1:[realage<23.5] yes=3,no=4,missing=3
		3:[realage<18.5] yes=7,no=8,missing=7
			7:[ucnt3<36] yes=15,no=16,missing=15
				15:leaf=-0.0411604643
				16:leaf=0.0438835844
			8:[CASE WHEN a.15 = 'True' THEN 1 ELSE 0 END<1] yes=17,no=18,missing=17
				17:leaf=0.0962316319
				18:leaf=0.0399427824
		4:[CASE WHEN a.17 = 'True' THEN 1 ELSE 0 END<1] yes=9,no=10,missing=9
			9:[ucnt2<10] yes=19,no=20,missing=19
				19:leaf=0.0375928171
				20:leaf=-0.00221591047
			10:[ucnt6<10] yes=21,no=22,missing=21
				21:leaf=0.0639540106
				22:leaf=0.0266994033
	2:[min_price<300] yes=5,no=6,missing=5
		5:[ucnt8<93] yes=11,no=12,missing=11
			11:[uage<3.5] yes=23,no=24,missing=23
				23:leaf=0.0578889512
				24:leaf=0.00685446197
			12:[realage<18.5] yes=25,no=26,missing=25
				25:leaf=-0.07110852
				26:leaf=0.0512656942
		6:[realage<47.5] yes=13,no=14,missing=13
			13:[ucnt2<5] yes=27,no=28,missing=27
				27:leaf=0.0201953333
				28:leaf=-0.00834969711
			14:[usex<1.5] yes=29,no=30,missing=29
				29:leaf=-0.0201697983
				30:leaf=-0.0486523956
booster[27]:
0:[ucnt3<6] yes=1,no=2,missing=1
	1:[tdays<1631.5] yes=3,no=4,missing=3
		3:[ucnt9<131] yes=7,no=8,missing=7
			7:[realage<23.5] yes=15,no=16,missing=15
				15:leaf=0.0426234715
				16:leaf=0.0103675192
			8:[ucnt9<194] yes=17,no=18,missing=17
				17:leaf=0.110576652
				18:leaf=0.0375043042
		4:[CASE WHEN a.15 = 'True' THEN 1 ELSE 0 END<1] yes=9,no=10,missing=9
			9:[tdays<1718.5] yes=19,no=20,missing=19
				19:leaf=0.0338408612
				20:leaf=0.0954202786
			10:[ucnt7<5] yes=21,no=22,missing=21
				21:leaf=0.0253421851
				22:leaf=0.0641020387
	2:[tdays<1116.5] yes=5,no=6,missing=5
		5:[realage<31.5] yes=11,no=12,missing=11
			11:[realage<30.5] yes=23,no=24,missing=23
				23:leaf=-0.00623071939
				24:leaf=0.0520307682
			12:[min_price<300] yes=25,no=26,missing=25
				25:leaf=0.00782854017
				26:leaf=-0.0276974291
		6:[ucnt3<32] yes=13,no=14,missing=13
			13:[CASE WHEN a.9 = 'True' THEN 1 ELSE 0 END<1] yes=27,no=28,missing=27
				27:leaf=0.0584926493
				28:leaf=-0.00603071321
			14:[tdays<1390.5] yes=29,no=30,missing=29
				29:leaf=0.00949561503
				30:leaf=0.0313763507
booster[28]:
0:[ucnt9<1] yes=1,no=2,missing=1
	1:[CASE WHEN a.9 = 'True' THEN 1 ELSE 0 END<1] yes=3,no=4,missing=3
		3:[ucnt10<118] yes=7,no=8,missing=7
			7:[0<0.5] yes=15,no=16,missing=15
				15:leaf=0.0484579578
				16:leaf=-0.0341942087
			8:[usex<0.5] yes=17,no=18,missing=17
				17:leaf=0.11993587
				18:leaf=-0.0103232181
		4:[ucnt10<49] yes=9,no=10,missing=9
			9:[CASE WHEN a.22 = 'True' THEN 1 ELSE 0 END<1] yes=19,no=20,missing=19
				19:leaf=0.0521373563
				20:leaf=0.0012189307
			10:[realage<46.5] yes=21,no=22,missing=21
				21:leaf=0.0694511235
				22:leaf=-0.00449091336
	2:[uage<2.5] yes=5,no=6,missing=5
		5:[ucnt5<270] yes=11,no=12,missing=11
			11:[realage<14.5] yes=23,no=24,missing=23
				23:leaf=0.0957947224
				24:leaf=0.0410221778
			12:[uage<0.5] yes=25,no=26,missing=25
				25:leaf=0.165315449
				26:leaf=-0.0236454625
		6:[ucnt10<3] yes=13,no=14,missing=13
			13:[ucnt9<31] yes=27,no=28,missing=27
				27:leaf=0.00202266104
				28:leaf=0.0429467782
			14:[min_price<1750] yes=29,no=30,missing=29
				29:leaf=-0.00743575906
				30:leaf=-0.0257240869
booster[29]:
0:[min_price<800] yes=1,no=2,missing=1
	1:[realage<24.5] yes=3,no=4,missing=3
		3:[realage<18.5] yes=7,no=8,missing=7
			7:[ucnt8<43] yes=15,no=16,missing=15
				15:leaf=0.0419863351
				16:leaf=-0.0573213398
			8:[tdays<244.5] yes=17,no=18,missing=17
				17:leaf=0.130925998
				18:leaf=0.0420715958
		4:[realage<25.5] yes=9,no=10,missing=9
			9:[ucnt1<192] yes=19,no=20,missing=19
				19:leaf=-0.0451172255
				20:leaf=0.0500786714
			10:[realage<28.5] yes=21,no=22,missing=21
				21:leaf=0.0781251714
				22:leaf=0.0039556073
	2:[tdays<1034.5] yes=5,no=6,missing=5
		5:[ucnt1<11] yes=11,no=12,missing=11
			11:[ucnt4<97] yes=23,no=24,missing=23
				23:leaf=0.00877491292
				24:leaf=0.0840118974
			12:[tdays<123.5] yes=25,no=26,missing=25
				25:leaf=-0.0565943196
				26:leaf=-0.0162343364
		6:[ucnt3<1] yes=13,no=14,missing=13
			13:[realage<24.5] yes=27,no=28,missing=27
				27:leaf=0.0862841532
				28:leaf=0.0327533819
			14:[ucnt2<30] yes=29,no=30,missing=29
				29:leaf=-0.014879589
				30:leaf=0.0136135174
booster[30]:
0:[tdays<242.5] yes=1,no=2,missing=1
	1:[uage<2.5] yes=3,no=4,missing=3
		3:[tdays<42.5] yes=7,no=8,missing=7
			7:[uage<1.5] yes=15,no=16,missing=15
				15:leaf=-0.0364627801
				16:leaf=0.101722121
			8:[uage<1.5] yes=17,no=18,missing=17
				17:leaf=0.0244843997
				18:leaf=-0.033216197
		4:[ucnt4<11] yes=9,no=10,missing=9
			9:[min_price<800] yes=19,no=20,missing=19
				19:leaf=0.0282509774
				20:leaf=-0.0263396651
			10:[ucnt10<666] yes=21,no=22,missing=21
				21:leaf=-0.0490448102
				22:leaf=0.0336707495
	2:[CASE WHEN a.26 = 'True' THEN 1 ELSE 0 END<1] yes=5,no=6,missing=5
		5:[ucnt7<535] yes=11,no=12,missing=11
			11:[tdays<1506.5] yes=23,no=24,missing=23
				23:leaf=0.0261830725
				24:leaf=0.0586183481
			12:[tdays<541] yes=25,no=26,missing=25
				25:leaf=0.180403054
				26:leaf=0.0617702678
		6:[uage<7.5] yes=13,no=14,missing=13
			13:[min_price<1750] yes=27,no=28,missing=27
				27:leaf=0.008115137
				28:leaf=-0.0107311616
			14:[tdays<822.5] yes=29,no=30,missing=29
				29:leaf=-0.0311567523
				30:leaf=-0.00439891731
booster[31]:
0:[ucnt1<6] yes=1,no=2,missing=1
	1:[ucnt7<31] yes=3,no=4,missing=3
		3:[realage<30.5] yes=7,no=8,missing=7
			7:[realage<28.5] yes=15,no=16,missing=15
				15:leaf=0.0142213078
				16:leaf=-0.0297027975
			8:[ucnt3<32] yes=17,no=18,missing=17
				17:leaf=0.0329427049
				18:leaf=-0.022612486
		4:[ucnt7<180] yes=9,no=10,missing=9
			9:[ucnt10<164] yes=19,no=20,missing=19
				19:leaf=0.0442008451
				20:leaf=-0.0687586293
			10:[CASE WHEN a.4 = 'True' THEN 1 ELSE 0 END<1] yes=21,no=22,missing=21
				21:leaf=-0.0773822367
				22:leaf=0.0986309201
	2:[realage<21.5] yes=5,no=6,missing=5
		5:[ucnt5<252] yes=11,no=12,missing=11
			11:[ucnt6<389] yes=23,no=24,missing=23
				23:leaf=0.0391009264
				24:leaf=-0.0497591458
			12:[ucnt7<1394] yes=25,no=26,missing=25
				25:leaf=-0.0116151227
				26:leaf=0.126685053
		6:[tdays<154.5] yes=13,no=14,missing=13
			13:[ucnt10<35] yes=27,no=28,missing=27
				27:leaf=-0.00703464448
				28:leaf=-0.0566638112
			14:[CASE WHEN a.27 = 'True' THEN 1 ELSE 0 END<1] yes=29,no=30,missing=29
				29:leaf=0.0292581618
				30:leaf=-0.00689114258
booster[32]:
0:[min_price<800] yes=1,no=2,missing=1
	1:[CASE WHEN a.30 = 'True' THEN 1 ELSE 0 END<1] yes=3,no=4,missing=3
		3:[realage<47.5] yes=7,no=8,missing=7
			7:[tdays<9.5] yes=15,no=16,missing=15
				15:leaf=-0.0168896075
				16:leaf=0.0458001383
			8:[ucnt2<158] yes=17,no=18,missing=17
				17:leaf=0.00694532692
				18:leaf=-0.0880081579
		4:[ucnt7<1] yes=9,no=10,missing=9
			9:[realage<31.5] yes=19,no=20,missing=19
				19:leaf=0.0134996325
				20:leaf=0.045745533
			10:[ucnt5<71] yes=21,no=22,missing=21
				21:leaf=-0.00618605036
				22:leaf=0.0117632709
	2:[tdays<1469.5] yes=5,no=6,missing=5
		5:[realage<47.5] yes=11,no=12,missing=11
			11:[usex<0.5] yes=23,no=24,missing=23
				23:leaf=0.13076207
				24:leaf=-0.00922784675
			12:[ucnt9<647] yes=25,no=26,missing=25
				25:leaf=-0.0373263471
				26:leaf=0.148581341
		6:[ucnt2<29] yes=13,no=14,missing=13
			13:[CASE WHEN a.15 = 'True' THEN 1 ELSE 0 END<1] yes=27,no=28,missing=27
				27:leaf=0.0723726228
				28:leaf=0.000864052388
			14:[ucnt2<353] yes=29,no=30,missing=29
				29:leaf=0.0560234077
				30:leaf=-0.0225535687
booster[33]:
0:[ucnt4<2] yes=1,no=2,missing=1
	1:[realage<49.5] yes=3,no=4,missing=3
		3:[realage<32.5] yes=7,no=8,missing=7
			7:[realage<23.5] yes=15,no=16,missing=15
				15:leaf=0.0447417796
				16:leaf=0.00871238019
			8:[tdays<27] yes=17,no=18,missing=17
				17:leaf=-0.0880290717
				18:leaf=0.0545198731
		4:[realage<52.5] yes=9,no=10,missing=9
			9:[CASE WHEN a.22 = 'True' THEN 1 ELSE 0 END<1] yes=19,no=20,missing=19
				19:leaf=0.046888452
				20:leaf=-0.0288964417
			10:[ucnt10<172] yes=21,no=22,missing=21
				21:leaf=0.0675820932
				22:leaf=-0.0670381114
	2:[tdays<380.5] yes=5,no=6,missing=5
		5:[usex<1.5] yes=11,no=12,missing=11
			11:[ucnt10<2] yes=23,no=24,missing=23
				23:leaf=0.0350692235
				24:leaf=-0.0146888839
			12:[ucnt3<14] yes=25,no=26,missing=25
				25:leaf=0.0244630817
				26:leaf=-0.0477022193
		6:[max_price<2500] yes=13,no=14,missing=13
			13:[realage<28.5] yes=27,no=28,missing=27
				27:leaf=0.0158515256
				28:leaf=-0.00123751105
			14:[realage<31.5] yes=29,no=30,missing=29
				29:leaf=-0.0031612874
				30:leaf=-0.0283900853
booster[34]:
0:[ucnt9<4] yes=1,no=2,missing=1
	1:[realage<30.5] yes=3,no=4,missing=3
		3:[realage<28.5] yes=7,no=8,missing=7
			7:[ucnt10<5] yes=15,no=16,missing=15
				15:leaf=0.00510542234
				16:leaf=0.0421780311
			8:[CASE WHEN a.5 = 'True' THEN 1 ELSE 0 END<1] yes=17,no=18,missing=17
				17:leaf=0.0272509959
				18:leaf=-0.0376066379
		4:[realage<48.5] yes=9,no=10,missing=9
			9:[realage<40.5] yes=19,no=20,missing=19
				19:leaf=0.0341286436
				20:leaf=0.0874946564
			10:[realage<51.5] yes=21,no=22,missing=21
				21:leaf=-0.00224961969
				22:leaf=0.051324971
	2:[min_price<300] yes=5,no=6,missing=5
		5:[ucnt8<78] yes=11,no=12,missing=11
			11:[uage<3.5] yes=23,no=24,missing=23
				23:leaf=0.0458266325
				24:leaf=-0.00332007045
			12:[ucnt8<595] yes=25,no=26,missing=25
				25:leaf=0.0394942686
				26:leaf=-0.0617474727
		6:[realage<49.5] yes=13,no=14,missing=13
			13:[uage<0.5] yes=27,no=28,missing=27
				27:leaf=0.121252254
				28:leaf=-0.00472128903
			14:[ucnt8<336] yes=29,no=30,missing=29
				29:leaf=-0.0265667289
				30:leaf=0.0476201288
booster[35]:
0:[tdays<832.5] yes=1,no=2,missing=1
	1:[realage<44.5] yes=3,no=4,missing=3
		3:[min_price<300] yes=7,no=8,missing=7
			7:[realage<30.5] yes=15,no=16,missing=15
				15:leaf=-0.00235691341
				16:leaf=0.0413977616
			8:[usex<0.5] yes=17,no=18,missing=17
				17:leaf=0.113220565
				18:leaf=-0.00743404916
		4:[ucnt8<18] yes=9,no=10,missing=9
			9:[usex<1.5] yes=19,no=20,missing=19
				19:leaf=0.0332640298
				20:leaf=-0.0284798723
			10:[ucnt5<388] yes=21,no=22,missing=21
				21:leaf=-0.0390764587
				22:leaf=0.0255348738
	2:[CASE WHEN a.30 = 'True' THEN 1 ELSE 0 END<1] yes=5,no=6,missing=5
		5:[ucnt4<664] yes=11,no=12,missing=11
			11:[ucnt8<141] yes=23,no=24,missing=23
				23:leaf=0.0350305252
				24:leaf=0.00199874537
			12:[ucnt8<456] yes=25,no=26,missing=25
				25:leaf=-0.127598524
				26:leaf=0.00440661702
		6:[ucnt10<288] yes=13,no=14,missing=13
			13:[realage<21.5] yes=27,no=28,missing=27
				27:leaf=0.0289986134
				28:leaf=0.00330255157
			14:[realage<18.5] yes=29,no=30,missing=29
				29:leaf=-0.0906182379
				30:leaf=-0.0142445331
booster[36]:
0:[tdays<224.5] yes=1,no=2,missing=1
	1:[usex<1.5] yes=3,no=4,missing=3
		3:[min_price<800] yes=7,no=8,missing=7
			7:[realage<24.5] yes=15,no=16,missing=15
				15:leaf=0.0778721496
				16:leaf=-0.00811183732
			8:[ucnt10<7] yes=17,no=18,missing=17
				17:leaf=0.0400301553
				18:leaf=-0.0318704955
		4:[ucnt7<211] yes=9,no=10,missing=9
			9:[realage<23.5] yes=19,no=20,missing=19
				19:leaf=0.0132531915
				20:leaf=-0.0785362571
			10:[ucnt4<96] yes=21,no=22,missing=21
				21:leaf=0.178806052
				22:leaf=-0.0314858891
	2:[3<0.5] yes=5,no=6,missing=5
		5:[min_price<300] yes=11,no=12,missing=11
			11:[ucnt8<94] yes=23,no=24,missing=23
				23:leaf=0.00782040786
				24:leaf=0.0465984195
			12:[tdays<1479.5] yes=25,no=26,missing=25
				25:leaf=-0.00362910889
				26:leaf=0.0206291508
		6:[ucnt2<167] yes=13,no=14,missing=13
			13:[ucnt9<153] yes=27,no=28,missing=27
				27:leaf=0.0410800725
				28:leaf=-0.0669962391
			14:[ucnt7<631] yes=29,no=30,missing=29
				29:leaf=0.163008794
				30:leaf=-0.0756568834
booster[37]:
0:[realage<47.5] yes=1,no=2,missing=1
	1:[CASE WHEN a.15 = 'True' THEN 1 ELSE 0 END<1] yes=3,no=4,missing=3
		3:[realage<18.5] yes=7,no=8,missing=7
			7:[ucnt9<297] yes=15,no=16,missing=15
				15:leaf=-0.0774118826
				16:leaf=0.0588833876
			8:[CASE WHEN a.30 = 'True' THEN 1 ELSE 0 END<1] yes=17,no=18,missing=17
				17:leaf=0.0108952885
				18:leaf=0.038901031
		4:[CASE WHEN a.30 = 'True' THEN 1 ELSE 0 END<1] yes=9,no=10,missing=9
			9:[realage<30.5] yes=19,no=20,missing=19
				19:leaf=0.0114868777
				20:leaf=0.0491805524
			10:[uage<0.5] yes=21,no=22,missing=21
				21:leaf=0.0866048411
				22:leaf=-0.00327127986
	2:[usex<1.5] yes=5,no=6,missing=5
		5:[realage<50.5] yes=11,no=12,missing=11
			11:[ucnt5<251] yes=23,no=24,missing=23
				23:leaf=-0.0183422677
				24:leaf=0.0396031216
			12:[max_price<1250] yes=25,no=26,missing=25
				25:leaf=0.0370762981
				26:leaf=-0.0109141897
		6:[ucnt3<11] yes=13,no=14,missing=13
			13:[CASE WHEN a.29 = 'True' THEN 1 ELSE 0 END<1] yes=27,no=28,missing=27
				27:leaf=-0.0572160967
				28:leaf=0.0228000712
			14:[ucnt2<252] yes=29,no=30,missing=29
				29:leaf=-0.046886012
				30:leaf=-0.00188881345
booster[38]:
0:[tdays<371.5] yes=1,no=2,missing=1
	1:[realage<44.5] yes=3,no=4,missing=3
		3:[min_price<3500] yes=7,no=8,missing=7
			7:[ucnt1<897] yes=15,no=16,missing=15
				15:leaf=-0.012069325
				16:leaf=0.036606662
			8:[ucnt10<78] yes=17,no=18,missing=17
				17:leaf=0.0751563013
				18:leaf=-0.0910060629
		4:[min_price<300] yes=9,no=10,missing=9
			9:[ucnt3<27] yes=19,no=20,missing=19
				19:leaf=0.112329386
				20:leaf=-0.0321095958
			10:[ucnt2<417] yes=21,no=22,missing=21
				21:leaf=-0.0684782788
				22:leaf=0.0499454588
	2:[CASE WHEN a.28 = 'True' THEN 1 ELSE 0 END<1] yes=5,no=6,missing=5
		5:[CASE WHEN a.6 = 'True' THEN 1 ELSE 0 END<1] yes=11,no=12,missing=11
			11:[ucnt2<2] yes=23,no=24,missing=23
				23:leaf=0.0278329998
				24:leaf=-0.028719008
			12:[ucnt3<201] yes=25,no=26,missing=25
				25:leaf=0.0336205848
				26:leaf=0.0792694688
		6:[realage<28.5] yes=13,no=14,missing=13
			13:[realage<25.5] yes=27,no=28,missing=27
				27:leaf=0.00182258559
				28:leaf=0.0477380194
			14:[realage<66.5] yes=29,no=30,missing=29
				29:leaf=-0.00228374335
				30:leaf=0.101855241
booster[39]:
0:[tdays<593.5] yes=1,no=2,missing=1
	1:[realage<47.5] yes=3,no=4,missing=3
		3:[3<0.5] yes=7,no=8,missing=7
			7:[usex<1.5] yes=15,no=16,missing=15
				15:leaf=-0.00178119203
				16:leaf=-0.0218847487
			8:[ucnt2<186] yes=17,no=18,missing=17
				17:leaf=0.00360974553
				18:leaf=0.119878046
		4:[ucnt10<566] yes=9,no=10,missing=9
			9:[min_price<800] yes=19,no=20,missing=19
				19:leaf=-0.0162344519
				20:leaf=-0.0563173369
			10:[tdays<418] yes=21,no=22,missing=21
				21:leaf=0.181602329
				22:leaf=-0.0363840684
	2:[min_price<1750] yes=5,no=6,missing=5
		5:[realage<49.5] yes=11,no=12,missing=11
			11:[realage<42.5] yes=23,no=24,missing=23
				23:leaf=0.00760797551
				24:leaf=0.0439772382
			12:[realage<50.5] yes=25,no=26,missing=25
				25:leaf=-0.017900018
				26:leaf=0.0163549539
		6:[tdays<1060.5] yes=13,no=14,missing=13
			13:[ucnt2<168] yes=27,no=28,missing=27
				27:leaf=-0.0017444758
				28:leaf=-0.0319598019
			14:[ucnt8<66] yes=29,no=30,missing=29
				29:leaf=0.00121441262
				30:leaf=0.0239516459
booster[40]:
0:[tdays<264.5] yes=1,no=2,missing=1
	1:[uage<2.5] yes=3,no=4,missing=3
		3:[tdays<39.5] yes=7,no=8,missing=7
			7:[realage<19.5] yes=15,no=16,missing=15
				15:leaf=-0.0515133627
				16:leaf=0.111242972
			8:[ucnt2<1120] yes=17,no=18,missing=17
				17:leaf=-0.0110106878
				18:leaf=0.141004786
		4:[ucnt10<11] yes=9,no=10,missing=9
			9:[ucnt5<131] yes=19,no=20,missing=19
				19:leaf=-0.00651443098
				20:leaf=0.101893045
			10:[usex<1.5] yes=21,no=22,missing=21
				21:leaf=-0.0275353584
				22:leaf=-0.0537490621
	2:[CASE WHEN a.25 = 'True' THEN 1 ELSE 0 END<1] yes=5,no=6,missing=5
		5:[ucnt4<154] yes=11,no=12,missing=11
			11:[ucnt4<134] yes=23,no=24,missing=23
				23:leaf=0.0222309511
				24:leaf=-0.0568419695
			12:[realage<51] yes=25,no=26,missing=25
				25:leaf=0.0748338923
				26:leaf=-0.091315642
		6:[realage<28.5] yes=13,no=14,missing=13
			13:[realage<25.5] yes=27,no=28,missing=27
				27:leaf=0.000344261527
				28:leaf=0.040817894
			14:[realage<30.5] yes=29,no=30,missing=29
				29:leaf=-0.0165271219
				30:leaf=0.000228779856
booster[41]:
0:[ucnt10<1] yes=1,no=2,missing=1
	1:[ucnt6<11] yes=3,no=4,missing=3
		3:[realage<31.5] yes=7,no=8,missing=7
			7:[realage<28.5] yes=15,no=16,missing=15
				15:leaf=0.0141507601
				16:leaf=-0.0207888447
			8:[realage<47.5] yes=17,no=18,missing=17
				17:leaf=0.0597537719
				18:leaf=-0.00287977117
		4:[ucnt7<1] yes=9,no=10,missing=9
			9:[tdays<689] yes=19,no=20,missing=19
				19:leaf=-0.0525694303
				20:leaf=0.0206182506
			10:[CASE WHEN a.4 = 'True' THEN 1 ELSE 0 END<1] yes=21,no=22,missing=21
				21:leaf=-0.035934981
				22:leaf=0.0490598194
	2:[ucnt3<1] yes=5,no=6,missing=5
		5:[CASE WHEN a.19 = 'True' THEN 1 ELSE 0 END<1] yes=11,no=12,missing=11
			11:[ucnt4<19] yes=23,no=24,missing=23
				23:leaf=-0.0116043724
				24:leaf=0.072290659
			12:[tdays<1479] yes=25,no=26,missing=25
				25:leaf=0.0232212599
				26:leaf=0.0675143823
		6:[realage<21.5] yes=13,no=14,missing=13
			13:[ucnt9<135] yes=27,no=28,missing=27
				27:leaf=0.0376435146
				28:leaf=-0.00425375905
			14:[tdays<120.5] yes=29,no=30,missing=29
				29:leaf=-0.0414308123
				30:leaf=-0.00463388953
booster[42]:
0:[tdays<1631.5] yes=1,no=2,missing=1
	1:[CASE WHEN a.17 = 'True' THEN 1 ELSE 0 END<1] yes=3,no=4,missing=3
		3:[CASE WHEN a.11 = 'True' THEN 1 ELSE 0 END<1] yes=7,no=8,missing=7
			7:[CASE WHEN a.26 = 'True' THEN 1 ELSE 0 END<1] yes=15,no=16,missing=15
				15:leaf=-0.0109217139
				16:leaf=0.0315499529
			8:[ucnt6<752] yes=17,no=18,missing=17
				17:leaf=0.038598571
				18:leaf=0.157210678
		4:[CASE WHEN a.11 = 'True' THEN 1 ELSE 0 END<1] yes=9,no=10,missing=9
			9:[tdays<1590.5] yes=19,no=20,missing=19
				19:leaf=0.0377012305
				20:leaf=-0.154465437
			10:[uage<0.5] yes=21,no=22,missing=21
				21:leaf=0.093575649
				22:leaf=-0.00507636368
	2:[ucnt5<102] yes=5,no=6,missing=5
		5:[realage<24.5] yes=11,no=12,missing=11
			11:[ucnt4<80] yes=23,no=24,missing=23
				23:leaf=0.0733475611
				24:leaf=-0.0407008454
			12:[realage<52.5] yes=25,no=26,missing=25
				25:leaf=0.00744725903
				26:leaf=0.0962672457
		6:[ucnt2<386] yes=13,no=14,missing=13
			13:[tdays<1725] yes=27,no=28,missing=27
				27:leaf=0.10679394
				28:leaf=0.0580462813
			14:[ucnt8<344] yes=29,no=30,missing=29
				29:leaf=0.0433727317
				30:leaf=-0.0808721855
booster[43]:
0:[min_price<1750] yes=1,no=2,missing=1
	1:[3<0.5] yes=3,no=4,missing=3
		3:[tdays<799.5] yes=7,no=8,missing=7
			7:[min_price<300] yes=15,no=16,missing=15
				15:leaf=0.013145457
				16:leaf=-0.0104779778
			8:[7<0.5] yes=17,no=18,missing=17
				17:leaf=0.00861846749
				18:leaf=-0.0223677885
		4:[ucnt2<167] yes=9,no=10,missing=9
			9:[ucnt1<48] yes=19,no=20,missing=19
				19:leaf=-0.0555038266
				20:leaf=0.0295237005
			10:[realage<40.5] yes=21,no=22,missing=21
				21:leaf=0.13707839
				22:leaf=-0.0236361753
	2:[tdays<1126.5] yes=5,no=6,missing=5
		5:[ucnt10<51] yes=11,no=12,missing=11
			11:[ucnt4<184] yes=23,no=24,missing=23
				23:leaf=-0.00301576057
				24:leaf=0.0871055275
			12:[realage<31.5] yes=25,no=26,missing=25
				25:leaf=-0.012845519
				26:leaf=-0.0351940952
		6:[tdays<1166.5] yes=13,no=14,missing=13
			13:[ucnt6<57] yes=27,no=28,missing=27
				27:leaf=0.00531460578
				28:leaf=0.0929156542
			14:[tdays<1838] yes=29,no=30,missing=29
				29:leaf=0.00891285483
				30:leaf=-0.129879132
booster[44]:
0:[ucnt1<3] yes=1,no=2,missing=1
	1:[ucnt9<35] yes=3,no=4,missing=3
		3:[realage<30.5] yes=7,no=8,missing=7
			7:[ucnt8<73] yes=15,no=16,missing=15
				15:leaf=-0.00046311412
				16:leaf=-0.0808305666
			8:[tdays<24] yes=17,no=18,missing=17
				17:leaf=-0.105639257
				18:leaf=0.021311393
		4:[ucnt6<305] yes=9,no=10,missing=9
			9:[ucnt4<32] yes=19,no=20,missing=19
				19:leaf=0.0545478724
				20:leaf=0.0149264624
			10:[min_price<800] yes=21,no=22,missing=21
				21:leaf=0.0268615689
				22:leaf=0.129173189
	2:[realage<29.5] yes=5,no=6,missing=5
		5:[realage<25.5] yes=11,no=12,missing=11
			11:[realage<23.5] yes=23,no=24,missing=23
				23:leaf=0.0086833844
				24:leaf=-0.0167215299
			12:[realage<28.5] yes=25,no=26,missing=25
				25:leaf=0.0343640558
				26:leaf=0.00122299395
		6:[realage<30.5] yes=13,no=14,missing=13
			13:[ucnt1<70] yes=27,no=28,missing=27
				27:leaf=-0.0528326221
				28:leaf=-0.00550330058
			14:[realage<31.5] yes=29,no=30,missing=29
				29:leaf=0.0369329676
				30:leaf=-0.00619377103
booster[45]:
0:[tdays<123.5] yes=1,no=2,missing=1
	1:[ucnt1<27] yes=3,no=4,missing=3
		3:[uage<2.5] yes=7,no=8,missing=7
			7:[uage<0.5] yes=15,no=16,missing=15
				15:leaf=-0.0627020076
				16:leaf=0.107041501
			8:[ucnt6<136] yes=17,no=18,missing=17
				17:leaf=-0.0235730689
				18:leaf=0.118664242
		4:[ucnt1<764] yes=9,no=10,missing=9
			9:[min_price<1750] yes=19,no=20,missing=19
				19:leaf=-0.0272162352
				20:leaf=-0.0564397275
			10:[min_price<1250] yes=21,no=22,missing=21
				21:leaf=0.086601913
				22:leaf=-0.0222460199
	2:[CASE WHEN a.23 = 'True' THEN 1 ELSE 0 END<1] yes=5,no=6,missing=5
		5:[ucnt10<97] yes=11,no=12,missing=11
			11:[CASE WHEN a.24 = 'True' THEN 1 ELSE 0 END<1] yes=23,no=24,missing=23
				23:leaf=0.0288309734
				24:leaf=-0.0114413779
			12:[CASE WHEN a.4 = 'True' THEN 1 ELSE 0 END<1] yes=25,no=26,missing=25
				25:leaf=-0.00942108035
				26:leaf=0.0766981915
		6:[uage<0.5] yes=13,no=14,missing=13
			13:[ucnt9<621] yes=27,no=28,missing=27
				27:leaf=0.11824663
				28:leaf=-0.018184986
			14:[CASE WHEN a.8 = 'True' THEN 1 ELSE 0 END<1] yes=29,no=30,missing=29
				29:leaf=0.0229877848
				30:leaf=-0.00124060491
booster[46]:
0:[CASE WHEN a.19 = 'True' THEN 1 ELSE 0 END<1] yes=1,no=2,missing=1
	1:[tdays<19.5] yes=3,no=4,missing=3
		3:[realage<20.5] yes=7,no=8,missing=7
			7:[realage<19.5] yes=15,no=16,missing=15
				15:leaf=-0.0222408939
				16:leaf=0.0954786092
			8:[ucnt10<11] yes=17,no=18,missing=17
				17:leaf=0.0396243334
				18:leaf=-0.0725746304
		4:[usex<0.5] yes=9,no=10,missing=9
			9:[ucnt2<1] yes=19,no=20,missing=19
				19:leaf=0.0125872223
				20:leaf=-0.167001382
			10:[ucnt5<41] yes=21,no=22,missing=21
				21:leaf=0.0222533848
				22:leaf=0.0553896502
	2:[tdays<859.5] yes=5,no=6,missing=5
		5:[CASE WHEN a.15 = 'True' THEN 1 ELSE 0 END<1] yes=11,no=12,missing=11
			11:[ucnt10<69] yes=23,no=24,missing=23
				23:leaf=0.0173629317
				24:leaf=0.0942737758
			12:[ucnt5<100] yes=25,no=26,missing=25
				25:leaf=-0.0140346605
				26:leaf=-0.00196122541
		6:[CASE WHEN a.2 = 'True' THEN 1 ELSE 0 END<1] yes=13,no=14,missing=13
			13:[CASE WHEN a.20 = 'True' THEN 1 ELSE 0 END<1] yes=27,no=28,missing=27
				27:leaf=-0.0490805171
				28:leaf=0.0490591638
			14:[ucnt8<26] yes=29,no=30,missing=29
				29:leaf=-0.00614713365
				30:leaf=0.00707143545
booster[47]:
0:[CASE WHEN a.9 = 'True' THEN 1 ELSE 0 END<1] yes=1,no=2,missing=1
	1:[CASE WHEN a.16 = 'True' THEN 1 ELSE 0 END<1] yes=3,no=4,missing=3
		3:[ucnt10<115] yes=7,no=8,missing=7
			7:[CASE WHEN a.22 = 'True' THEN 1 ELSE 0 END<1] yes=15,no=16,missing=15
				15:leaf=0.0292209126
				16:leaf=-0.0127368141
			8:[ucnt6<11] yes=17,no=18,missing=17
				17:leaf=-0.0656006485
				18:leaf=0.0526821278
		4:[ucnt9<22] yes=9,no=10,missing=9
			9:[ucnt1<49] yes=19,no=20,missing=19
				19:leaf=0.0319923535
				20:leaf=0.0861831531
			10:[ucnt5<14] yes=21,no=22,missing=21
				21:leaf=-0.133646384
				22:leaf=0.00540498737
	2:[ucnt3<1] yes=5,no=6,missing=5
		5:[ucnt9<86] yes=11,no=12,missing=11
			11:[4<0.5] yes=23,no=24,missing=23
				23:leaf=0.00108073547
				24:leaf=0.0309794154
			12:[ucnt10<323] yes=25,no=26,missing=25
				25:leaf=0.0524447933
				26:leaf=-0.0516454466
		6:[CASE WHEN a.17 = 'True' THEN 1 ELSE 0 END<1] yes=13,no=14,missing=13
			13:[CASE WHEN a.24 = 'True' THEN 1 ELSE 0 END<1] yes=27,no=28,missing=27
				27:leaf=-5.77711398e-05
				28:leaf=0.0436901338
			14:[ucnt4<59] yes=29,no=30,missing=29
				29:leaf=-0.00988317654
				30:leaf=-0.000100153266
booster[48]:
0:[realage<69.5] yes=1,no=2,missing=1
	1:[realage<47.5] yes=3,no=4,missing=3
		3:[realage<42.5] yes=7,no=8,missing=7
			7:[min_price<2500] yes=13,no=14,missing=13
				13:leaf=0.00170343556
				14:leaf=-0.0183602944
			8:[ucnt5<58] yes=15,no=16,missing=15
				15:leaf=0.10602206
				16:leaf=0.00982031692
		4:[usex<1.5] yes=9,no=10,missing=9
			9:[ucnt6<202] yes=17,no=18,missing=17
				17:leaf=-0.0041814791
				18:leaf=0.0237358194
			10:[tdays<1357.5] yes=19,no=20,missing=19
				19:leaf=-0.0369590633
				20:leaf=0.0150562348
	2:[ucnt2<169] yes=5,no=6,missing=5
		5:[ucnt2<27] yes=11,no=12,missing=11
			11:leaf=0.0349173434
			12:leaf=0.187282041
		6:leaf=0.00975644495
booster[49]:
0:[realage<15.5] yes=1,no=2,missing=1
	1:[CASE WHEN a.2 = 'True' THEN 1 ELSE 0 END<1] yes=3,no=4,missing=3
		3:[CASE WHEN a.29 = 'True' THEN 1 ELSE 0 END<1] yes=7,no=8,missing=7
			7:leaf=-0.03009676
			8:leaf=-0.11041981
		4:[ucnt6<566] yes=9,no=10,missing=9
			9:[ucnt1<1] yes=15,no=16,missing=15
				15:leaf=0.00576944789
				16:leaf=0.119891189
			10:[tdays<415] yes=17,no=18,missing=17
				17:leaf=-0.0971034244
				18:leaf=0.0283673853
	2:[max_price<800] yes=5,no=6,missing=5
		5:[realage<30.5] yes=11,no=12,missing=11
			11:[realage<28.5] yes=19,no=20,missing=19
				19:leaf=0.0154441986
				20:leaf=-0.0255481359
			12:[realage<31.5] yes=21,no=22,missing=21
				21:leaf=0.0761154592
				22:leaf=0.0109521551
		6:[tdays<889.5] yes=13,no=14,missing=13
			13:[realage<31.5] yes=23,no=24,missing=23
				23:leaf=-0.00118603813
				24:leaf=-0.0184947308
			14:[realage<18.5] yes=25,no=26,missing=25
				25:leaf=-0.0577745847
				26:leaf=0.00253808498
booster[50]:
0:[min_price<300] yes=1,no=2,missing=1
	1:[ucnt9<126] yes=3,no=4,missing=3
		3:[realage<30.5] yes=7,no=8,missing=7
			7:[realage<28.5] yes=15,no=16,missing=15
				15:leaf=0.01532936
				16:leaf=-0.0210940298
			8:[realage<31.5] yes=17,no=18,missing=17
				17:leaf=0.0751962587
				18:leaf=0.00852163974
		4:[uage<2.5] yes=9,no=10,missing=9
			9:[ucnt5<143] yes=19,no=20,missing=19
				19:leaf=0.0609774552
				20:leaf=-0.0417217873
			10:[uage<6.5] yes=21,no=22,missing=21
				21:leaf=0.0632708296
				22:leaf=0.0234211907
	2:[tdays<188.5] yes=5,no=6,missing=5
		5:[realage<20.5] yes=11,no=12,missing=11
			11:[ucnt1<130] yes=23,no=24,missing=23
				23:leaf=0.0669804886
				24:leaf=-0.0141707975
			12:[ucnt1<38] yes=25,no=26,missing=25
				25:leaf=-0.00524349976
				26:leaf=-0.0393670797
		6:[realage<49.5] yes=13,no=14,missing=13
			13:[realage<48.5] yes=27,no=28,missing=27
				27:leaf=0.000925549481
				28:leaf=0.070908837
			14:[ucnt4<481] yes=29,no=30,missing=29
				29:leaf=-0.0135667697
				30:leaf=0.0691686273
booster[51]:
0:[tdays<513.5] yes=1,no=2,missing=1
	1:[ucnt10<429] yes=3,no=4,missing=3
		3:[ucnt5<3] yes=7,no=8,missing=7
			7:[uage<1.5] yes=15,no=16,missing=15
				15:leaf=-0.0947996378
				16:leaf=0.0178550072
			8:[ucnt6<133] yes=17,no=18,missing=17
				17:leaf=-0.0214151777
				18:leaf=-0.00501211546
		4:[tdays<48.5] yes=9,no=10,missing=9
			9:[ucnt10<506] yes=19,no=20,missing=19
				19:leaf=-0.103059605
				20:leaf=-0.014434333
			10:[ucnt4<198] yes=21,no=22,missing=21
				21:leaf=0.109350421
				22:leaf=0.0230045039
	2:[max_price<2500] yes=5,no=6,missing=5
		5:[ucnt5<53] yes=11,no=12,missing=11
			11:[ucnt5<1] yes=23,no=24,missing=23
				23:leaf=0.0163658187
				24:leaf=-0.00438853726
			12:[uage<6.5] yes=25,no=26,missing=25
				25:leaf=0.0174269453
				26:leaf=0.00261374633
		6:[ucnt1<137] yes=13,no=14,missing=13
			13:[ucnt9<75] yes=27,no=28,missing=27
				27:leaf=-0.00584133295
				28:leaf=0.0172157194
			14:[tdays<1584] yes=29,no=30,missing=29
				29:leaf=-0.0173850916
				30:leaf=0.0791384876
booster[52]:
0:[min_price<300] yes=1,no=2,missing=1
	1:[realage<25.5] yes=3,no=4,missing=3
		3:[realage<24.5] yes=7,no=8,missing=7
			7:[ucnt2<202] yes=15,no=16,missing=15
				15:leaf=0.0326989628
				16:leaf=-0.0499033965
			8:[ucnt5<185] yes=17,no=18,missing=17
				17:leaf=-0.0597087145
				18:leaf=0.120683193
		4:[realage<28.5] yes=9,no=10,missing=9
			9:[ucnt8<28] yes=19,no=20,missing=19
				19:leaf=0.0784452111
				20:leaf=0.132626474
			10:[realage<30.5] yes=21,no=22,missing=21
				21:leaf=-0.0133105908
				22:leaf=0.016792126
	2:[tdays<1422.5] yes=5,no=6,missing=5
		5:[usex<0.5] yes=11,no=12,missing=11
			11:[ucnt9<683] yes=23,no=24,missing=23
				23:leaf=0.0896804035
				24:leaf=-0.0774672478
			12:[tdays<133.5] yes=25,no=26,missing=25
				25:leaf=-0.0262956358
				26:leaf=-0.00343987579
		6:[ucnt5<49] yes=13,no=14,missing=13
			13:[realage<28.5] yes=27,no=28,missing=27
				27:leaf=0.0274602268
				28:leaf=-0.00690986589
			14:[realage<18.5] yes=29,no=30,missing=29
				29:leaf=-0.0376135074
				30:leaf=0.0293843895
booster[53]:
0:[min_price<1750] yes=1,no=2,missing=1
	1:[ucnt7<120] yes=3,no=4,missing=3
		3:[CASE WHEN a.29 = 'True' THEN 1 ELSE 0 END<1] yes=7,no=8,missing=7
			7:[ucnt10<121] yes=15,no=16,missing=15
				15:leaf=0.024779221
				16:leaf=-0.022872543
			8:[tdays<759.5] yes=17,no=18,missing=17
				17:leaf=-0.0124458699
				18:leaf=0.00160748628
		4:[ucnt1<56] yes=9,no=10,missing=9
			9:[ucnt9<133] yes=19,no=20,missing=19
				19:leaf=0.0174665954
				20:leaf=0.0717660338
			10:[usex<1.5] yes=21,no=22,missing=21
				21:leaf=0.0135487169
				22:leaf=-0.00465777237
	2:[CASE WHEN a.0 = 'True' THEN 1 ELSE 0 END<1] yes=5,no=6,missing=5
		5:[tdays<5.5] yes=11,no=12,missing=11
			11:[ucnt1<456] yes=23,no=24,missing=23
				23:leaf=-0.0814472213
				24:leaf=-0.0009180989
			12:[CASE WHEN a.3 = 'True' THEN 1 ELSE 0 END<1] yes=25,no=26,missing=25
				25:leaf=-0.0128085604
				26:leaf=0.055124905
		6:[tdays<729.5] yes=13,no=14,missing=13
			13:[ucnt9<41] yes=27,no=28,missing=27
				27:leaf=0.0299467482
				28:leaf=-0.00795411225
			14:[tdays<1093.5] yes=29,no=30,missing=29
				29:leaf=-0.0284027755
				30:leaf=-0.00180608255
booster[54]:
0:[realage<21.5] yes=1,no=2,missing=1
	1:[ucnt4<200] yes=3,no=4,missing=3
		3:[ucnt10<199] yes=7,no=8,missing=7
			7:[tdays<23] yes=15,no=16,missing=15
				15:leaf=0.116478182
				16:leaf=0.020443514
			8:[ucnt6<105] yes=17,no=18,missing=17
				17:leaf=0.0160945635
				18:leaf=0.100372769
		4:[CASE WHEN a.12 = 'True' THEN 1 ELSE 0 END<1] yes=9,no=10,missing=9
			9:[ucnt10<455] yes=19,no=20,missing=19
				19:leaf=0.162003875
				20:leaf=0.0228199326
			10:[ucnt1<119] yes=21,no=22,missing=21
				21:leaf=0.039729353
				22:leaf=-0.0145535311
	2:[ucnt6<746] yes=5,no=6,missing=5
		5:[realage<25.5] yes=11,no=12,missing=11
			11:[ucnt3<115] yes=23,no=24,missing=23
				23:leaf=-0.0243207794
				24:leaf=0.00338608515
			12:[realage<28.5] yes=25,no=26,missing=25
				25:leaf=0.0347666889
				26:leaf=-0.0022205594
		6:[ucnt8<314] yes=13,no=14,missing=13
			13:[ucnt4<907] yes=27,no=28,missing=27
				27:leaf=0.170452282
				28:leaf=0.00948342774
			14:[ucnt5<470] yes=29,no=30,missing=29
				29:leaf=0.118487291
				30:leaf=0.0216823909
booster[55]:
0:[CASE WHEN a.5 = 'True' THEN 1 ELSE 0 END<1] yes=1,no=2,missing=1
	1:[ucnt10<633] yes=3,no=4,missing=3
		3:[ucnt6<271] yes=7,no=8,missing=7
			7:[0<0.5] yes=15,no=16,missing=15
				15:leaf=0.0288204849
				16:leaf=-0.0380380452
			8:leaf=-0.0985674113
		4:[ucnt3<4] yes=9,no=10,missing=9
			9:[ucnt10<921] yes=17,no=18,missing=17
				17:leaf=-0.125831783
				18:leaf=-0.037052691
			10:[ucnt3<270] yes=19,no=20,missing=19
				19:leaf=0.119612768
				20:leaf=-0.0930786431
	2:[min_price<800] yes=5,no=6,missing=5
		5:[realage<52.5] yes=11,no=12,missing=11
			11:[ucnt3<1031] yes=21,no=22,missing=21
				21:leaf=0.0020482426
				22:leaf=0.168796584
			12:[realage<56.5] yes=23,no=24,missing=23
				23:leaf=0.126400679
				24:leaf=0.0165760145
		6:[tdays<1025.5] yes=13,no=14,missing=13
			13:[ucnt8<842] yes=25,no=26,missing=25
				25:leaf=-0.0113604171
				26:leaf=0.0304557364
			14:[ucnt4<493] yes=27,no=28,missing=27
				27:leaf=0.00920075271
				28:leaf=-0.0440001003
booster[56]:
0:[tdays<1630.5] yes=1,no=2,missing=1
	1:[tdays<125.5] yes=3,no=4,missing=3
		3:[min_price<800] yes=7,no=8,missing=7
			7:[realage<23.5] yes=15,no=16,missing=15
				15:leaf=0.0747661665
				16:leaf=-0.0116840238
			8:[ucnt7<10] yes=17,no=18,missing=17
				17:leaf=0.00418350333
				18:leaf=-0.0385283753
		4:[ucnt8<61] yes=9,no=10,missing=9
			9:[realage<30.5] yes=19,no=20,missing=19
				19:leaf=-0.0133827645
				20:leaf=0.00522297993
			10:[CASE WHEN a.28 = 'True' THEN 1 ELSE 0 END<1] yes=21,no=22,missing=21
				21:leaf=0.0538061634
				22:leaf=0.00219224603
	2:[realage<53.5] yes=5,no=6,missing=5
		5:[realage<47.5] yes=11,no=12,missing=11
			11:[realage<40.5] yes=23,no=24,missing=23
				23:leaf=0.0179801416
				24:leaf=0.0807228461
			12:[ucnt7<69] yes=25,no=26,missing=25
				25:leaf=-0.0350836925
				26:leaf=0.0527403131
		6:[ucnt4<1] yes=13,no=14,missing=13
			13:leaf=-0.00871773809
			14:[tdays<1657.5] yes=27,no=28,missing=27
				27:leaf=0.0090415068
				28:leaf=0.104841605
booster[57]:
0:[realage<47.5] yes=1,no=2,missing=1
	1:[realage<42.5] yes=3,no=4,missing=3
		3:[3<0.5] yes=7,no=8,missing=7
			7:[ucnt8<2] yes=15,no=16,missing=15
				15:leaf=0.0127617782
				16:leaf=-0.000370505266
			8:[ucnt10<334] yes=17,no=18,missing=17
				17:leaf=0.0378778614
				18:leaf=0.12587592
		4:[ucnt5<115] yes=9,no=10,missing=9
			9:[4<0.5] yes=19,no=20,missing=19
				19:leaf=0.0888624564
				20:leaf=0.00596081046
			10:[ucnt6<365] yes=21,no=22,missing=21
				21:leaf=-0.0143384263
				22:leaf=0.0778454468
	2:[realage<50.5] yes=5,no=6,missing=5
		5:[ucnt8<191] yes=11,no=12,missing=11
			11:[ucnt2<18] yes=23,no=24,missing=23
				23:leaf=-0.0048112548
				24:leaf=-0.0281345192
			12:[realage<48.5] yes=25,no=26,missing=25
				25:leaf=-0.0398954451
				26:leaf=0.0263226628
		6:[min_price<800] yes=13,no=14,missing=13
			13:[realage<63.5] yes=27,no=28,missing=27
				27:leaf=0.0179650765
				28:leaf=0.0812650844
			14:[tdays<911.5] yes=29,no=30,missing=29
				29:leaf=-0.03097854
				30:leaf=0.012305852
booster[58]:
0:[ucnt3<8] yes=1,no=2,missing=1
	1:[realage<30.5] yes=3,no=4,missing=3
		3:[realage<28.5] yes=7,no=8,missing=7
			7:[realage<19.5] yes=13,no=14,missing=13
				13:leaf=-0.0322900191
				14:leaf=0.023801975
			8:[ucnt1<97] yes=15,no=16,missing=15
				15:leaf=-0.0274279956
				16:leaf=0.0752885267
		4:[uage<7.5] yes=9,no=10,missing=9
			9:[max_price<800] yes=17,no=18,missing=17
				17:leaf=0.0613534637
				18:leaf=0.0239021666
			10:[ucnt1<2] yes=19,no=20,missing=19
				19:leaf=0.0275455248
				20:leaf=-0.013582401
	2:[realage<70.5] yes=5,no=6,missing=5
		5:[realage<56.5] yes=11,no=12,missing=11
			11:[realage<52.5] yes=21,no=22,missing=21
				21:leaf=0.00016477787
				22:leaf=0.0750805289
			12:[ucnt10<10] yes=23,no=24,missing=23
				23:leaf=0.0611070581
				24:leaf=-0.0237162746
		6:leaf=0.14732793
booster[59]:
0:[min_price<300] yes=1,no=2,missing=1
	1:[ucnt8<90] yes=3,no=4,missing=3
		3:[ucnt10<98] yes=7,no=8,missing=7
			7:[realage<30.5] yes=15,no=16,missing=15
				15:leaf=-0.0124152657
				16:leaf=0.0107579501
			8:[tdays<652] yes=17,no=18,missing=17
				17:leaf=-0.00261339662
				18:leaf=0.0714464113
		4:[CASE WHEN a.6 = 'True' THEN 1 ELSE 0 END<1] yes=9,no=10,missing=9
			9:[ucnt10<184] yes=19,no=20,missing=19
				19:leaf=-0.173325315
				20:leaf=0.0125554753
			10:[ucnt3<115] yes=21,no=22,missing=21
				21:leaf=0.0602903478
				22:leaf=0.0204239655
	2:[3<0.5] yes=5,no=6,missing=5
		5:[tdays<1615.5] yes=11,no=12,missing=11
			11:[realage<23.5] yes=23,no=24,missing=23
				23:leaf=0.00399385719
				24:leaf=-0.00601993734
			12:[usex<1.5] yes=25,no=26,missing=25
				25:leaf=0.00171855371
				26:leaf=0.0345735997
		6:[ucnt2<167] yes=13,no=14,missing=13
			13:[tdays<378.5] yes=27,no=28,missing=27
				27:leaf=-0.0374432206
				28:leaf=0.0307313651
			14:[ucnt2<359] yes=29,no=30,missing=29
				29:leaf=0.133586854
				30:leaf=0.0246198773
booster[60]:
0:[tdays<129.5] yes=1,no=2,missing=1
	1:[usex<1.5] yes=3,no=4,missing=3
		3:[min_price<1750] yes=7,no=8,missing=7
			7:[ucnt10<403] yes=15,no=16,missing=15
				15:leaf=-0.00856216811
				16:leaf=0.0685542002
			8:[ucnt2<129] yes=17,no=18,missing=17
				17:leaf=0.00858234894
				18:leaf=-0.0574535131
		4:[ucnt2<1008] yes=9,no=10,missing=9
			9:[ucnt1<90] yes=19,no=20,missing=19
				19:leaf=-0.0315907449
				20:leaf=-0.0671961457
			10:leaf=0.116475858
	2:[CASE WHEN a.17 = 'True' THEN 1 ELSE 0 END<1] yes=5,no=6,missing=5
		5:[CASE WHEN a.3 = 'True' THEN 1 ELSE 0 END<1] yes=11,no=12,missing=11
			11:[tdays<971.5] yes=21,no=22,missing=21
				21:leaf=-0.0351071022
				22:leaf=0.0207340848
			12:[ucnt10<258] yes=23,no=24,missing=23
				23:leaf=0.0210041758
				24:leaf=0.0736344233
		6:[uage<0.5] yes=13,no=14,missing=13
			13:[ucnt6<7] yes=25,no=26,missing=25
				25:leaf=8.04874799e-05
				26:leaf=0.0957272351
			14:[realage<63.5] yes=27,no=28,missing=27
				27:leaf=-0.000567932264
				28:leaf=0.0440897122
booster[61]:
0:[ucnt1<784] yes=1,no=2,missing=1
	1:[ucnt1<773] yes=3,no=4,missing=3
		3:[uage<2.5] yes=7,no=8,missing=7
			7:[ucnt9<161] yes=15,no=16,missing=15
				15:leaf=0.0227811467
				16:leaf=-0.00606223149
			8:[realage<25.5] yes=17,no=18,missing=17
				17:leaf=-0.0122849746
				18:leaf=-0.000198413778
		4:[ucnt6<892] yes=9,no=10,missing=9
			9:leaf=-0.122918382
			10:leaf=0.000537238957
	2:[ucnt8<253] yes=5,no=6,missing=5
		5:[ucnt5<233] yes=11,no=12,missing=11
			11:[ucnt8<127] yes=19,no=20,missing=19
				19:leaf=0.0552339628
				20:leaf=-0.0945722386
			12:[ucnt10<363] yes=21,no=22,missing=21
				21:leaf=0.0020601952
				22:leaf=0.175783232
		6:[ucnt1<790] yes=13,no=14,missing=13
			13:[ucnt9<877] yes=23,no=24,missing=23
				23:leaf=0.185441598
				24:leaf=-0.0287676211
			14:[ucnt7<266] yes=25,no=26,missing=25
				25:leaf=0.08989463
				26:leaf=0.00462385407
booster[62]:
0:[3<0.5] yes=1,no=2,missing=1
	1:[min_price<300] yes=3,no=4,missing=3
		3:[realage<25.5] yes=7,no=8,missing=7
			7:[realage<24.5] yes=15,no=16,missing=15
				15:leaf=0.00778788328
				16:leaf=-0.0412360094
			8:[realage<28.5] yes=17,no=18,missing=17
				17:leaf=0.0907438546
				18:leaf=0.00863210205
		4:[tdays<469.5] yes=9,no=10,missing=9
			9:[usex<1.5] yes=19,no=20,missing=19
				19:leaf=-0.00376571761
				20:leaf=-0.0256951042
			10:[tdays<477.5] yes=21,no=22,missing=21
				21:leaf=0.0859495252
				22:leaf=0.000428087747
	2:[ucnt10<147] yes=5,no=6,missing=5
		5:[ucnt5<85] yes=11,no=12,missing=11
			11:[ucnt1<50] yes=23,no=24,missing=23
				23:leaf=-0.011674135
				24:leaf=0.103005104
			12:[ucnt2<167] yes=25,no=26,missing=25
				25:leaf=-0.0797232836
				26:leaf=0.0574580021
		6:[ucnt2<277] yes=13,no=14,missing=13
			13:[ucnt4<383] yes=27,no=28,missing=27
				27:leaf=0.158029303
				28:leaf=-0.0281844586
			14:[ucnt10<478] yes=29,no=30,missing=29
				29:leaf=-0.027722856
				30:leaf=0.119811989
booster[63]:
0:[realage<28.5] yes=1,no=2,missing=1
	1:[realage<27.5] yes=3,no=4,missing=3
		3:[CASE WHEN a.12 = 'True' THEN 1 ELSE 0 END<1] yes=7,no=8,missing=7
			7:[CASE WHEN a.7 = 'True' THEN 1 ELSE 0 END<1] yes=15,no=16,missing=15
				15:leaf=0.00273666321
				16:leaf=0.0489631034
			8:[ucnt1<484] yes=17,no=18,missing=17
				17:leaf=0.0026547024
				18:leaf=-0.0141512901
		4:[min_price<1750] yes=9,no=10,missing=9
			9:[ucnt4<91] yes=19,no=20,missing=19
				19:leaf=0.0968883857
				20:leaf=0.0299130827
			10:[ucnt10<235] yes=21,no=22,missing=21
				21:leaf=-0.0369914286
				22:leaf=0.056566339
	2:[realage<30.5] yes=5,no=6,missing=5
		5:[ucnt5<80] yes=11,no=12,missing=11
			11:[CASE WHEN a.5 = 'True' THEN 1 ELSE 0 END<1] yes=23,no=24,missing=23
				23:leaf=0.0298788454
				24:leaf=-0.0307761636
			12:[min_price<2500] yes=25,no=26,missing=25
				25:leaf=0.0171473455
				26:leaf=-0.0282689817
		6:[realage<31.5] yes=13,no=14,missing=13
			13:[ucnt6<48] yes=27,no=28,missing=27
				27:leaf=0.00511303591
				28:leaf=0.0509728752
			14:[realage<32.5] yes=29,no=30,missing=29
				29:leaf=-0.0416099913
				30:leaf=0.000109601046
booster[64]:
0:[ucnt7<1399] yes=1,no=2,missing=1
	1:[0<0.5] yes=3,no=4,missing=3
		3:[min_price<1750] yes=7,no=8,missing=7
			7:[ucnt10<111] yes=13,no=14,missing=13
				13:leaf=-0.00326002459
				14:leaf=0.00693465536
			8:[ucnt4<212] yes=15,no=16,missing=15
				15:leaf=-0.000697589363
				16:leaf=-0.0135380505
		4:[ucnt4<150] yes=9,no=10,missing=9
			9:[ucnt9<231] yes=17,no=18,missing=17
				17:leaf=-0.0371721946
				18:leaf=0.0483081043
			10:[realage<30.5] yes=19,no=20,missing=19
				19:leaf=0.0380663909
				20:leaf=-0.0129403519
	2:[min_price<2500] yes=5,no=6,missing=5
		5:[ucnt9<1404] yes=11,no=12,missing=11
			11:[ucnt4<693] yes=21,no=22,missing=21
				21:leaf=0.0304974616
				22:leaf=0.196694449
			12:leaf=0.0148982732
		6:leaf=-0.0369921625
booster[65]:
0:[realage<49.5] yes=1,no=2,missing=1
	1:[realage<48.5] yes=3,no=4,missing=3
		3:[realage<32.5] yes=7,no=8,missing=7
			7:[realage<31.5] yes=15,no=16,missing=15
				15:leaf=0.000699741708
				16:leaf=-0.0346438996
			8:[ucnt3<113] yes=17,no=18,missing=17
				17:leaf=0.0212168898
				18:leaf=-0.00625051511
		4:[tdays<397.5] yes=9,no=10,missing=9
			9:[ucnt3<239] yes=19,no=20,missing=19
				19:leaf=-0.0684162602
				20:leaf=0.0460777543
			10:[ucnt10<218] yes=21,no=22,missing=21
				21:leaf=0.0586883537
				22:leaf=0.15613474
	2:[ucnt9<568] yes=5,no=6,missing=5
		5:[usex<1.5] yes=11,no=12,missing=11
			11:[realage<69.5] yes=23,no=24,missing=23
				23:leaf=-0.00349164614
				24:leaf=0.106757678
			12:[ucnt3<174] yes=25,no=26,missing=25
				25:leaf=-0.0352456085
				26:leaf=0.0120560704
		6:[tdays<770] yes=13,no=14,missing=13
			13:[tdays<393] yes=27,no=28,missing=27
				27:leaf=0.172992051
				28:leaf=-0.0601185039
			14:leaf=0.181570441
booster[66]:
0:[uage<5.5] yes=1,no=2,missing=1
	1:[ucnt6<78] yes=3,no=4,missing=3
		3:[uage<3.5] yes=7,no=8,missing=7
			7:[ucnt2<25] yes=13,no=14,missing=13
				13:leaf=0.00230393256
				14:leaf=0.0247821826
			8:[ucnt5<175] yes=15,no=16,missing=15
				15:leaf=-0.00759829162
				16:leaf=0.0399455167
		4:[min_price<1250] yes=9,no=10,missing=9
			9:[uage<1.5] yes=17,no=18,missing=17
				17:leaf=-0.0343677774
				18:leaf=0.0189714786
			10:[ucnt2<83] yes=19,no=20,missing=19
				19:leaf=0.0269636102
				20:leaf=-0.00322397402
	2:[ucnt2<1141] yes=5,no=6,missing=5
		5:[ucnt2<12] yes=11,no=12,missing=11
			11:[CASE WHEN a.1 = 'True' THEN 1 ELSE 0 END<1] yes=21,no=22,missing=21
				21:leaf=-0.0299014486
				22:leaf=0.0129103316
			12:[ucnt6<378] yes=23,no=24,missing=23
				23:leaf=-0.00999677461
				24:leaf=0.012512967
		6:leaf=0.229800418
booster[67]:
0:[17<0.5] yes=1,no=2,missing=1
	1:[realage<17.5] yes=3,no=4,missing=3
		3:[ucnt1<139] yes=7,no=8,missing=7
			7:[tdays<775.5] yes=15,no=16,missing=15
				15:leaf=-0.0272464342
				16:leaf=0.0785347447
			8:[min_price<2500] yes=17,no=18,missing=17
				17:leaf=-0.0496008061
				18:leaf=0.0473016836
		4:[realage<39.5] yes=9,no=10,missing=9
			9:[realage<32.5] yes=19,no=20,missing=19
				19:leaf=0.000802323339
				20:leaf=0.0160554182
			10:[ucnt2<946] yes=21,no=22,missing=21
				21:leaf=-0.00455785962
				22:leaf=0.111763142
	2:[ucnt10<410] yes=5,no=6,missing=5
		5:[ucnt6<515] yes=11,no=12,missing=11
			11:[ucnt2<110] yes=23,no=24,missing=23
				23:leaf=-0.000831637066
				24:leaf=0.0560857244
			12:leaf=-0.0975114554
		6:[ucnt8<463] yes=13,no=14,missing=13
			13:leaf=0.215505153
			14:[tdays<433] yes=25,no=26,missing=25
				25:leaf=-0.0651537627
				26:leaf=0.148613319
booster[68]:
0:[uage<1.5] yes=1,no=2,missing=1
	1:[ucnt6<159] yes=3,no=4,missing=3
		3:[CASE WHEN a.24 = 'True' THEN 1 ELSE 0 END<1] yes=7,no=8,missing=7
			7:[usex<0.5] yes=15,no=16,missing=15
				15:leaf=-0.173977971
				16:leaf=-0.0274878498
			8:[min_price<1250] yes=17,no=18,missing=17
				17:leaf=0.0626710877
				18:leaf=-0.0141678294
		4:[tdays<723.5] yes=9,no=10,missing=9
			9:[ucnt9<348] yes=19,no=20,missing=19
				19:leaf=-0.0566086657
				20:leaf=-0.000111186549
			10:[ucnt10<177] yes=21,no=22,missing=21
				21:leaf=0.0343641602
				22:leaf=-0.125383109
	2:[uage<4.5] yes=5,no=6,missing=5
		5:[ucnt5<50] yes=11,no=12,missing=11
			11:[uage<3.5] yes=23,no=24,missing=23
				23:leaf=0.0139917424
				24:leaf=-0.00907673407
			12:[tdays<1213.5] yes=25,no=26,missing=25
				25:leaf=0.00565128913
				26:leaf=0.0328291543
		6:[tdays<599.5] yes=13,no=14,missing=13
			13:[26<0.5] yes=27,no=28,missing=27
				27:leaf=-0.00580303092
				28:leaf=-0.0289204624
			14:[ucnt5<647] yes=29,no=30,missing=29
				29:leaf=0.00053929002
				30:leaf=0.0485505722
booster[69]:
0:[CASE WHEN a.29 = 'True' THEN 1 ELSE 0 END<1] yes=1,no=2,missing=1
	1:[CASE WHEN a.14 = 'True' THEN 1 ELSE 0 END<1] yes=3,no=4,missing=3
		3:[ucnt1<171] yes=7,no=8,missing=7
			7:[ucnt2<35] yes=15,no=16,missing=15
				15:leaf=-0.00466013839
				16:leaf=0.0348727107
			8:[ucnt2<382] yes=17,no=18,missing=17
				17:leaf=-0.0792468488
				18:leaf=0.00957672391
		4:[ucnt8<750] yes=9,no=10,missing=9
			9:[ucnt4<470] yes=19,no=20,missing=19
				19:leaf=0.0235616416
				20:leaf=-0.0554328039
			10:[uage<2.5] yes=21,no=22,missing=21
				21:leaf=0.184994906
				22:leaf=0.0269959159
	2:[min_price<300] yes=5,no=6,missing=5
		5:[ucnt7<88] yes=11,no=12,missing=11
			11:[ucnt3<20] yes=23,no=24,missing=23
				23:leaf=0.015661804
				24:leaf=-0.0087530436
			12:[uage<7.5] yes=25,no=26,missing=25
				25:leaf=0.030423671
				26:leaf=-0.00693332637
		6:[ucnt7<42] yes=13,no=14,missing=13
			13:[ucnt4<102] yes=27,no=28,missing=27
				27:leaf=-0.010944155
				28:leaf=0.021659229
			14:[ucnt1<21] yes=29,no=30,missing=29
				29:leaf=0.0259918515
				30:leaf=-0.00181792956
booster[70]:
0:[ucnt6<1010] yes=1,no=2,missing=1
	1:[tdays<229.5] yes=3,no=4,missing=3
		3:[ucnt3<28] yes=7,no=8,missing=7
			7:[ucnt8<1] yes=15,no=16,missing=15
				15:leaf=-0.0233390387
				16:leaf=0.0289266985
			8:[ucnt1<238] yes=17,no=18,missing=17
				17:leaf=-0.030370919
				18:leaf=0.0020501113
		4:[7<0.5] yes=9,no=10,missing=9
			9:[max_price<2500] yes=19,no=20,missing=19
				19:leaf=0.00364948437
				20:leaf=-0.00432530185
			10:[CASE WHEN a.1 = 'True' THEN 1 ELSE 0 END<1] yes=21,no=22,missing=21
				21:leaf=-0.0984871238
				22:leaf=-0.0124170016
	2:[ucnt3<984] yes=5,no=6,missing=5
		5:[ucnt10<936] yes=11,no=12,missing=11
			11:[5<0.5] yes=23,no=24,missing=23
				23:leaf=0.106267869
				24:leaf=-0.00745657226
			12:[ucnt7<1349] yes=25,no=26,missing=25
				25:leaf=-0.0491242036
				26:leaf=0.123702206
		6:[ucnt2<1631] yes=13,no=14,missing=13
			13:[tdays<903] yes=27,no=28,missing=27
				27:leaf=-0.0509231091
				28:leaf=0.100017086
			14:leaf=0.11446166
booster[71]:
0:[ucnt4<754] yes=1,no=2,missing=1
	1:[realage<29.5] yes=3,no=4,missing=3
		3:[realage<25.5] yes=7,no=8,missing=7
			7:[realage<23.5] yes=15,no=16,missing=15
				15:leaf=0.00657938188
				16:leaf=-0.0114167789
			8:[realage<28.5] yes=17,no=18,missing=17
				17:leaf=0.030446602
				18:leaf=0.00268609985
		4:[realage<30.5] yes=9,no=10,missing=9
			9:[ucnt2<53] yes=19,no=20,missing=19
				19:leaf=-0.0347460918
				20:leaf=-0.00111906312
			10:[realage<31.5] yes=21,no=22,missing=21
				21:leaf=0.0241782535
				22:leaf=-0.00214087288
	2:[ucnt1<145] yes=5,no=6,missing=5
		5:[ucnt5<881] yes=11,no=12,missing=11
			11:leaf=0.160037726
			12:leaf=-0.0328340195
		6:[ucnt8<251] yes=13,no=14,missing=13
			13:[CASE WHEN a.8 = 'True' THEN 1 ELSE 0 END<1] yes=23,no=24,missing=23
				23:leaf=-0.0713486373
				24:leaf=0.114514522
			14:[ucnt5<362] yes=25,no=26,missing=25
				25:leaf=0.0580001064
				26:leaf=-0.0361471735
booster[72]:
0:[ucnt8<849] yes=1,no=2,missing=1
	1:[realage<18.5] yes=3,no=4,missing=3
		3:[tdays<697] yes=7,no=8,missing=7
			7:[CASE WHEN a.2 = 'True' THEN 1 ELSE 0 END<1] yes=15,no=16,missing=15
				15:leaf=-0.141322225
				16:leaf=-0.000699302764
			8:[ucnt10<82] yes=17,no=18,missing=17
				17:leaf=0.0302498043
				18:leaf=-0.0876456127
		4:[uage<2.5] yes=9,no=10,missing=9
			9:[ucnt6<540] yes=19,no=20,missing=19
				19:leaf=0.0161872264
				20:leaf=-0.0375323743
			10:[ucnt5<461] yes=21,no=22,missing=21
				21:leaf=-0.00235141697
				22:leaf=0.0182040185
	2:[ucnt7<723] yes=5,no=6,missing=5
		5:[ucnt10<463] yes=11,no=12,missing=11
			11:[ucnt10<385] yes=23,no=24,missing=23
				23:leaf=0.0362475738
				24:leaf=-0.0816610754
			12:[realage<23.5] yes=25,no=26,missing=25
				25:leaf=0.0598135553
				26:leaf=0.174140543
		6:[ucnt3<1107] yes=13,no=14,missing=13
			13:[ucnt3<1065] yes=27,no=28,missing=27
				27:leaf=0.00603304105
				28:leaf=0.185350284
			14:[ucnt6<1027] yes=29,no=30,missing=29
				29:leaf=-0.111955784
				30:leaf=-0.00511209993
booster[73]:
0:[realage<47.5] yes=1,no=2,missing=1
	1:[realage<42.5] yes=3,no=4,missing=3
		3:[realage<41.5] yes=7,no=8,missing=7
			7:[realage<40.5] yes=15,no=16,missing=15
				15:leaf=-0.000422496552
				16:leaf=0.0333107039
			8:[ucnt3<44] yes=17,no=18,missing=17
				17:leaf=0.022839386
				18:leaf=-0.0572087467
		4:[ucnt1<117] yes=9,no=10,missing=9
			9:[tdays<795.5] yes=19,no=20,missing=19
				19:leaf=0.0163275618
				20:leaf=0.0865077898
			10:[ucnt1<309] yes=21,no=22,missing=21
				21:leaf=-0.0120898429
				22:leaf=0.0422660336
	2:[usex<1.5] yes=5,no=6,missing=5
		5:[ucnt9<42] yes=11,no=12,missing=11
			11:[CASE WHEN a.22 = 'True' THEN 1 ELSE 0 END<1] yes=23,no=24,missing=23
				23:leaf=0.0411905795
				24:leaf=-0.0192012228
			12:[realage<62.5] yes=25,no=26,missing=25
				25:leaf=0.00826036558
				26:leaf=-0.0407962762
		6:[tdays<1342.5] yes=13,no=14,missing=13
			13:[ucnt3<22] yes=27,no=28,missing=27
				27:leaf=0.00469809351
				28:leaf=-0.0348382182
			14:[ucnt5<70] yes=29,no=30,missing=29
				29:leaf=-0.00520533882
				30:leaf=0.0716396794
booster[74]:
0:[tdays<435.5] yes=1,no=2,missing=1
	1:[ucnt10<414] yes=3,no=4,missing=3
		3:[realage<56.5] yes=7,no=8,missing=7
			7:[ucnt7<24] yes=15,no=16,missing=15
				15:leaf=0.00709637394
				16:leaf=-0.0135389743
			8:[ucnt7<2] yes=17,no=18,missing=17
				17:leaf=0.0498833358
				18:leaf=-0.082377106
		4:[ucnt1<533] yes=9,no=10,missing=9
			9:[ucnt2<185] yes=19,no=20,missing=19
				19:leaf=0.11425703
				20:leaf=0.0314689353
			10:[realage<18.5] yes=21,no=22,missing=21
				21:leaf=0.0385423973
				22:leaf=-0.0134907654
	2:[ucnt9<1149] yes=5,no=6,missing=5
		5:[ucnt10<727] yes=11,no=12,missing=11
			11:[ucnt7<521] yes=23,no=24,missing=23
				23:leaf=0.00183593237
				24:leaf=0.0237127561
			12:[ucnt10<741] yes=25,no=26,missing=25
				25:leaf=-0.108629405
				26:leaf=-0.0238809697
		6:[realage<18.5] yes=13,no=14,missing=13
			13:[ucnt8<893] yes=27,no=28,missing=27
				27:leaf=0.0218716338
				28:leaf=-0.105349623
			14:[ucnt10<1122] yes=29,no=30,missing=29
				29:leaf=0.126681939
				30:leaf=-0.00520898728
booster[75]:
0:[realage<69.5] yes=1,no=2,missing=1
	1:[0<0.5] yes=3,no=4,missing=3
		3:[ucnt6<316] yes=7,no=8,missing=7
			7:[ucnt1<319] yes=13,no=14,missing=13
				13:leaf=0.00164579286
				14:leaf=0.0237029828
			8:[ucnt10<52] yes=15,no=16,missing=15
				15:leaf=0.0690522268
				16:leaf=-0.00863652304
		4:[realage<56.5] yes=9,no=10,missing=9
			9:[ucnt2<15] yes=17,no=18,missing=17
				17:leaf=-0.0415005013
				18:leaf=-0.00379110919
			10:[ucnt8<37] yes=19,no=20,missing=19
				19:leaf=0.0242327582
				20:leaf=-0.081655927
	2:[ucnt2<31] yes=5,no=6,missing=5
		5:leaf=0.0146127818
		6:[tdays<1127.5] yes=11,no=12,missing=11
			11:leaf=0.154004961
			12:leaf=0.0416593067
booster[76]:
0:[3<0.5] yes=1,no=2,missing=1
	1:[CASE WHEN a.25 = 'True' THEN 1 ELSE 0 END<1] yes=3,no=4,missing=3
		3:[CASE WHEN a.11 = 'True' THEN 1 ELSE 0 END<1] yes=7,no=8,missing=7
			7:[tdays<890] yes=15,no=16,missing=15
				15:leaf=0.00914179068
				16:leaf=-0.026811352
			8:[tdays<22.5] yes=17,no=18,missing=17
				17:leaf=-0.0112775909
				18:leaf=0.0241555478
		4:[CASE WHEN a.11 = 'True' THEN 1 ELSE 0 END<1] yes=9,no=10,missing=9
			9:[CASE WHEN a.26 = 'True' THEN 1 ELSE 0 END<1] yes=19,no=20,missing=19
				19:leaf=-0.0507305972
				20:leaf=0.0293473694
			10:[CASE WHEN a.7 = 'True' THEN 1 ELSE 0 END<1] yes=21,no=22,missing=21
				21:leaf=0.0183334257
				22:leaf=-0.0012916422
	2:[ucnt10<181] yes=5,no=6,missing=5
		5:[ucnt4<40] yes=11,no=12,missing=11
			11:[CASE WHEN a.4 = 'True' THEN 1 ELSE 0 END<1] yes=23,no=24,missing=23
				23:leaf=0.0777940899
				24:leaf=-0.0737593397
			12:[ucnt5<52] yes=25,no=26,missing=25
				25:leaf=0.13719967
				26:leaf=-0.00300801499
		6:[ucnt5<341] yes=13,no=14,missing=13
			13:[ucnt10<297] yes=27,no=28,missing=27
				27:leaf=0.165855065
				28:leaf=0.0407187901
			14:[ucnt1<487] yes=29,no=30,missing=29
				29:leaf=-0.0734076798
				30:leaf=0.103814267
booster[77]:
0:[min_price<2500] yes=1,no=2,missing=1
	1:[ucnt2<1317] yes=3,no=4,missing=3
		3:[tdays<509.5] yes=7,no=8,missing=7
			7:[ucnt1<216] yes=15,no=16,missing=15
				15:leaf=-0.0125465784
				16:leaf=0.00611131452
			8:[ucnt4<514] yes=17,no=18,missing=17
				17:leaf=0.00278749852
				18:leaf=-0.0219136029
		4:[11<0.5] yes=9,no=10,missing=9
			9:[ucnt9<1119] yes=19,no=20,missing=19
				19:leaf=-0.0568477027
				20:leaf=0.0807723925
			10:[tdays<931.5] yes=21,no=22,missing=21
				21:leaf=0.166598663
				22:leaf=0.0103062671
	2:[ucnt9<1092] yes=5,no=6,missing=5
		5:[ucnt1<519] yes=11,no=12,missing=11
			11:[ucnt1<351] yes=23,no=24,missing=23
				23:leaf=-0.0165140592
				24:leaf=0.0233136564
			12:[ucnt2<380] yes=25,no=26,missing=25
				25:leaf=0.000951010385
				26:leaf=-0.0599593483
		6:[ucnt9<1147] yes=13,no=14,missing=13
			13:[ucnt9<1107] yes=27,no=28,missing=27
				27:leaf=0.0713717341
				28:leaf=0.268017739
			14:[1<0.5] yes=29,no=30,missing=29
				29:leaf=-0.0562918857
				30:leaf=0.123769581
booster[78]:
0:[ucnt4<1416] yes=1,no=2,missing=1
	1:[tdays<1038.5] yes=3,no=4,missing=3
		3:[usex<1.5] yes=7,no=8,missing=7
			7:[ucnt9<42] yes=15,no=16,missing=15
				15:leaf=-0.00566185825
				16:leaf=0.00566197885
			8:[ucnt1<41] yes=17,no=18,missing=17
				17:leaf=0.0102305757
				18:leaf=-0.0133650945
		4:[realage<52.5] yes=9,no=10,missing=9
			9:[realage<47.5] yes=19,no=20,missing=19
				19:leaf=0.00865870621
				20:leaf=-0.0108183762
			10:[tdays<1202] yes=21,no=22,missing=21
				21:leaf=0.00142496661
				22:leaf=0.0554251634
	2:[4<0.5] yes=5,no=6,missing=5
		5:[ucnt5<950] yes=11,no=12,missing=11
			11:leaf=0.0783196613
			12:leaf=-0.0486950614
		6:[ucnt9<1163] yes=13,no=14,missing=13
			13:leaf=0.223774239
			14:leaf=0.0403308608
booster[79]:
0:[min_price<3500] yes=1,no=2,missing=1
	1:[realage<62.5] yes=3,no=4,missing=3
		3:[realage<57.5] yes=7,no=8,missing=7
			7:[CASE WHEN a.12 = 'True' THEN 1 ELSE 0 END<1] yes=15,no=16,missing=15
				15:leaf=0.0111579848
				16:leaf=-0.00153229875
			8:[14<0.5] yes=17,no=18,missing=17
				17:leaf=0.0910354108
				18:leaf=-0.0673185885
		4:[realage<63.5] yes=9,no=10,missing=9
			9:[min_price<300] yes=19,no=20,missing=19
				19:leaf=0.0146265281
				20:leaf=-0.0787309706
			10:[ucnt5<139] yes=21,no=22,missing=21
				21:leaf=0.0345792435
				22:leaf=-0.0698784739
	2:[ucnt9<98] yes=5,no=6,missing=5
		5:[CASE WHEN a.8 = 'True' THEN 1 ELSE 0 END<1] yes=11,no=12,missing=11
			11:[realage<20.5] yes=23,no=24,missing=23
				23:leaf=-0.00157438521
				24:leaf=-0.0840159953
			12:[uage<4.5] yes=25,no=26,missing=25
				25:leaf=0.120304443
				26:leaf=0.0181659535
		6:[ucnt2<840] yes=13,no=14,missing=13
			13:[tdays<48.5] yes=27,no=28,missing=27
				27:leaf=-0.106639959
				28:leaf=-0.024538178
			14:leaf=-0.00659088278
booster[80]:
0:[ucnt9<53] yes=1,no=2,missing=1
	1:[realage<23.5] yes=3,no=4,missing=3
		3:[uage<2.5] yes=7,no=8,missing=7
			7:[ucnt8<95] yes=15,no=16,missing=15
				15:leaf=0.0115793552
				16:leaf=-0.0347784422
			8:[ucnt10<302] yes=17,no=18,missing=17
				17:leaf=0.0455837548
				18:leaf=-0.0777789876
		4:[realage<30.5] yes=9,no=10,missing=9
			9:[realage<28.5] yes=19,no=20,missing=19
				19:leaf=-0.0026616964
				20:leaf=-0.0287164431
			10:[uage<6.5] yes=21,no=22,missing=21
				21:leaf=0.0146875754
				22:leaf=-0.00744939083
	2:[ucnt10<15] yes=5,no=6,missing=5
		5:[ucnt8<85] yes=11,no=12,missing=11
			11:[ucnt4<93] yes=23,no=24,missing=23
				23:leaf=0.000257768726
				24:leaf=0.046055641
			12:[tdays<929.5] yes=25,no=26,missing=25
				25:leaf=0.0612185597
				26:leaf=0.0192776043
		6:[max_price<1750] yes=13,no=14,missing=13
			13:[ucnt2<319] yes=27,no=28,missing=27
				27:leaf=0.00302535039
				28:leaf=0.0207626838
			14:[tdays<129.5] yes=29,no=30,missing=29
				29:leaf=-0.0448851548
				30:leaf=-0.00395701779
booster[81]:
0:[ucnt1<817] yes=1,no=2,missing=1
	1:[ucnt2<659] yes=3,no=4,missing=3
		3:[1<0.5] yes=7,no=8,missing=7
			7:[ucnt1<309] yes=15,no=16,missing=15
				15:leaf=-0.000854365528
				16:leaf=0.0075089694
			8:[ucnt10<632] yes=17,no=18,missing=17
				17:leaf=-0.0130169615
				18:leaf=-0.100332238
		4:[CASE WHEN a.30 = 'True' THEN 1 ELSE 0 END<1] yes=9,no=10,missing=9
			9:[CASE WHEN a.24 = 'True' THEN 1 ELSE 0 END<1] yes=19,no=20,missing=19
				19:leaf=-0.00505715376
				20:leaf=0.1686344
			10:[tdays<90.5] yes=21,no=22,missing=21
				21:leaf=0.0669844002
				22:leaf=-0.0356928296
	2:[ucnt7<364] yes=5,no=6,missing=5
		5:[4<0.5] yes=11,no=12,missing=11
			11:[uage<1.5] yes=23,no=24,missing=23
				23:leaf=-0.0696417019
				24:leaf=0.145452201
			12:[tdays<663.5] yes=25,no=26,missing=25
				25:leaf=0.0490158796
				26:leaf=-0.0712957159
		6:[ucnt4<525] yes=13,no=14,missing=13
			13:[ucnt8<1142] yes=27,no=28,missing=27
				27:leaf=0.0601223186
				28:leaf=-0.121379092
			14:[ucnt5<344] yes=29,no=30,missing=29
				29:leaf=0.138735428
				30:leaf=-0.0101409191
booster[82]:
0:[ucnt2<1013] yes=1,no=2,missing=1
	1:[CASE WHEN a.7 = 'True' THEN 1 ELSE 0 END<1] yes=3,no=4,missing=3
		3:[CASE WHEN a.26 = 'True' THEN 1 ELSE 0 END<1] yes=7,no=8,missing=7
			7:[tdays<1784.5] yes=15,no=16,missing=15
				15:leaf=-0.0138966991
				16:leaf=0.0594250672
			8:[uage<6.5] yes=17,no=18,missing=17
				17:leaf=0.0358723663
				18:leaf=-0.00163406716
		4:[CASE WHEN a.19 = 'True' THEN 1 ELSE 0 END<1] yes=9,no=10,missing=9
			9:[ucnt10<16] yes=19,no=20,missing=19
				19:leaf=0.000766438607
				20:leaf=0.0317519754
			10:[CASE WHEN a.2 = 'True' THEN 1 ELSE 0 END<1] yes=21,no=22,missing=21
				21:leaf=0.0246809199
				22:leaf=-0.00262762583
	2:[uage<6.5] yes=5,no=6,missing=5
		5:[ucnt10<587] yes=11,no=12,missing=11
			11:[ucnt2<1057] yes=23,no=24,missing=23
				23:leaf=-0.050920397
				24:leaf=0.0952054784
			12:[ucnt6<1411] yes=25,no=26,missing=25
				25:leaf=-0.0172926988
				26:leaf=0.0911703706
		6:[tdays<537.5] yes=13,no=14,missing=13
			13:[realage<46.5] yes=27,no=28,missing=27
				27:leaf=0.337362379
				28:leaf=0.056822326
			14:[realage<40.5] yes=29,no=30,missing=29
				29:leaf=0.0867815912
				30:leaf=-0.0804057717
booster[83]:
0:[realage<18.5] yes=1,no=2,missing=1
	1:[ucnt7<1288] yes=3,no=4,missing=3
		3:[realage<15.5] yes=7,no=8,missing=7
			7:[ucnt7<2] yes=15,no=16,missing=15
				15:leaf=-0.116502181
				16:leaf=0.0624908321
			8:[ucnt1<70] yes=17,no=18,missing=17
				17:leaf=0.00893207267
				18:leaf=-0.0313177109
		4:[ucnt6<1344] yes=9,no=10,missing=9
			9:leaf=0.208843753
			10:leaf=-0.0723495334
	2:[uage<2.5] yes=5,no=6,missing=5
		5:[ucnt1<470] yes=11,no=12,missing=11
			11:[tdays<44.5] yes=19,no=20,missing=19
				19:leaf=0.078691192
				20:leaf=0.0172467101
			12:[min_price<2500] yes=21,no=22,missing=21
				21:leaf=-0.0116914464
				22:leaf=-0.0660534054
		6:[ucnt5<1] yes=13,no=14,missing=13
			13:[ucnt8<26] yes=23,no=24,missing=23
				23:leaf=0.00517379073
				24:leaf=0.0303111207
			14:[ucnt1<842] yes=25,no=26,missing=25
				25:leaf=-0.00296147703
				26:leaf=0.0361875594
booster[84]:
0:[ucnt7<1351] yes=1,no=2,missing=1
	1:[uage<5.5] yes=3,no=4,missing=3
		3:[realage<32.5] yes=7,no=8,missing=7
			7:[realage<31.5] yes=15,no=16,missing=15
				15:leaf=0.00213650777
				16:leaf=-0.0355061851
			8:[ucnt5<71] yes=17,no=18,missing=17
				17:leaf=0.0584691465
				18:leaf=0.0105067883
		4:[realage<35.5] yes=9,no=10,missing=9
			9:[ucnt10<17] yes=19,no=20,missing=19
				19:leaf=0.0476084314
				20:leaf=-0.0514578596
			10:[realage<37.5] yes=21,no=22,missing=21
				21:leaf=0.031714078
				22:leaf=-0.00431891344
	2:[tdays<407.5] yes=5,no=6,missing=5
		5:[ucnt6<1240] yes=11,no=12,missing=11
			11:leaf=0.237648293
			12:leaf=0.0101295793
		6:[ucnt9<1159] yes=13,no=14,missing=13
			13:[ucnt7<1382] yes=23,no=24,missing=23
				23:leaf=0.0431407765
				24:leaf=-0.0863048807
			14:leaf=0.110861413
booster[85]:
0:[min_price<300] yes=1,no=2,missing=1
	1:[realage<25.5] yes=3,no=4,missing=3
		3:[tdays<248.5] yes=7,no=8,missing=7
			7:[usex<0.5] yes=15,no=16,missing=15
				15:leaf=-0.0886859819
				16:leaf=0.0604568087
			8:[ucnt3<4] yes=17,no=18,missing=17
				17:leaf=0.0259131733
				18:leaf=-0.0307791177
		4:[realage<28.5] yes=9,no=10,missing=9
			9:[ucnt7<14] yes=19,no=20,missing=19
				19:leaf=0.0366150923
				20:leaf=0.103546381
			10:[realage<30.5] yes=21,no=22,missing=21
				21:leaf=-0.00937256031
				22:leaf=0.0183655862
	2:[ucnt3<1] yes=5,no=6,missing=5
		5:[tdays<21.5] yes=11,no=12,missing=11
			11:[usex<0.5] yes=23,no=24,missing=23
				23:leaf=0.048414778
				24:leaf=-0.0868752599
			12:[ucnt2<175] yes=25,no=26,missing=25
				25:leaf=0.0105908047
				26:leaf=0.070310913
		6:[ucnt7<2] yes=13,no=14,missing=13
			13:[ucnt8<11] yes=27,no=28,missing=27
				27:leaf=0.0195741523
				28:leaf=-0.0114249019
			14:[ucnt5<34] yes=29,no=30,missing=29
				29:leaf=-0.00936982222
				30:leaf=-0.000920244493
booster[86]:
0:[realage<50.5] yes=1,no=2,missing=1
	1:[ucnt8<1497] yes=3,no=4,missing=3
		3:[ucnt8<42] yes=7,no=8,missing=7
			7:[ucnt10<62] yes=15,no=16,missing=15
				15:leaf=-0.0077573806
				16:leaf=0.0153952837
			8:[ucnt10<11] yes=17,no=18,missing=17
				17:leaf=0.0237423982
				18:leaf=0.00119342201
		4:[ucnt6<1470] yes=9,no=10,missing=9
			9:[ucnt6<832] yes=19,no=20,missing=19
				19:leaf=0.00362321851
				20:leaf=0.213207245
			10:leaf=-0.0241950583
	2:[realage<56.5] yes=5,no=6,missing=5
		5:[realage<52.5] yes=11,no=12,missing=11
			11:[realage<51.5] yes=21,no=22,missing=21
				21:leaf=0.0853629261
				22:leaf=0.0058341641
			12:[realage<53.5] yes=23,no=24,missing=23
				23:leaf=0.147007585
				24:leaf=0.0711815283
		6:[tdays<955.5] yes=13,no=14,missing=13
			13:[max_price<1250] yes=25,no=26,missing=25
				25:leaf=0.00125151675
				26:leaf=-0.0404106937
			14:[realage<66.5] yes=27,no=28,missing=27
				27:leaf=0.0155667411
				28:leaf=0.117720865
booster[87]:
0:[ucnt1<1] yes=1,no=2,missing=1
	1:[ucnt7<4] yes=3,no=4,missing=3
		3:[realage<31.5] yes=7,no=8,missing=7
			7:[ucnt2<27] yes=15,no=16,missing=15
				15:leaf=-0.0174970012
				16:leaf=0.0377629735
			8:[tdays<41] yes=17,no=18,missing=17
				17:leaf=-0.1192616
				18:leaf=0.0257711858
		4:[realage<19.5] yes=9,no=10,missing=9
			9:[19<0.5] yes=19,no=20,missing=19
				19:leaf=-0.0669145435
				20:leaf=0.0336424448
			10:[ucnt5<261] yes=21,no=22,missing=21
				21:leaf=0.0243689176
				22:leaf=0.0930960178
	2:[ucnt2<41] yes=5,no=6,missing=5
		5:[realage<30.5] yes=11,no=12,missing=11
			11:[ucnt10<79] yes=23,no=24,missing=23
				23:leaf=-0.0196220782
				24:leaf=0.02328768
			12:[ucnt5<180] yes=25,no=26,missing=25
				25:leaf=0.00325214164
				26:leaf=0.0681209937
		6:[ucnt9<20] yes=13,no=14,missing=13
			13:[tdays<9.5] yes=27,no=28,missing=27
				27:leaf=-0.0364644043
				28:leaf=0.0241361018
			14:[realage<31.5] yes=29,no=30,missing=29
				29:leaf=0.00379731739
				30:leaf=-0.00484200893
booster[88]:
0:[ucnt2<24] yes=1,no=2,missing=1
	1:[CASE WHEN a.21 = 'True' THEN 1 ELSE 0 END<1] yes=3,no=4,missing=3
		3:[ucnt8<4] yes=7,no=8,missing=7
			7:[ucnt7<3] yes=15,no=16,missing=15
				15:leaf=-0.00468598818
				16:leaf=0.0402632281
			8:[ucnt6<10] yes=17,no=18,missing=17
				17:leaf=0.0726696253
				18:leaf=0.00467485376
		4:[usex<1.5] yes=9,no=10,missing=9
			9:[ucnt5<67] yes=19,no=20,missing=19
				19:leaf=-0.0130106956
				20:leaf=0.0137307616
			10:[realage<62.5] yes=21,no=22,missing=21
				21:leaf=0.0052666557
				22:leaf=0.111826025
	2:[tdays<94.5] yes=5,no=6,missing=5
		5:[realage<20.5] yes=11,no=12,missing=11
			11:[realage<18.5] yes=23,no=24,missing=23
				23:leaf=-0.03845625
				24:leaf=0.0697354302
			12:[realage<30.5] yes=25,no=26,missing=25
				25:leaf=-0.0486457571
				26:leaf=-0.0109401718
		6:[ucnt5<11] yes=13,no=14,missing=13
			13:[ucnt8<409] yes=27,no=28,missing=27
				27:leaf=0.0253946222
				28:leaf=-0.0859757289
			14:[ucnt10<1] yes=29,no=30,missing=29
				29:leaf=0.0297372937
				30:leaf=0.00237372378
booster[89]:
0:[realage<69.5] yes=1,no=2,missing=1
	1:[realage<62.5] yes=3,no=4,missing=3
		3:[realage<57.5] yes=7,no=8,missing=7
			7:[realage<56.5] yes=13,no=14,missing=13
				13:leaf=-0.000761421397
				14:leaf=-0.0257802289
			8:[realage<60.5] yes=15,no=16,missing=15
				15:leaf=0.124641381
				16:leaf=0.0336013325
		4:[ucnt1<2] yes=9,no=10,missing=9
			9:leaf=0.118664913
			10:[realage<63.5] yes=17,no=18,missing=17
				17:leaf=-0.0655215457
				18:leaf=-0.00598313985
	2:[ucnt8<42] yes=5,no=6,missing=5
		5:leaf=0.0129431337
		6:[ucnt7<139] yes=11,no=12,missing=11
			11:leaf=0.133937418
			12:leaf=0.0381943919
booster[90]:
0:[realage<25.5] yes=1,no=2,missing=1
	1:[ucnt3<604] yes=3,no=4,missing=3
		3:[4<0.5] yes=7,no=8,missing=7
			7:[realage<23.5] yes=15,no=16,missing=15
				15:leaf=0.00114998303
				16:leaf=-0.0200824216
			8:[ucnt8<933] yes=17,no=18,missing=17
				17:leaf=0.00886931457
				18:leaf=0.131231785
		4:[tdays<666.5] yes=9,no=10,missing=9
			9:[ucnt3<619] yes=19,no=20,missing=19
				19:leaf=-0.0918349847
				20:leaf=-0.00574674457
			10:[ucnt4<691] yes=21,no=22,missing=21
				21:leaf=-0.110356949
				22:leaf=-0.0479252636
	2:[realage<28.5] yes=5,no=6,missing=5
		5:[min_price<1750] yes=11,no=12,missing=11
			11:[tdays<469.5] yes=23,no=24,missing=23
				23:leaf=0.00213852688
				24:leaf=0.0508874916
			12:[ucnt4<73] yes=25,no=26,missing=25
				25:leaf=0.0266222488
				26:leaf=-0.0237012636
		6:[ucnt9<260] yes=13,no=14,missing=13
			13:[realage<30.5] yes=27,no=28,missing=27
				27:leaf=-0.00899630692
				28:leaf=0.00167987205
			14:[ucnt3<197] yes=29,no=30,missing=29
				29:leaf=0.043301411
				30:leaf=0.00641224114
booster[91]:
0:[realage<25.5] yes=1,no=2,missing=1
	1:[realage<23.5] yes=3,no=4,missing=3
		3:[ucnt9<147] yes=7,no=8,missing=7
			7:[ucnt4<273] yes=15,no=16,missing=15
				15:leaf=0.0128407748
				16:leaf=0.0580708198
			8:[tdays<723.5] yes=17,no=18,missing=17
				17:leaf=0.00166232162
				18:leaf=-0.0323893465
		4:[ucnt9<174] yes=9,no=10,missing=9
			9:[ucnt1<414] yes=19,no=20,missing=19
				19:leaf=-0.0303672049
				20:leaf=0.10585425
			10:[uage<3.5] yes=21,no=22,missing=21
				21:leaf=-0.0169132818
				22:leaf=0.0302301105
	2:[ucnt5<500] yes=5,no=6,missing=5
		5:[min_price<1750] yes=11,no=12,missing=11
			11:[realage<28.5] yes=23,no=24,missing=23
				23:leaf=0.0344839469
				24:leaf=0.00173142017
			12:[tdays<1082.5] yes=25,no=26,missing=25
				25:leaf=-0.0151566332
				26:leaf=0.00911184493
		6:[ucnt3<241] yes=13,no=14,missing=13
			13:[ucnt1<119] yes=27,no=28,missing=27
				27:leaf=0.170031413
				28:leaf=0.0614936538
			14:[ucnt8<441] yes=29,no=30,missing=29
				29:leaf=0.0400078408
				30:leaf=0.00152132916
booster[92]:
0:[ucnt3<1] yes=1,no=2,missing=1
	1:[realage<19.5] yes=3,no=4,missing=3
		3:[tdays<933] yes=7,no=8,missing=7
			7:[ucnt1<3] yes=15,no=16,missing=15
				15:leaf=-0.137544453
				16:leaf=-0.0462389998
			8:[ucnt8<45] yes=17,no=18,missing=17
				17:leaf=0.0825364366
				18:leaf=-0.0785501599
		4:[tdays<1308.5] yes=9,no=10,missing=9
			9:[ucnt10<619] yes=19,no=20,missing=19
				19:leaf=0.0209845118
				20:leaf=-0.0908801109
			10:[ucnt2<1] yes=21,no=22,missing=21
				21:leaf=0.0116752042
				22:leaf=-0.0390973538
	2:[ucnt3<100] yes=5,no=6,missing=5
		5:[ucnt1<373] yes=11,no=12,missing=11
			11:[realage<30.5] yes=23,no=24,missing=23
				23:leaf=-0.0103931464
				24:leaf=0.00139559607
			12:[tdays<459.5] yes=25,no=26,missing=25
				25:leaf=0.134969071
				26:leaf=0.0358310342
		6:[tdays<36.5] yes=13,no=14,missing=13
			13:[realage<20.5] yes=27,no=28,missing=27
				27:leaf=0.00953850709
				28:leaf=-0.0688252673
			14:[ucnt1<38] yes=29,no=30,missing=29
				29:leaf=0.0293511804
				30:leaf=0.00257442403
booster[93]:
0:[ucnt2<1] yes=1,no=2,missing=1
	1:[ucnt4<9] yes=3,no=4,missing=3
		3:[ucnt10<138] yes=7,no=8,missing=7
			7:[ucnt7<19] yes=15,no=16,missing=15
				15:leaf=0.0147153037
				16:leaf=0.0563699603
			8:[ucnt4<1] yes=17,no=18,missing=17
				17:leaf=-0.0576178208
				18:leaf=0.0719086379
		4:[tdays<651.5] yes=9,no=10,missing=9
			9:[ucnt8<357] yes=19,no=20,missing=19
				19:leaf=0.0425051935
				20:leaf=-0.0856296346
			10:[ucnt7<292] yes=21,no=22,missing=21
				21:leaf=-0.0254563279
				22:leaf=0.0515575707
	2:[ucnt5<60] yes=5,no=6,missing=5
		5:[ucnt9<118] yes=11,no=12,missing=11
			11:[ucnt1<242] yes=23,no=24,missing=23
				23:leaf=-0.00792703684
				24:leaf=0.0398833565
			12:[ucnt8<147] yes=25,no=26,missing=25
				25:leaf=0.0373490229
				26:leaf=-0.0123512503
		6:[ucnt1<55] yes=13,no=14,missing=13
			13:[ucnt6<352] yes=27,no=28,missing=27
				27:leaf=0.0107674645
				28:leaf=0.0923998207
			14:[uage<5.5] yes=29,no=30,missing=29
				29:leaf=0.00208606687
				30:leaf=-0.00679559121
booster[94]:
0:[ucnt8<872] yes=1,no=2,missing=1
	1:[ucnt1<9] yes=3,no=4,missing=3
		3:[ucnt7<18] yes=7,no=8,missing=7
			7:[uage<4.5] yes=15,no=16,missing=15
				15:leaf=-0.00841092225
				16:leaf=0.00768895913
			8:[ucnt8<240] yes=17,no=18,missing=17
				17:leaf=0.0197093505
				18:leaf=0.0768404678
		4:[ucnt7<1] yes=9,no=10,missing=9
			9:[CASE WHEN a.1 = 'True' THEN 1 ELSE 0 END<1] yes=19,no=20,missing=19
				19:leaf=-0.0365751944
				20:leaf=0.0146096917
			10:[uage<0.5] yes=21,no=22,missing=21
				21:leaf=0.0606534556
				22:leaf=-0.00216015894
	2:[ucnt6<1112] yes=5,no=6,missing=5
		5:[tdays<495.5] yes=11,no=12,missing=11
			11:[ucnt10<276] yes=23,no=24,missing=23
				23:leaf=-0.0558480285
				24:leaf=0.0881152526
			12:[ucnt2<843] yes=25,no=26,missing=25
				25:leaf=0.0453126915
				26:leaf=-0.040170446
		6:[ucnt3<566] yes=13,no=14,missing=13
			13:leaf=0.0946720988
			14:[ucnt3<870] yes=27,no=28,missing=27
				27:leaf=-0.103586845
				28:leaf=-0.0039390903
booster[95]:
0:[min_price<800] yes=1,no=2,missing=1
	1:[realage<25.5] yes=3,no=4,missing=3
		3:[tdays<270.5] yes=7,no=8,missing=7
			7:[realage<24.5] yes=15,no=16,missing=15
				15:leaf=0.0748697147
				16:leaf=-0.00298341992
			8:[realage<24.5] yes=17,no=18,missing=17
				17:leaf=0.000277782528
				18:leaf=-0.0226100273
		4:[realage<28.5] yes=9,no=10,missing=9
			9:[realage<27.5] yes=19,no=20,missing=19
				19:leaf=0.0317942947
				20:leaf=0.0820348188
			10:[ucnt9<42] yes=21,no=22,missing=21
				21:leaf=-0.00112339028
				22:leaf=0.0110258348
	2:[tdays<123.5] yes=5,no=6,missing=5
		5:[ucnt5<827] yes=11,no=12,missing=11
			11:[ucnt3<339] yes=23,no=24,missing=23
				23:leaf=-0.0177092552
				24:leaf=-0.0501831472
			12:[ucnt4<670] yes=25,no=26,missing=25
				25:leaf=0.189479873
				26:leaf=-0.0237519722
		6:[24<0.5] yes=13,no=14,missing=13
			13:[realage<19.5] yes=27,no=28,missing=27
				27:leaf=0.0132049536
				28:leaf=-0.00289432146
			14:[ucnt7<387] yes=29,no=30,missing=29
				29:leaf=0.0390088446
				30:leaf=-0.0270247161
booster[96]:
0:[uage<7.5] yes=1,no=2,missing=1
	1:[ucnt6<422] yes=3,no=4,missing=3
		3:[ucnt3<850] yes=7,no=8,missing=7
			7:[ucnt7<348] yes=15,no=16,missing=15
				15:leaf=0.000692454865
				16:leaf=0.0189153552
			8:[tdays<103] yes=17,no=18,missing=17
				17:leaf=-0.0596000962
				18:leaf=0.126303241
		4:[ucnt6<534] yes=9,no=10,missing=9
