booster[0]:
0:[tdays<918.5] yes=1,no=2,missing=1
	1:[ucnt21<15] yes=3,no=4,missing=3
		3:[tdays<540.5] yes=7,no=8,missing=7
			7:[realage<20.5] yes=15,no=16,missing=15
				15:[realage<19.5] yes=31,no=32,missing=31
					31:[tdays<66.5] yes=63,no=64,missing=63
						63:[realage<18.5] yes=125,no=126,missing=125
							125:[uage<0.5] yes=233,no=234,missing=233
								233:leaf=0.0181818195
								234:leaf=-0.146666676
							126:[tdays<7.5] yes=235,no=236,missing=235
								235:leaf=0.0461538471
								236:leaf=-0.0666666701
						64:[udu28<26059] yes=127,no=128,missing=127
							127:[udu21<324] yes=237,no=238,missing=237
								237:leaf=0.0250000004
								238:leaf=0.129411772
							128:[usex<0.5] yes=239,no=240,missing=239
								239:leaf=-0
								240:leaf=-0.100000001
					32:[ucnt22<38] yes=65,no=66,missing=65
						65:[udu28<7709] yes=129,no=130,missing=129
							129:[usex<1.5] yes=241,no=242,missing=241
								241:leaf=0.140000001
								242:leaf=0.0400000028
							130:leaf=-0.0500000007
						66:leaf=-0.115789473
				16:[tdays<24.5] yes=33,no=34,missing=33
					33:[realage<31.5] yes=67,no=68,missing=67
						67:[realage<30.5] yes=131,no=132,missing=131
							131:[uage<2.5] yes=243,no=244,missing=243
								243:leaf=-0.0838709697
								244:leaf=-0.155212358
							132:[tdays<15.5] yes=245,no=246,missing=245
								245:leaf=-0.111111119
								246:leaf=0.0909090936
						68:leaf=-0.189473689
					34:[ucnt26<3] yes=69,no=70,missing=69
						69:[ucnt24<18] yes=133,no=134,missing=133
							133:[tdays<99] yes=247,no=248,missing=247
								247:leaf=-0.0695652217
								248:leaf=0.0196428578
							134:[udu21<62] yes=249,no=250,missing=249
								249:leaf=-0.0327272713
								250:leaf=-0.163636371
						70:[realage<43.5] yes=135,no=136,missing=135
							135:[udu24<239] yes=251,no=252,missing=251
								251:leaf=-0.0383419693
								252:leaf=-0.108262114
							136:[CASE WHEN a.24 = 'True' THEN 1 ELSE 0 END<1] yes=253,no=254,missing=253
								253:leaf=-0.0400000028
								254:leaf=-0.163478255
			8:[ucnt25<3] yes=17,no=18,missing=17
				17:[udu26<44] yes=35,no=36,missing=35
					35:[udu23<88] yes=71,no=72,missing=71
						71:[udu24<5169] yes=137,no=138,missing=137
							137:[ucnt22<48] yes=255,no=256,missing=255
								255:leaf=0.094214879
								256:leaf=-0.0222222228
							138:[uage<4.5] yes=257,no=258,missing=257
								257:leaf=-0.100000001
								258:leaf=-0
						72:[udu23<711] yes=139,no=140,missing=139
							139:[usex<1.5] yes=259,no=260,missing=259
								259:leaf=-0.0697674379
								260:leaf=0.127272725
							140:[uage<5.5] yes=261,no=262,missing=261
								261:leaf=0.0810810849
								262:leaf=-0.0181818195
					36:[realage<28.5] yes=73,no=74,missing=73
						73:[ucnt27<177] yes=141,no=142,missing=141
							141:[udu28<12] yes=263,no=264,missing=263
								263:leaf=0.0285714306
								264:leaf=0.105555557
							142:leaf=-0.0909090936
						74:[udu25<2852] yes=143,no=144,missing=143
							143:[tdays<660.5] yes=265,no=266,missing=265
								265:leaf=0.0300000012
								266:leaf=-0.0513513498
							144:[udu21<4833] yes=267,no=268,missing=267
								267:leaf=0.125
								268:leaf=-0.0545454584
				18:[realage<28.5] yes=37,no=38,missing=37
					37:[tdays<624.5] yes=75,no=76,missing=75
						75:[realage<26.5] yes=145,no=146,missing=145
							145:[ucnt26<2] yes=269,no=270,missing=269
								269:leaf=0.0285714306
								270:leaf=-0.112500004
							146:leaf=0.111111119
						76:[realage<27.5] yes=147,no=148,missing=147
							147:[udu25<1184] yes=271,no=272,missing=271
								271:leaf=-0.0352941193
								272:leaf=0.0328125022
							148:[udu21<73] yes=273,no=274,missing=273
								273:leaf=0.0333333351
								274:leaf=0.14782609
					38:[ucnt22<5] yes=77,no=78,missing=77
						77:[udu23<1505] yes=149,no=150,missing=149
							149:[ucnt27<162] yes=275,no=276,missing=275
								275:leaf=0.0310160425
								276:leaf=-0.0857142881
							150:[ucnt25<69] yes=277,no=278,missing=277
								277:leaf=-0.0707070753
								278:leaf=0.0580645166
						78:[uage<7.5] yes=151,no=152,missing=151
							151:[udu24<8409] yes=279,no=280,missing=279
								279:leaf=-0.0832369924
								280:leaf=-0.0270270258
							152:[ucnt29<8] yes=281,no=282,missing=281
								281:leaf=-0.00540540554
								282:leaf=-0.131658301
		4:[tdays<525.5] yes=9,no=10,missing=9
			9:[realage<31.5] yes=19,no=20,missing=19
				19:[tdays<379.5] yes=39,no=40,missing=39
					39:[ucnt27<17] yes=79,no=80,missing=79
						79:[realage<30.5] yes=153,no=154,missing=153
							153:[usex<0.5] yes=283,no=284,missing=283
								283:leaf=0.100000001
								284:leaf=-0.115217388
							154:[ucnt25<6] yes=285,no=286,missing=285
								285:leaf=0.114285722
								286:leaf=-0.0727272779
						80:[uage<0.5] yes=155,no=156,missing=155
							155:[ucnt26<290] yes=287,no=288,missing=287
								287:leaf=0.0909090936
								288:leaf=-0.0769230798
							156:[usex<1.5] yes=289,no=290,missing=289
								289:leaf=-0.14755784
								290:leaf=-0.165844411
					40:[uage<0.5] yes=81,no=82,missing=81
						81:leaf=0.107692316
						82:[udu26<685] yes=157,no=158,missing=157
							157:[udu25<27] yes=291,no=292,missing=291
								291:leaf=0.0210526325
								292:leaf=-0.0702702701
							158:[realage<30.5] yes=293,no=294,missing=293
								293:leaf=-0.123326734
								294:leaf=-0.0786069632
				20:[realage<47.5] yes=41,no=42,missing=41
					41:[tdays<213.5] yes=83,no=84,missing=83
						83:[ucnt24<22] yes=159,no=160,missing=159
							159:[udu21<1632] yes=295,no=296,missing=295
								295:leaf=0.0545454584
								296:leaf=-0.142168686
							160:[ucnt25<1472] yes=297,no=298,missing=297
								297:leaf=-0.179825157
								298:leaf=-0.0500000007
						84:[udu28<123] yes=161,no=162,missing=161
							161:[udu26<42092] yes=299,no=300,missing=299
								299:leaf=-0.0808510706
								300:leaf=0.0400000028
							162:[udu24<57857] yes=301,no=302,missing=301
								301:leaf=-0.157788947
								302:leaf=-0.0944444463
					42:[udu21<79350] yes=85,no=86,missing=85
						85:[ucnt29<726] yes=163,no=164,missing=163
							163:[usex<1.5] yes=303,no=304,missing=303
								303:leaf=-0.173444614
								304:leaf=-0.190230668
							164:[udu26<36845] yes=305,no=306,missing=305
								305:leaf=-0.13333334
								306:leaf=-0
						86:leaf=0.0800000057
			10:[uage<5.5] yes=21,no=22,missing=21
				21:[tdays<735.5] yes=43,no=44,missing=43
					43:[udu28<18641] yes=87,no=88,missing=87
						87:[realage<23.5] yes=165,no=166,missing=165
							165:[ucnt29<50] yes=307,no=308,missing=307
								307:leaf=0.0253968276
								308:leaf=-0.0587412603
							166:[udu23<142] yes=309,no=310,missing=309
								309:leaf=-0
								310:leaf=-0.0848093852
						88:[udu23<8413] yes=167,no=168,missing=167
							167:[realage<22.5] yes=311,no=312,missing=311
								311:leaf=0.0200000014
								312:leaf=-0.0642201826
							168:[ucnt22<12] yes=313,no=314,missing=313
								313:leaf=0.0068965517
								314:leaf=-0.11510843
					44:[ucnt26<12] yes=89,no=90,missing=89
						89:[CASE WHEN a.26 = 'True' THEN 1 ELSE 0 END<1] yes=169,no=170,missing=169
							169:[ucnt21<117] yes=315,no=316,missing=315
								315:leaf=0.0666666701
								316:leaf=0.152941182
							170:[udu24<4720] yes=317,no=318,missing=317
								317:leaf=-0.0277372282
								318:leaf=0.0357894748
						90:[udu21<16881] yes=171,no=172,missing=171
							171:[uage<2.5] yes=319,no=320,missing=319
								319:leaf=0.0294117667
								320:leaf=-0.0502115674
							172:[ucnt27<299] yes=321,no=322,missing=321
								321:leaf=-0.0593572818
								322:leaf=-0.093114756
				22:[tdays<672.5] yes=45,no=46,missing=45
					45:[ucnt27<16] yes=91,no=92,missing=91
						91:[ucnt27<15] yes=173,no=174,missing=173
							173:[udu21<6016] yes=323,no=324,missing=323
								323:leaf=-0.0434782617
								324:leaf=-0.129411772
							174:leaf=0.0666666701
						92:[realage<70] yes=175,no=176,missing=175
							175:[CASE WHEN a.24 = 'True' THEN 1 ELSE 0 END<1] yes=325,no=326,missing=325
								325:leaf=-0.0352941193
								326:leaf=-0.15276596
							176:leaf=0.0222222228
					46:[realage<47.5] yes=93,no=94,missing=93
						93:[udu25<13950] yes=177,no=178,missing=177
							177:[udu28<2] yes=327,no=328,missing=327
								327:leaf=0.0533333384
								328:leaf=-0.0773333311
							178:[ucnt27<137] yes=329,no=330,missing=329
								329:leaf=-0.0941176489
								330:leaf=-0.127771914
						94:[udu23<2144] yes=179,no=180,missing=179
							179:[usex<1.5] yes=331,no=332,missing=331
								331:leaf=-0.0600000024
								332:leaf=-0.138983056
							180:[ucnt29<22] yes=333,no=334,missing=333
								333:leaf=-0.0938775539
								334:leaf=-0.142754287
	2:[realage<47.5] yes=5,no=6,missing=5
		5:[ucnt29<1] yes=11,no=12,missing=11
			11:[CASE WHEN a.28 = 'True' THEN 1 ELSE 0 END<1] yes=23,no=24,missing=23
				23:[tdays<1357] yes=47,no=48,missing=47
					47:[udu24<968] yes=95,no=96,missing=95
						95:[realage<23.5] yes=181,no=182,missing=181
							181:[udu23<333] yes=335,no=336,missing=335
								335:leaf=0.167999998
								336:leaf=0.0823529437
							182:[realage<30.5] yes=337,no=338,missing=337
								337:leaf=0.0818565413
								338:leaf=0.131914899
						96:[udu24<1232] yes=183,no=184,missing=183
							183:leaf=-0.100000001
							184:[udu24<25431] yes=339,no=340,missing=339
								339:leaf=0.0715596303
								340:leaf=-0.0363636389
					48:[udu26<44998] yes=97,no=98,missing=97
						97:[ucnt24<69] yes=185,no=186,missing=185
							185:[realage<9.5] yes=341,no=342,missing=341
								341:leaf=-0
								342:leaf=0.152500004
							186:[ucnt24<82] yes=343,no=344,missing=343
								343:leaf=-0.0181818195
								344:leaf=0.1027027
						98:leaf=-0.0500000007
				24:[tdays<1000.5] yes=49,no=50,missing=49
					49:[ucnt27<302] yes=99,no=100,missing=99
						99:[udu24<8069] yes=187,no=188,missing=187
							187:[udu28<1] yes=345,no=346,missing=345
								345:leaf=0.041860465
								346:leaf=-0.0366197191
							188:[udu24<29513] yes=347,no=348,missing=347
								347:leaf=0.130434796
								348:leaf=-0.0222222228
						100:leaf=-0.13333334
					50:[udu23<2316] yes=101,no=102,missing=101
						101:[ucnt21<21] yes=189,no=190,missing=189
							189:[udu21<3134] yes=349,no=350,missing=349
								349:leaf=0.0774526671
								350:leaf=-0.05185185
							190:[tdays<1051.5] yes=351,no=352,missing=351
								351:leaf=0.0222222228
								352:leaf=0.153623194
						102:[ucnt21<347] yes=191,no=192,missing=191
							191:[ucnt26<212] yes=353,no=354,missing=353
								353:leaf=0.0461538471
								354:leaf=-0.100000001
							192:leaf=0.150000006
			12:[tdays<1192.5] yes=25,no=26,missing=25
				25:[ucnt26<232] yes=51,no=52,missing=51
					51:[ucnt22<1] yes=103,no=104,missing=103
						103:[ucnt29<2] yes=193,no=194,missing=193
							193:[ucnt26<3] yes=355,no=356,missing=355
								355:leaf=0.00869565271
								356:leaf=-0.0933333337
							194:[uage<2.5] yes=357,no=358,missing=357
								357:leaf=0.134883732
								358:leaf=0.044839859
						104:[realage<23.5] yes=195,no=196,missing=195
							195:[tdays<1055.5] yes=359,no=360,missing=359
								359:leaf=0.00356234098
								360:leaf=0.0550000034
							196:[ucnt25<18] yes=361,no=362,missing=361
								361:leaf=0.00458015269
								362:leaf=-0.0327537432
					52:[ucnt21<82] yes=105,no=106,missing=105
						105:[udu26<43048] yes=197,no=198,missing=197
							197:[ucnt25<269] yes=363,no=364,missing=363
								363:leaf=0.0275862068
								364:leaf=-0.0620689653
							198:leaf=0.150000006
						106:[realage<28.5] yes=199,no=200,missing=199
							199:[realage<18.5] yes=365,no=366,missing=365
								365:leaf=-0.100952387
								366:leaf=-0.0339066349
							200:[tdays<1186.5] yes=367,no=368,missing=367
								367:leaf=-0.0868749991
								368:leaf=0.0666666701
				26:[tdays<1496.5] yes=53,no=54,missing=53
					53:[realage<28.5] yes=107,no=108,missing=107
						107:[realage<27.5] yes=201,no=202,missing=201
							201:[realage<22.5] yes=369,no=370,missing=369
								369:leaf=0.0683438182
								370:leaf=0.0281609204
							202:[udu23<10465] yes=371,no=372,missing=371
								371:leaf=0.142857149
								372:leaf=0.0533333384
						108:[ucnt22<1] yes=203,no=204,missing=203
							203:[ucnt25<34] yes=373,no=374,missing=373
								373:leaf=0.0553846173
								374:leaf=0.131914899
							204:[CASE WHEN a.27 = 'True' THEN 1 ELSE 0 END<1] yes=375,no=376,missing=375
								375:leaf=0.100000001
								376:leaf=-0.00387513451
					54:[realage<29.5] yes=109,no=110,missing=109
						109:[realage<25.5] yes=205,no=206,missing=205
							205:[ucnt22<10] yes=377,no=378,missing=377
								377:leaf=0.114285722
								378:leaf=0.0542986467
							206:[realage<28.5] yes=379,no=380,missing=379
								379:leaf=0.144278616
								380:leaf=0.0795454606
						110:[udu23<222] yes=207,no=208,missing=207
							207:[realage<31.5] yes=381,no=382,missing=381
								381:leaf=0.0680851042
								382:leaf=0.130069941
							208:[realage<40.5] yes=383,no=384,missing=383
								383:leaf=0.0285110902
								384:leaf=0.10085471
		6:[ucnt29<6] yes=13,no=14,missing=13
			13:[CASE WHEN a.23 = 'True' THEN 1 ELSE 0 END<1] yes=27,no=28,missing=27
				27:[udu23<2] yes=55,no=56,missing=55
					55:[CASE WHEN a.26 = 'True' THEN 1 ELSE 0 END<1] yes=111,no=112,missing=111
						111:[usex<1.5] yes=209,no=210,missing=209
							209:leaf=0.129113927
							210:[realage<51] yes=385,no=386,missing=385
								385:leaf=0.0166666675
								386:leaf=0.127272725
						112:[realage<53.5] yes=211,no=212,missing=211
							211:[CASE WHEN a.22 = 'True' THEN 1 ELSE 0 END<1] yes=387,no=388,missing=387
								387:leaf=-0.0909090936
								388:leaf=0.0666666701
							212:leaf=0.111111119
					56:leaf=-0.0800000057
				28:[realage<57.5] yes=57,no=58,missing=57
					57:[uage<7.5] yes=113,no=114,missing=113
						113:[ucnt26<9] yes=213,no=214,missing=213
							213:[ucnt21<10] yes=389,no=390,missing=389
								389:leaf=-0
								390:leaf=-0.111111119
							214:[ucnt25<56] yes=391,no=392,missing=391
								391:leaf=0.115789473
								392:leaf=-0
						114:[tdays<1425] yes=215,no=216,missing=215
							215:[ucnt24<1] yes=393,no=394,missing=393
								393:leaf=-0.0177215189
								394:leaf=-0.0789743587
							216:[udu26<5085] yes=395,no=396,missing=395
								395:leaf=-0.0354609936
								396:leaf=0.0666666701
					58:[ucnt21<3] yes=115,no=116,missing=115
						115:leaf=0.13333334
						116:[ucnt25<3] yes=217,no=218,missing=217
							217:leaf=0.0909090936
							218:[udu25<3510] yes=397,no=398,missing=397
								397:leaf=-0.120000005
								398:leaf=0.0545454584
			14:[tdays<1239.5] yes=29,no=30,missing=29
				29:[udu21<348] yes=59,no=60,missing=59
					59:[ucnt25<54] yes=117,no=118,missing=117
						117:[ucnt27<2] yes=219,no=220,missing=219
							219:[udu21<129] yes=399,no=400,missing=399
								399:leaf=-0.138461545
								400:leaf=0.0666666701
							220:[ucnt29<79] yes=401,no=402,missing=401
								401:leaf=-0.0111111114
								402:leaf=0.105882362
						118:leaf=-0.144827589
					60:[usex<1.5] yes=119,no=120,missing=119
						119:[ucnt24<455] yes=221,no=222,missing=221
							221:[udu26<25560] yes=403,no=404,missing=403
								403:leaf=-0.106940381
								404:leaf=-0.0632124394
							222:[udu23<28363] yes=405,no=406,missing=405
								405:leaf=0.142857149
								406:leaf=-0.100000001
						120:[ucnt26<5] yes=223,no=224,missing=223
							223:[tdays<1102] yes=407,no=408,missing=407
								407:leaf=-0.0823529437
								408:leaf=0.0545454584
							224:[ucnt26<411] yes=409,no=410,missing=409
								409:leaf=-0.129911512
								410:leaf=-0.0500000007
				30:[realage<50.5] yes=61,no=62,missing=61
					61:[ucnt27<235] yes=121,no=122,missing=121
						121:[udu21<1238] yes=225,no=226,missing=225
							225:[udu26<11423] yes=411,no=412,missing=411
								411:leaf=-0.0215827338
								412:leaf=-0.120000005
							226:[ucnt27<49] yes=413,no=414,missing=413
								413:leaf=-0.107395492
								414:leaf=-0.0698162764
						122:[ucnt24<238] yes=227,no=228,missing=227
							227:[ucnt26<160] yes=415,no=416,missing=415
								415:leaf=-0.0222222228
								416:leaf=0.146666676
							228:[udu28<41551] yes=417,no=418,missing=417
								417:leaf=-0.0787878856
								418:leaf=0.100000001
					62:[udu28<4602] yes=123,no=124,missing=123
						123:[realage<52.5] yes=229,no=230,missing=229
							229:[udu26<2097] yes=419,no=420,missing=419
								419:leaf=-0.0947368443
								420:leaf=0.0666666701
							230:[tdays<1664] yes=421,no=422,missing=421
								421:leaf=0.0230769236
								422:leaf=0.150000006
						124:[realage<56.5] yes=231,no=232,missing=231
							231:[realage<52.5] yes=423,no=424,missing=423
								423:leaf=-0.0344827585
								424:leaf=0.0697674379
							232:[realage<66.5] yes=425,no=426,missing=425
								425:leaf=-0.0751219541
								426:leaf=0.0666666701
booster[1]:
0:[ucnt21<18] yes=1,no=2,missing=1
	1:[uage<7.5] yes=3,no=4,missing=3
		3:[udu22<141] yes=7,no=8,missing=7
			7:[uage<2.5] yes=15,no=16,missing=15
				15:[ucnt29<168] yes=31,no=32,missing=31
					31:[udu22<1] yes=63,no=64,missing=63
						63:[uage<1.5] yes=125,no=126,missing=125
							125:[CASE WHEN a.26 = 'True' THEN 1 ELSE 0 END<1] yes=231,no=232,missing=231
								231:leaf=-0.0414469875
								232:leaf=0.117503636
							126:[ucnt25<75] yes=233,no=234,missing=233
								233:leaf=0.0849733502
								234:leaf=-0.00507525075
						64:[ucnt26<32] yes=127,no=128,missing=127
							127:[ucnt21<11] yes=235,no=236,missing=235
								235:leaf=0.164096102
								236:leaf=-0.0249397755
							128:leaf=0.0140572684
					32:[ucnt25<131] yes=65,no=66,missing=65
						65:leaf=-0.105473004
						66:[udu28<36185] yes=129,no=130,missing=129
							129:leaf=0.0675926208
							130:leaf=-0.0395043232
				16:[ucnt23<3] yes=33,no=34,missing=33
					33:[CASE WHEN a.27 = 'True' THEN 1 ELSE 0 END<1] yes=67,no=68,missing=67
						67:[CASE WHEN a.21 = 'True' THEN 1 ELSE 0 END<1] yes=131,no=132,missing=131
							131:[usex<1.5] yes=237,no=238,missing=237
								237:leaf=0.0293233376
								238:leaf=-0.00425179396
							132:[udu26<678] yes=239,no=240,missing=239
								239:leaf=0.0913194641
								240:leaf=-0.0130677884
						68:[CASE WHEN a.29 = 'True' THEN 1 ELSE 0 END<1] yes=133,no=134,missing=133
							133:[CASE WHEN a.26 = 'True' THEN 1 ELSE 0 END<1] yes=241,no=242,missing=241
								241:leaf=0.0462274402
								242:leaf=0.114505865
							134:[uage<5.5] yes=243,no=244,missing=243
								243:leaf=0.0349893048
								244:leaf=0.0807260498
					34:[CASE WHEN a.27 = 'True' THEN 1 ELSE 0 END<1] yes=69,no=70,missing=69
						69:[udu29<4230] yes=135,no=136,missing=135
							135:[CASE WHEN a.23 = 'True' THEN 1 ELSE 0 END<1] yes=245,no=246,missing=245
								245:leaf=0.00291873468
								246:leaf=0.11136093
							136:[uage<4.5] yes=247,no=248,missing=247
								247:leaf=0.0640416294
								248:leaf=-0.078419134
						70:[ucnt26<2] yes=137,no=138,missing=137
							137:[udu23<3209] yes=249,no=250,missing=249
								249:leaf=0.0226291697
								250:leaf=0.0794113204
							138:[udu24<915] yes=251,no=252,missing=251
								251:leaf=-0.0442207009
								252:leaf=0.0101325838
			8:[uage<3.5] yes=17,no=18,missing=17
				17:[ucnt29<48] yes=35,no=36,missing=35
					35:[ucnt24<10] yes=71,no=72,missing=71
						71:[udu23<1666] yes=139,no=140,missing=139
							139:[udu23<682] yes=253,no=254,missing=253
								253:leaf=0.0767209381
								254:leaf=-0.0304543357
							140:[ucnt23<32] yes=255,no=256,missing=255
								255:leaf=0.146251246
								256:leaf=0.0309092831
						72:[ucnt26<45] yes=141,no=142,missing=141
							141:[ucnt24<11] yes=257,no=258,missing=257
								257:leaf=-0.0560530201
								258:leaf=0.0665972158
							142:[udu27<23343] yes=259,no=260,missing=259
								259:leaf=-0.0639177039
								260:leaf=0.0676897168
					36:[udu28<46337] yes=73,no=74,missing=73
						73:[ucnt26<458] yes=143,no=144,missing=143
							143:[udu24<28372] yes=261,no=262,missing=261
								261:leaf=-0.029217774
								262:leaf=0.0535797067
							144:leaf=0.132328734
						74:[ucnt21<5] yes=145,no=146,missing=145
							145:leaf=-0.154469833
							146:leaf=0.0230313055
				18:[ucnt27<5] yes=37,no=38,missing=37
					37:[udu22<1582] yes=75,no=76,missing=75
						75:[udu23<2651] yes=147,no=148,missing=147
							147:[ucnt28<7] yes=263,no=264,missing=263
								263:leaf=-0.0041015381
								264:leaf=-0.0647785515
							148:[udu22<1198] yes=265,no=266,missing=265
								265:leaf=0.0935119614
								266:leaf=-0.0278188828
						76:[udu23<8168] yes=149,no=150,missing=149
							149:[ucnt25<67] yes=267,no=268,missing=267
								267:leaf=0.0537547171
								268:leaf=-0.0810919628
							150:[udu24<38247] yes=269,no=270,missing=269
								269:leaf=-0.0270226393
								270:leaf=0.0668031201
					38:[ucnt29<3] yes=77,no=78,missing=77
						77:[udu27<3042] yes=151,no=152,missing=151
							151:[udu24<724] yes=271,no=272,missing=271
								271:leaf=0.0208685622
								272:leaf=-0.0770340785
							152:[ucnt24<2] yes=273,no=274,missing=273
								273:leaf=-0.0276287626
								274:leaf=0.0520179681
						78:[ucnt25<6] yes=153,no=154,missing=153
							153:[ucnt28<47] yes=275,no=276,missing=275
								275:leaf=-0.0142500969
								276:leaf=0.0812657028
							154:[udu26<16851] yes=277,no=278,missing=277
								277:leaf=-0.0514918379
								278:leaf=-0.0137589527
		4:[udu22<66] yes=9,no=10,missing=9
			9:[ucnt27<31] yes=19,no=20,missing=19
				19:[udu28<2328] yes=39,no=40,missing=39
					39:[CASE WHEN a.29 = 'True' THEN 1 ELSE 0 END<1] yes=79,no=80,missing=79
						79:[udu24<69] yes=155,no=156,missing=155
							155:[ucnt21<5] yes=279,no=280,missing=279
								279:leaf=-0.053747993
								280:leaf=0.0772872865
							156:[udu24<1598] yes=281,no=282,missing=281
								281:leaf=0.114560716
								282:leaf=-0.0404995903
						80:[udu29<12] yes=157,no=158,missing=157
							157:[udu24<4808] yes=283,no=284,missing=283
								283:leaf=0.0395942591
								284:leaf=-0.0949024335
							158:[ucnt29<12] yes=285,no=286,missing=285
								285:leaf=-0.0553454272
								286:leaf=0.0132036107
					40:[ucnt28<81] yes=81,no=82,missing=81
						81:[udu27<3247] yes=159,no=160,missing=159
							159:[ucnt27<2] yes=287,no=288,missing=287
								287:leaf=0.0522639714
								288:leaf=0.166072235
							160:[udu29<813] yes=289,no=290,missing=289
								289:leaf=-0.110530667
								290:leaf=0.0768041983
						82:leaf=-0.052711647
				20:[udu22<25] yes=41,no=42,missing=41
					41:[udu24<28627] yes=83,no=84,missing=83
						83:[udu28<16658] yes=161,no=162,missing=161
							161:[udu26<14833] yes=291,no=292,missing=291
								291:leaf=-0.146588981
								292:leaf=-0.0151757719
							162:leaf=0.00111014501
						84:leaf=0.0258114226
					42:leaf=0.0398008674
			10:[ucnt29<11] yes=21,no=22,missing=21
				21:[udu22<6783] yes=43,no=44,missing=43
					43:[udu24<6170] yes=85,no=86,missing=85
						85:[udu24<8] yes=163,no=164,missing=163
							163:[udu28<7849] yes=293,no=294,missing=293
								293:leaf=0.00121828413
								294:leaf=0.126986861
							164:[ucnt24<34] yes=295,no=296,missing=295
								295:leaf=-0.0819430575
								296:leaf=-0.000980162178
						86:[udu23<7968] yes=165,no=166,missing=165
							165:[udu23<76] yes=297,no=298,missing=297
								297:leaf=-0.0189826321
								298:leaf=0.120345406
							166:[udu25<4042] yes=299,no=300,missing=299
								299:leaf=0.0591460653
								300:leaf=-0.063940458
					44:[udu24<36374] yes=87,no=88,missing=87
						87:[usex<1.5] yes=167,no=168,missing=167
							167:leaf=-0.152886853
							168:[ucnt26<3] yes=301,no=302,missing=301
								301:leaf=0.0556800477
								302:leaf=-0.100089133
						88:[ucnt26<6] yes=169,no=170,missing=169
							169:leaf=-0.0657407269
							170:leaf=0.0805072933
				22:[udu27<47000] yes=45,no=46,missing=45
					45:[udu24<10693] yes=89,no=90,missing=89
						89:[udu24<10463] yes=171,no=172,missing=171
							171:[ucnt29<93] yes=303,no=304,missing=303
								303:leaf=-0.105288975
								304:leaf=-0.0317095034
							172:leaf=0.0702226087
						90:[ucnt27<194] yes=173,no=174,missing=173
							173:leaf=-0.157599896
							174:leaf=-0.0689046159
					46:[udu28<48287] yes=91,no=92,missing=91
						91:leaf=0.128408417
						92:leaf=-0.0590824485
	2:[uage<7.5] yes=5,no=6,missing=5
		5:[ucnt27<162] yes=11,no=12,missing=11
			11:[ucnt28<15] yes=23,no=24,missing=23
				23:[ucnt21<111] yes=47,no=48,missing=47
					47:[ucnt25<3] yes=93,no=94,missing=93
						93:[ucnt23<10] yes=175,no=176,missing=175
							175:[uage<5.5] yes=305,no=306,missing=305
								305:leaf=0.0681643337
								306:leaf=0.13139686
							176:[udu23<326] yes=307,no=308,missing=307
								307:leaf=-0.107503533
								308:leaf=0.0361962654
						94:[uage<2.5] yes=177,no=178,missing=177
							177:[udu25<1885] yes=309,no=310,missing=309
								309:leaf=-0.00759796379
								310:leaf=0.0706524774
							178:[ucnt26<4] yes=311,no=312,missing=311
								311:leaf=0.0290262606
								312:leaf=-0.0325953774
					48:[ucnt23<276] yes=95,no=96,missing=95
						95:[ucnt29<26] yes=179,no=180,missing=179
							179:[ucnt21<251] yes=313,no=314,missing=313
								313:leaf=0.0110709844
								314:leaf=-0.0496509336
							180:[ucnt26<26] yes=315,no=316,missing=315
								315:leaf=-0.00565519929
								316:leaf=-0.102094844
						96:[ucnt27<1] yes=181,no=182,missing=181
							181:[udu22<6746] yes=317,no=318,missing=317
								317:leaf=0.0199447796
								318:leaf=-0.11003083
							182:[ucnt29<5] yes=319,no=320,missing=319
								319:leaf=0.078662686
								320:leaf=-0.048323866
				24:[uage<2.5] yes=49,no=50,missing=49
					49:[udu28<30647] yes=97,no=98,missing=97
						97:[ucnt24<47] yes=183,no=184,missing=183
							183:[udu22<29952] yes=321,no=322,missing=321
								321:leaf=0.0423531346
								322:leaf=-0.0889860839
							184:[udu22<32091] yes=323,no=324,missing=323
								323:leaf=-0.023189785
								324:leaf=0.042387329
						98:[ucnt29<169] yes=185,no=186,missing=185
							185:[udu29<67744] yes=325,no=326,missing=325
								325:leaf=-0.0429866277
								326:leaf=0.128380582
							186:[ucnt25<76] yes=327,no=328,missing=327
								327:leaf=0.0171787124
								328:leaf=-0.122857831
					50:[ucnt25<11] yes=99,no=100,missing=99
						99:[ucnt26<5] yes=187,no=188,missing=187
							187:[udu27<1771] yes=329,no=330,missing=329
								329:leaf=-0.0103816297
								330:leaf=0.0785721987
							188:[ucnt21<19] yes=331,no=332,missing=331
								331:leaf=0.0901039764
								332:leaf=-0.030115908
						100:[ucnt24<7] yes=189,no=190,missing=189
							189:[udu23<27091] yes=333,no=334,missing=333
								333:leaf=0.00459074974
								334:leaf=-0.0879607722
							190:[ucnt27<52] yes=335,no=336,missing=335
								335:leaf=-0.0636830702
								336:leaf=-0.0830181241
			12:[udu22<13740] yes=25,no=26,missing=25
				25:[uage<5.5] yes=51,no=52,missing=51
					51:[ucnt26<385] yes=101,no=102,missing=101
						101:[udu29<43987] yes=191,no=192,missing=191
							191:[udu28<168] yes=337,no=338,missing=337
								337:leaf=0.0272659659
								338:leaf=-0.0616196357
							192:[udu22<6280] yes=339,no=340,missing=339
								339:leaf=0.0851332173
								340:leaf=-0.0354539044
						102:[udu29<54402] yes=193,no=194,missing=193
							193:[ucnt27<935] yes=341,no=342,missing=341
								341:leaf=-0.10091465
								342:leaf=-0.00388496229
							194:[ucnt26<672] yes=343,no=344,missing=343
								343:leaf=-0.0207194984
								344:leaf=0.0731243789
					52:[udu26<23815] yes=103,no=104,missing=103
						103:[ucnt23<473] yes=195,no=196,missing=195
							195:[ucnt28<19] yes=345,no=346,missing=345
								345:leaf=-0.0275025722
								346:leaf=-0.122456215
							196:[udu23<22850] yes=347,no=348,missing=347
								347:leaf=0.0758963302
								348:leaf=-0.104778722
						104:[udu29<6978] yes=197,no=198,missing=197
							197:[ucnt21<107] yes=349,no=350,missing=349
								349:leaf=-0.0176923219
								350:leaf=0.144975707
							198:[usex<1.5] yes=351,no=352,missing=351
								351:leaf=-0.113624237
								352:leaf=-0.0487153605
				26:[ucnt23<136] yes=53,no=54,missing=53
					53:[udu28<3574] yes=105,no=106,missing=105
						105:[udu26<40920] yes=199,no=200,missing=199
							199:[udu23<18556] yes=353,no=354,missing=353
								353:leaf=-0.0709261522
								354:leaf=0.0477968864
							200:leaf=0.112527922
						106:[usex<1.5] yes=201,no=202,missing=201
							201:[ucnt28<150] yes=355,no=356,missing=355
								355:leaf=-0.045377478
								356:leaf=-0.0913629234
							202:[ucnt29<18] yes=357,no=358,missing=357
								357:leaf=0.080317311
								358:leaf=-0.119988859
					54:[udu22<82716] yes=107,no=108,missing=107
						107:[uage<0.5] yes=203,no=204,missing=203
							203:[udu25<17299] yes=359,no=360,missing=359
								359:leaf=-0.0896067843
								360:leaf=0.0560148656
							204:[udu28<22503] yes=361,no=362,missing=361
								361:leaf=-0.102374576
								362:leaf=-0.117054872
						108:[ucnt28<407] yes=205,no=206,missing=205
							205:[udu25<56630] yes=363,no=364,missing=363
								363:leaf=-0.0369542949
								364:leaf=0.104726426
							206:[udu22<85371] yes=365,no=366,missing=365
								365:leaf=0.0620765649
								366:leaf=-0.117499247
		6:[usex<1.5] yes=13,no=14,missing=13
			13:[udu24<2209] yes=27,no=28,missing=27
				27:[ucnt26<76] yes=55,no=56,missing=55
					55:[ucnt25<128] yes=109,no=110,missing=109
						109:[ucnt28<17] yes=207,no=208,missing=207
							207:[udu29<2554] yes=367,no=368,missing=367
								367:leaf=-0.0900760517
								368:leaf=-0.0067377775
							208:[udu29<40] yes=369,no=370,missing=369
								369:leaf=0.00567257311
								370:leaf=-0.11932607
						110:[ucnt23<36] yes=209,no=210,missing=209
							209:leaf=0.0958154872
							210:leaf=-0.0694954097
					56:[udu23<1262] yes=111,no=112,missing=111
						111:[udu22<7554] yes=211,no=212,missing=211
							211:[ucnt26<99] yes=371,no=372,missing=371
								371:leaf=0.0410285108
								372:leaf=0.14687483
							212:leaf=-0.0587293394
						112:[ucnt21<255] yes=213,no=214,missing=213
							213:[udu25<11393] yes=373,no=374,missing=373
								373:leaf=-0.0517034829
								374:leaf=-0.135741591
							214:leaf=0.0454543196
				28:[udu24<65967] yes=57,no=58,missing=57
					57:[ucnt29<45] yes=113,no=114,missing=113
						113:[udu23<57298] yes=215,no=216,missing=215
							215:[udu26<474] yes=375,no=376,missing=375
								375:leaf=-0.0469890796
								376:leaf=-0.113322295
							216:leaf=0.0735333338
						114:[udu27<1855] yes=217,no=218,missing=217
							217:[udu22<2726] yes=377,no=378,missing=377
								377:leaf=-0.0110479696
								378:leaf=-0.109618716
							218:[ucnt24<110] yes=379,no=380,missing=379
								379:leaf=-0.134143427
								380:leaf=-0.121899262
					58:[ucnt21<245] yes=115,no=116,missing=115
						115:[udu25<51336] yes=219,no=220,missing=219
							219:leaf=0.114409231
							220:leaf=0.0216170568
						116:leaf=-0.113011502
			14:[udu23<2124] yes=29,no=30,missing=29
				29:[udu23<1983] yes=59,no=60,missing=59
					59:[udu26<922] yes=117,no=118,missing=117
						117:[udu29<5545] yes=221,no=222,missing=221
							221:[udu26<718] yes=381,no=382,missing=381
								381:leaf=-0.117305472
								382:leaf=0.027682459
							222:[udu28<2110] yes=383,no=384,missing=383
								383:leaf=-0.0343597792
								384:leaf=0.12142735
						118:[ucnt25<206] yes=223,no=224,missing=223
							223:[udu25<14951] yes=385,no=386,missing=385
								385:leaf=-0.140035257
								386:leaf=-0.0574662276
							224:[udu26<22132] yes=387,no=388,missing=387
								387:leaf=0.0728835464
								388:leaf=-0.111237802
					60:[udu27<4368] yes=119,no=120,missing=119
						119:leaf=0.115577042
						120:leaf=-0.103300169
				30:[udu22<1699] yes=61,no=62,missing=61
					61:[ucnt29<90] yes=121,no=122,missing=121
						121:[ucnt28<18] yes=225,no=226,missing=225
							225:[ucnt29<30] yes=389,no=390,missing=389
								389:leaf=0.0720681846
								390:leaf=-0.102922179
							226:[udu22<1490] yes=391,no=392,missing=391
								391:leaf=-0.154647291
								392:leaf=-0.0150120333
						122:[ucnt27<152] yes=227,no=228,missing=227
							227:[ucnt28<87] yes=393,no=394,missing=393
								393:leaf=-0.0577291809
								394:leaf=0.128543839
							228:leaf=-0.103291035
					62:[ucnt27<1085] yes=123,no=124,missing=123
						123:[ucnt21<132] yes=229,no=230,missing=229
							229:[udu28<12265] yes=395,no=396,missing=395
								395:leaf=-0.144729778
								396:leaf=-0.159928039
							230:[ucnt27<43] yes=397,no=398,missing=397
								397:leaf=-0.0647201166
								398:leaf=-0.142051384
						124:leaf=-0.0154059594
booster[2]:
0:[tdays<749.5] yes=1,no=2,missing=1
	1:[ucnt21<15] yes=3,no=4,missing=3
		3:[tdays<22.5] yes=7,no=8,missing=7
			7:[usex<0.5] yes=15,no=16,missing=15
				15:[tdays<8.5] yes=31,no=32,missing=31
					31:leaf=0.153252766
					32:leaf=0.0183742698
				16:[usex<1.5] yes=33,no=34,missing=33
					33:leaf=-0.119573869
					34:leaf=-0.159501344
			8:[ucnt22<5] yes=17,no=18,missing=17
				17:[udu27<86] yes=35,no=36,missing=35
					35:[udu23<86] yes=63,no=64,missing=63
						63:[tdays<66.5] yes=117,no=118,missing=117
							117:[ucnt24<1] yes=207,no=208,missing=207
								207:leaf=-0.0697195157
								208:leaf=0.0406825207
							118:[ucnt29<239] yes=209,no=210,missing=209
								209:leaf=0.0474060737
								210:leaf=-0.0828619599
						64:[tdays<92] yes=119,no=120,missing=119
							119:leaf=0.0929303393
							120:[ucnt22<1] yes=211,no=212,missing=211
								211:leaf=-0.0484111533
								212:leaf=0.0211576391
					36:[tdays<542] yes=65,no=66,missing=65
						65:[ucnt23<6] yes=121,no=122,missing=121
							121:[udu29<4845] yes=213,no=214,missing=213
								213:leaf=-0.052211374
								214:leaf=0.0191405397
							122:[ucnt25<31] yes=215,no=216,missing=215
								215:leaf=-0.0979462117
								216:leaf=-0.0227549598
						66:[ucnt24<4] yes=123,no=124,missing=123
							123:[CASE WHEN a.30 = 'True' THEN 1 ELSE 0 END<1] yes=217,no=218,missing=217
								217:leaf=0.122709952
								218:leaf=0.0191339236
							124:[ucnt23<22] yes=219,no=220,missing=219
								219:leaf=-0.0477084182
								220:leaf=0.0455057696
				18:[udu24<263] yes=37,no=38,missing=37
					37:[tdays<581.5] yes=67,no=68,missing=67
						67:[ucnt28<7] yes=125,no=126,missing=125
							125:[udu24<6] yes=221,no=222,missing=221
								221:leaf=-0.054571826
								222:leaf=0.0573385172
							126:[ucnt22<9] yes=223,no=224,missing=223
								223:leaf=0.0051768776
								224:leaf=-0.10098958
						68:[udu29<537] yes=127,no=128,missing=127
							127:[udu27<746] yes=225,no=226,missing=225
								225:leaf=0.0944207832
								226:leaf=-0.0473020412
							128:[ucnt28<18] yes=227,no=228,missing=227
								227:leaf=-0.113342956
								228:leaf=0.0122937933
					38:[udu24<62477] yes=69,no=70,missing=69
						69:[tdays<479.5] yes=129,no=130,missing=129
							129:[usex<0.5] yes=229,no=230,missing=229
								229:leaf=0.0594116412
								230:leaf=-0.115152515
							130:[udu29<62] yes=231,no=232,missing=231
								231:leaf=-0.00980971288
								232:leaf=-0.0833706334
						70:[udu24<79790] yes=131,no=132,missing=131
							131:leaf=0.118878022
							132:leaf=-0.0633226559
		4:[tdays<442.5] yes=9,no=10,missing=9
			9:[usex<0.5] yes=19,no=20,missing=19
				19:[udu23<43958] yes=39,no=40,missing=39
					39:[udu29<13059] yes=71,no=72,missing=71
						71:leaf=-0.0216929261
						72:[tdays<392.5] yes=133,no=134,missing=133
							133:leaf=0.15347214
							134:leaf=0.0157907866
					40:leaf=-0.0693142265
				20:[usex<1.5] yes=41,no=42,missing=41
					41:[udu27<372] yes=73,no=74,missing=73
						73:[tdays<165.5] yes=135,no=136,missing=135
							135:[udu27<230] yes=233,no=234,missing=233
								233:leaf=-0.127518579
								234:leaf=0.0482418761
							136:[CASE WHEN a.29 = 'True' THEN 1 ELSE 0 END<1] yes=235,no=236,missing=235
								235:leaf=0.0589263551
								236:leaf=-0.0670983046
						74:[tdays<150.5] yes=137,no=138,missing=137
							137:[udu25<692] yes=237,no=238,missing=237
								237:leaf=-0.0856246278
								238:leaf=-0.145287469
							138:[udu21<83136] yes=239,no=240,missing=239
								239:leaf=-0.127753451
								240:leaf=0.00250468985
					42:[tdays<215.5] yes=75,no=76,missing=75
						75:[udu29<73029] yes=139,no=140,missing=139
							139:[udu25<69114] yes=241,no=242,missing=241
								241:leaf=-0.160295054
								242:leaf=-0.0670681
							140:leaf=-0.0366927236
						76:[udu25<150] yes=141,no=142,missing=141
							141:[tdays<410.5] yes=243,no=244,missing=243
								243:leaf=-0.0906490088
								244:leaf=0.0909925923
							142:[CASE WHEN a.22 = 'True' THEN 1 ELSE 0 END<1] yes=245,no=246,missing=245
								245:leaf=-0.021302456
								246:leaf=-0.141334519
			10:[udu27<3] yes=21,no=22,missing=21
				21:[ucnt21<342] yes=43,no=44,missing=43
					43:[ucnt22<109] yes=77,no=78,missing=77
						77:[ucnt24<3] yes=143,no=144,missing=143
							143:[ucnt24<1] yes=247,no=248,missing=247
								247:leaf=-0.00207570731
								248:leaf=0.138545632
							144:[udu25<990] yes=249,no=250,missing=249
								249:leaf=-0.105701201
								250:leaf=-0.0366398841
						78:[ucnt25<112] yes=145,no=146,missing=145
							145:[ucnt22<298] yes=251,no=252,missing=251
								251:leaf=0.128379688
								252:leaf=-0.0209212713
							146:[ucnt23<190] yes=253,no=254,missing=253
								253:leaf=-0.0714339241
								254:leaf=0.0677785426
					44:[ucnt28<798] yes=79,no=80,missing=79
						79:leaf=-0.148253813
						80:leaf=-0.0125865666
				22:[usex<1.5] yes=45,no=46,missing=45
					45:[udu23<2888] yes=81,no=82,missing=81
						81:[tdays<601.5] yes=147,no=148,missing=147
							147:[udu23<27] yes=255,no=256,missing=255
								255:leaf=0.0164835695
								256:leaf=-0.106384233
							148:[ucnt25<140] yes=257,no=258,missing=257
								257:leaf=-0.0533485189
								258:leaf=0.0354891978
						82:[tdays<684.5] yes=149,no=150,missing=149
							149:[usex<0.5] yes=259,no=260,missing=259
								259:leaf=0.044940453
								260:leaf=-0.102467947
							150:[ucnt29<14] yes=261,no=262,missing=261
								261:leaf=0.000406548148
								262:leaf=-0.0833052769
					46:[tdays<663.5] yes=83,no=84,missing=83
						83:[ucnt25<371] yes=151,no=152,missing=151
							151:[ucnt22<6] yes=263,no=264,missing=263
								263:leaf=-0.043711707
								264:leaf=-0.128736362
							152:[udu27<29412] yes=265,no=266,missing=265
								265:leaf=-0.0629086122
								266:leaf=-0.118630402
						84:[ucnt22<371] yes=153,no=154,missing=153
							153:[CASE WHEN a.30 = 'True' THEN 1 ELSE 0 END<1] yes=267,no=268,missing=267
								267:leaf=0.0128707169
								268:leaf=-0.103866838
							154:[ucnt24<468] yes=269,no=270,missing=269
								269:leaf=0.00625798572
								270:leaf=-0.102100007
	2:[tdays<1051.5] yes=5,no=6,missing=5
		5:[ucnt26<5] yes=11,no=12,missing=11
			11:[CASE WHEN a.27 = 'True' THEN 1 ELSE 0 END<1] yes=23,no=24,missing=23
				23:[CASE WHEN a.29 = 'True' THEN 1 ELSE 0 END<1] yes=47,no=48,missing=47
					47:[ucnt22<269] yes=85,no=86,missing=85
						85:[ucnt26<1] yes=155,no=156,missing=155
							155:[udu23<15908] yes=271,no=272,missing=271
								271:leaf=0.101508394
								272:leaf=0.00143340742
							156:leaf=-0.0265071187
						86:leaf=-0.0267784577
					48:[udu24<7046] yes=87,no=88,missing=87
						87:[ucnt23<6] yes=157,no=158,missing=157
							157:[tdays<868] yes=273,no=274,missing=273
								273:leaf=0.0826103762
								274:leaf=0.011448334
							158:[udu23<7705] yes=275,no=276,missing=275
								275:leaf=-0.0823334381
								276:leaf=0.0657505319
						88:leaf=0.149948463
				24:[ucnt22<1] yes=49,no=50,missing=49
					49:[tdays<873.5] yes=89,no=90,missing=89
						89:[ucnt28<17] yes=159,no=160,missing=159
							159:[udu24<4064] yes=277,no=278,missing=277
								277:leaf=0.0947419703
								278:leaf=-0.0421769097
							160:[udu29<17988] yes=279,no=280,missing=279
								279:leaf=-0.0341205373
								280:leaf=0.0972515121
						90:[tdays<964.5] yes=161,no=162,missing=161
							161:[ucnt25<79] yes=281,no=282,missing=281
								281:leaf=-0.00885144155
								282:leaf=0.112301052
							162:[CASE WHEN a.25 = 'True' THEN 1 ELSE 0 END<1] yes=283,no=284,missing=283
								283:leaf=0.120480299
								284:leaf=0.0402512252
					50:[tdays<972.5] yes=91,no=92,missing=91
						91:[CASE WHEN a.25 = 'True' THEN 1 ELSE 0 END<1] yes=163,no=164,missing=163
							163:[ucnt28<13] yes=285,no=286,missing=285
								285:leaf=0.123335861
								286:leaf=0.00575179281
							164:[ucnt23<121] yes=287,no=288,missing=287
								287:leaf=-0.00621372089
								288:leaf=0.0732898563
						92:[ucnt29<70] yes=165,no=166,missing=165
							165:[tdays<998.5] yes=289,no=290,missing=289
								289:leaf=-0.0726493225
								290:leaf=0.00465974258
							166:[ucnt23<164] yes=291,no=292,missing=291
								291:leaf=-0.144737914
								292:leaf=0.026041165
			12:[udu29<498] yes=25,no=26,missing=25
				25:[ucnt23<2] yes=51,no=52,missing=51
					51:[ucnt25<2] yes=93,no=94,missing=93
						93:[CASE WHEN a.28 = 'True' THEN 1 ELSE 0 END<1] yes=167,no=168,missing=167
							167:[ucnt26<28] yes=293,no=294,missing=293
								293:leaf=-0.122376621
								294:leaf=-0.0250622462
							168:[udu29<11] yes=295,no=296,missing=295
								295:leaf=0.0555688329
								296:leaf=-0.0482644923
						94:[udu24<19881] yes=169,no=170,missing=169
							169:[udu21<1248] yes=297,no=298,missing=297
								297:leaf=0.10984309
								298:leaf=0.0158861056
							170:leaf=-0.0795089081
					52:[ucnt22<101] yes=95,no=96,missing=95
						95:[ucnt21<112] yes=171,no=172,missing=171
							171:[udu27<1] yes=299,no=300,missing=299
								299:leaf=0.0394075513
								300:leaf=-0.0227981936
							172:[udu21<23651] yes=301,no=302,missing=301
								301:leaf=-0.145625114
								302:leaf=-0.0111171072
						96:[ucnt22<207] yes=173,no=174,missing=173
							173:[ucnt26<210] yes=303,no=304,missing=303
								303:leaf=0.106823087
								304:leaf=0.0107124187
							174:[usex<1.5] yes=305,no=306,missing=305
								305:leaf=-0.086566098
								306:leaf=0.0385361686
				26:[udu21<5834] yes=53,no=54,missing=53
					53:[udu23<134] yes=97,no=98,missing=97
						97:[ucnt22<23] yes=175,no=176,missing=175
							175:[udu27<79] yes=307,no=308,missing=307
								307:leaf=-0.0491219163
								308:leaf=0.0598726869
							176:[udu21<1867] yes=309,no=310,missing=309
								309:leaf=-0.0957873762
								310:leaf=0.00916461833
						98:[ucnt23<62] yes=177,no=178,missing=177
							177:[udu21<180] yes=311,no=312,missing=311
								311:leaf=-0.00938960537
								312:leaf=-0.0634311959
							178:[udu23<5432] yes=313,no=314,missing=313
								313:leaf=0.011284071
								314:leaf=-0.038164448
					54:[tdays<978.5] yes=99,no=100,missing=99
						99:[usex<0.5] yes=179,no=180,missing=179
							179:[udu21<12222] yes=315,no=316,missing=315
								315:leaf=0.0287293978
								316:leaf=0.150566384
							180:[udu27<2907] yes=317,no=318,missing=317
								317:leaf=-0.0304111727
								318:leaf=-0.0733135268
						100:[ucnt28<41] yes=181,no=182,missing=181
							181:[udu23<6769] yes=319,no=320,missing=319
								319:leaf=-0.0428847186
								320:leaf=0.0237249844
							182:[CASE WHEN a.26 = 'True' THEN 1 ELSE 0 END<1] yes=321,no=322,missing=321
								321:leaf=0.0965812355
								322:leaf=-0.0478908494
		6:[CASE WHEN a.27 = 'True' THEN 1 ELSE 0 END<1] yes=13,no=14,missing=13
			13:[CASE WHEN a.28 = 'True' THEN 1 ELSE 0 END<1] yes=27,no=28,missing=27
				27:[tdays<1059.5] yes=55,no=56,missing=55
					55:[CASE WHEN a.30 = 'True' THEN 1 ELSE 0 END<1] yes=101,no=102,missing=101
						101:leaf=-0.11846596
						102:leaf=0.0187913124
					56:[CASE WHEN a.30 = 'True' THEN 1 ELSE 0 END<1] yes=103,no=104,missing=103
						103:[CASE WHEN a.29 = 'True' THEN 1 ELSE 0 END<1] yes=183,no=184,missing=183
							183:[ucnt21<4] yes=323,no=324,missing=323
								323:leaf=0.139906317
								324:leaf=0.106912129
							184:[tdays<1297] yes=325,no=326,missing=325
								325:leaf=0.00226477254
								326:leaf=0.106641412
						104:[tdays<1102.5] yes=185,no=186,missing=185
							185:[CASE WHEN a.21 = 'True' THEN 1 ELSE 0 END<1] yes=327,no=328,missing=327
								327:leaf=0.0573993139
								328:leaf=-0.0774638429
							186:[tdays<1554] yes=329,no=330,missing=329
								329:leaf=0.0775963217
								330:leaf=0.123965919
				28:[ucnt22<85] yes=57,no=58,missing=57
					57:[udu27<8328] yes=105,no=106,missing=105
						105:[udu25<3421] yes=187,no=188,missing=187
							187:[ucnt26<1] yes=331,no=332,missing=331
								331:leaf=0.0610906295
								332:leaf=-0.0112437429
							188:[udu23<11479] yes=333,no=334,missing=333
								333:leaf=0.143443927
								334:leaf=0.00286156032
						106:[udu27<26516] yes=189,no=190,missing=189
							189:[udu29<12843] yes=335,no=336,missing=335
								335:leaf=0.0146577405
								336:leaf=-0.107914269
							190:leaf=0.0725588575
					58:[udu23<7812] yes=107,no=108,missing=107
						107:leaf=-0.0181438122
						108:leaf=0.145029306
			14:[tdays<1424.5] yes=29,no=30,missing=29
				29:[udu23<92] yes=59,no=60,missing=59
					59:[CASE WHEN a.29 = 'True' THEN 1 ELSE 0 END<1] yes=109,no=110,missing=109
						109:[udu27<214] yes=191,no=192,missing=191
							191:[ucnt24<3] yes=337,no=338,missing=337
								337:leaf=0.0965168849
								338:leaf=-0.0184005424
							192:leaf=0.138829619
						110:[ucnt22<25] yes=193,no=194,missing=193
							193:[udu21<5247] yes=339,no=340,missing=339
								339:leaf=0.0539015532
								340:leaf=-0.0137097305
							194:[ucnt26<65] yes=341,no=342,missing=341
								341:leaf=-0.0504479818
								342:leaf=0.0586424582
					60:[ucnt26<5] yes=111,no=112,missing=111
						111:[udu23<160] yes=195,no=196,missing=195
							195:[udu23<106] yes=343,no=344,missing=343
								343:leaf=-0.000786913966
								344:leaf=-0.127661183
							196:[tdays<1218.5] yes=345,no=346,missing=345
								345:leaf=0.00246088253
								346:leaf=0.0639915764
						112:[tdays<1216.5] yes=197,no=198,missing=197
							197:[udu29<47] yes=347,no=348,missing=347
								347:leaf=0.0426460877
								348:leaf=-0.019192528
							198:[ucnt25<597] yes=349,no=350,missing=349
								349:leaf=-0.00236561312
								350:leaf=0.0959136933
				30:[ucnt21<5] yes=61,no=62,missing=61
					61:[ucnt28<54] yes=113,no=114,missing=113
						113:[udu25<2474] yes=199,no=200,missing=199
							199:[tdays<1880.5] yes=351,no=352,missing=351
								351:leaf=0.0643843487
								352:leaf=0.107127979
							200:[udu25<5123] yes=353,no=354,missing=353
								353:leaf=-0.055624038
								354:leaf=0.0646947846
						114:[CASE WHEN a.25 = 'True' THEN 1 ELSE 0 END<1] yes=201,no=202,missing=201
							201:leaf=-0.0448694043
							202:[udu27<2239] yes=355,no=356,missing=355
								355:leaf=0.0246052723
								356:leaf=0.154855862
					62:[tdays<1629.5] yes=115,no=116,missing=115
						115:[ucnt24<452] yes=203,no=204,missing=203
							203:[ucnt24<311] yes=357,no=358,missing=357
								357:leaf=0.0192037895
								358:leaf=0.12223281
							204:[udu23<20087] yes=359,no=360,missing=359
								359:leaf=0.0709020048
								360:leaf=-0.119306222
						116:[ucnt22<61] yes=205,no=206,missing=205
							205:[ucnt22<29] yes=361,no=362,missing=361
								361:leaf=0.0513491295
								362:leaf=0.0125637008
							206:[udu29<6017] yes=363,no=364,missing=363
								363:leaf=0.116080187
								364:leaf=0.0654459298
booster[3]:
0:[tdays<955.5] yes=1,no=2,missing=1
	1:[tdays<575.5] yes=3,no=4,missing=3
		3:[ucnt21<6] yes=7,no=8,missing=7
			7:[tdays<21.5] yes=15,no=16,missing=15
				15:[realage<21.5] yes=31,no=32,missing=31
					31:[realage<18.5] yes=63,no=64,missing=63
						63:[usex<0.5] yes=125,no=126,missing=125
							125:leaf=0.0224940106
							126:[tdays<10.5] yes=239,no=240,missing=239
								239:leaf=-0.153712615
								240:leaf=-0.0688015893
						64:[realage<20.5] yes=127,no=128,missing=127
							127:[realage<19.5] yes=241,no=242,missing=241
								241:leaf=-0.0129649555
								242:leaf=0.091898784
							128:[tdays<10] yes=243,no=244,missing=243
								243:leaf=-0.0710114166
								244:leaf=-0.0156748481
					32:[realage<31.5] yes=65,no=66,missing=65
						65:[realage<30.5] yes=129,no=130,missing=129
							129:leaf=-0.135664806
							130:[usex<1.5] yes=245,no=246,missing=245
								245:leaf=0.0100651188
								246:leaf=-0.117961757
						66:leaf=-0.15636301
				16:[udu26<106] yes=33,no=34,missing=33
					33:[realage<43] yes=67,no=68,missing=67
						67:[udu24<52] yes=131,no=132,missing=131
							131:[tdays<83.5] yes=247,no=248,missing=247
								247:leaf=-0.0275756065
								248:leaf=0.0487669967
							132:[ucnt29<15] yes=249,no=250,missing=249
								249:leaf=-0.0486563891
								250:leaf=0.0372793376
						68:[ucnt28<38] yes=133,no=134,missing=133
							133:[tdays<34] yes=251,no=252,missing=251
								251:leaf=-0.12740469
								252:leaf=-0.0212913044
							134:leaf=-0.141381294
					34:[ucnt23<6] yes=69,no=70,missing=69
						69:[tdays<100] yes=135,no=136,missing=135
							135:[realage<24.5] yes=253,no=254,missing=253
								253:leaf=0.0207775384
								254:leaf=-0.137947679
							136:[udu21<171] yes=255,no=256,missing=255
								255:leaf=-0.0118271047
								256:leaf=-0.0803899318
						70:[realage<28.5] yes=137,no=138,missing=137
							137:[udu28<20870] yes=257,no=258,missing=257
								257:leaf=-0.0289936494
								258:leaf=-0.111297034
							138:[udu24<48371] yes=259,no=260,missing=259
								259:leaf=-0.116527297
								260:leaf=0.00660017133
			8:[realage<31.5] yes=17,no=18,missing=17
				17:[tdays<381.5] yes=35,no=36,missing=35
					35:[realage<7.5] yes=71,no=72,missing=71
						71:[tdays<202.5] yes=139,no=140,missing=139
							139:leaf=0.132637978
							140:[ucnt26<228] yes=261,no=262,missing=261
								261:leaf=-0.0895704255
								262:leaf=0.0364597887
						72:[udu26<4002] yes=141,no=142,missing=141
							141:[realage<21.5] yes=263,no=264,missing=263
								263:leaf=-0.0465169437
								264:leaf=-0.100467995
							142:[realage<30.5] yes=265,no=266,missing=265
								265:leaf=-0.122172952
								266:leaf=-0.082030721
					36:[realage<30.5] yes=73,no=74,missing=73
						73:[realage<21.5] yes=143,no=144,missing=143
							143:[ucnt23<144] yes=267,no=268,missing=267
								267:leaf=-0.0252604838
								268:leaf=-0.0902146026
							144:[ucnt24<4] yes=269,no=270,missing=269
								269:leaf=-0.0171488523
								270:leaf=-0.0992266089
						74:[udu26<9992] yes=145,no=146,missing=145
							145:[ucnt23<36] yes=271,no=272,missing=271
								271:leaf=-0.0539315343
								272:leaf=0.0940914378
							146:[udu26<56714] yes=273,no=274,missing=273
								273:leaf=-0.0669151694
								274:leaf=0.073639743
				18:[tdays<269.5] yes=37,no=38,missing=37
					37:[ucnt22<663] yes=75,no=76,missing=75
						75:[ucnt25<1096] yes=147,no=148,missing=147
							147:[ucnt22<27] yes=275,no=276,missing=275
								275:leaf=-0.126432776
								276:leaf=-0.147649005
							148:leaf=-0.0169690046
						76:[udu24<45716] yes=149,no=150,missing=149
							149:[ucnt23<672] yes=277,no=278,missing=277
								277:leaf=-0.0899176747
								278:leaf=-0.149102956
							150:[ucnt29<665] yes=279,no=280,missing=279
								279:leaf=0.118610971
								280:leaf=-0.106648676
					38:[realage<43.5] yes=77,no=78,missing=77
						77:[ucnt23<16] yes=151,no=152,missing=151
							151:[tdays<524.5] yes=281,no=282,missing=281
								281:leaf=-0.0508447997
								282:leaf=0.0951282009
							152:[udu28<11985] yes=283,no=284,missing=283
								283:leaf=-0.0997512639
								284:leaf=-0.125031814
						78:[udu24<70343] yes=153,no=154,missing=153
							153:[ucnt22<7] yes=285,no=286,missing=285
								285:leaf=-0.0728229955
								286:leaf=-0.138213992
							154:leaf=0.0316835046
		4:[ucnt24<9] yes=9,no=10,missing=9
			9:[CASE WHEN a.26 = 'True' THEN 1 ELSE 0 END<1] yes=19,no=20,missing=19
				19:[ucnt21<240] yes=39,no=40,missing=39
					39:[tdays<581] yes=79,no=80,missing=79
						79:leaf=-0.116764084
						80:[realage<38.5] yes=155,no=156,missing=155
							155:[ucnt25<28] yes=287,no=288,missing=287
								287:leaf=0.0903600901
								288:leaf=-0.033397194
							156:[ucnt21<21] yes=289,no=290,missing=289
								289:leaf=0.0313595533
								290:leaf=-0.0577276759
					40:leaf=-0.093555674
				20:[ucnt21<2] yes=41,no=42,missing=41
					41:[ucnt29<293] yes=81,no=82,missing=81
						81:[ucnt25<7] yes=157,no=158,missing=157
							157:[ucnt23<3] yes=291,no=292,missing=291
								291:leaf=0.0339280628
								292:leaf=-0.0146001279
							158:[ucnt25<37] yes=293,no=294,missing=293
								293:leaf=0.084605895
								294:leaf=0.00196239143
						82:[ucnt28<383] yes=159,no=160,missing=159
							159:leaf=-0.124000885
							160:leaf=-0.0228518266
					42:[realage<45.5] yes=83,no=84,missing=83
						83:[realage<32.5] yes=161,no=162,missing=161
							161:[ucnt23<28] yes=295,no=296,missing=295
								295:leaf=-0.00592190959
								296:leaf=-0.0573259965
							162:[tdays<839.5] yes=297,no=298,missing=297
								297:leaf=-0.00400550896
								298:leaf=0.097210072
						84:[ucnt22<59] yes=163,no=164,missing=163
							163:[ucnt22<3] yes=299,no=300,missing=299
								299:leaf=-0.0223470181
								300:leaf=-0.0991846845
							164:[ucnt21<91] yes=301,no=302,missing=301
								301:leaf=-0.0448872037
								302:leaf=0.0863697082
			10:[realage<31.5] yes=21,no=22,missing=21
				21:[tdays<682.5] yes=43,no=44,missing=43
					43:[udu28<35887] yes=85,no=86,missing=85
						85:[ucnt29<6] yes=165,no=166,missing=165
							165:[tdays<592.5] yes=303,no=304,missing=303
								303:leaf=-0.084257558
								304:leaf=0.0384179018
							166:[ucnt21<46] yes=305,no=306,missing=305
								305:leaf=-0.0818651915
								306:leaf=-0.0504184961
						86:[udu26<59487] yes=167,no=168,missing=167
							167:[ucnt26<778] yes=307,no=308,missing=307
								307:leaf=-0.0898657367
								308:leaf=-0.1500545
							168:[ucnt25<152] yes=309,no=310,missing=309
								309:leaf=0.0508426391
								310:leaf=-0.0464425907
					44:[realage<30.5] yes=87,no=88,missing=87
						87:[ucnt24<280] yes=169,no=170,missing=169
							169:[realage<21.5] yes=311,no=312,missing=311
								311:leaf=0.00995929446
								312:leaf=-0.0360905342
							170:[ucnt23<169] yes=313,no=314,missing=313
								313:leaf=0.0172790717
								314:leaf=-0.0657314286
						88:[ucnt28<169] yes=171,no=172,missing=171
							171:[tdays<940] yes=315,no=316,missing=315
								315:leaf=0.0458744206
								316:leaf=-0.102706969
							172:[udu21<19480] yes=317,no=318,missing=317
								317:leaf=-0.100116849
								318:leaf=-0.0144776655
				22:[ucnt28<13] yes=45,no=46,missing=45
					45:[realage<39.5] yes=89,no=90,missing=89
						89:[realage<32.5] yes=173,no=174,missing=173
							173:[ucnt25<109] yes=319,no=320,missing=319
								319:leaf=-0.1159079
								320:leaf=0.0101604462
							174:[ucnt24<192] yes=321,no=322,missing=321
								321:leaf=0.0607581101
								322:leaf=-0.0838589445
						90:[udu21<36008] yes=175,no=176,missing=175
							175:[udu21<5395] yes=323,no=324,missing=323
								323:leaf=-0.0289325751
								324:leaf=-0.0879975334
							176:leaf=0.0887728557
					46:[realage<47.5] yes=91,no=92,missing=91
						91:[udu26<5371] yes=177,no=178,missing=177
							177:[tdays<705.5] yes=325,no=326,missing=325
								325:leaf=-0.0782793239
								326:leaf=-0.00816281419
							178:[tdays<750.5] yes=327,no=328,missing=327
								327:leaf=-0.103848457
								328:leaf=-0.0782657862
						92:[usex<1.5] yes=179,no=180,missing=179
							179:[udu21<15365] yes=329,no=330,missing=329
								329:leaf=-0.092531547
								330:leaf=-0.113651432
							180:[CASE WHEN a.27 = 'True' THEN 1 ELSE 0 END<1] yes=331,no=332,missing=331
								331:leaf=0.0167510193
								332:leaf=-0.128402889
	2:[realage<47.5] yes=5,no=6,missing=5
		5:[tdays<1353.5] yes=11,no=12,missing=11
			11:[ucnt22<4] yes=23,no=24,missing=23
				23:[CASE WHEN a.25 = 'True' THEN 1 ELSE 0 END<1] yes=47,no=48,missing=47
					47:[CASE WHEN a.30 = 'True' THEN 1 ELSE 0 END<1] yes=93,no=94,missing=93
						93:[ucnt21<108] yes=181,no=182,missing=181
							181:[ucnt29<3] yes=333,no=334,missing=333
								333:leaf=0.109907202
								334:leaf=-0.0127339084
							182:leaf=-0.0307614841
						94:[ucnt23<4] yes=183,no=184,missing=183
							183:[ucnt29<53] yes=335,no=336,missing=335
								335:leaf=0.0781932771
								336:leaf=-0.00969652086
							184:[ucnt21<6] yes=337,no=338,missing=337
								337:leaf=0.0334024541
								338:leaf=-0.121157944
					48:[udu24<33007] yes=95,no=96,missing=95
						95:[ucnt25<57] yes=185,no=186,missing=185
							185:[ucnt24<37] yes=339,no=340,missing=339
								339:leaf=0.0476760343
								340:leaf=-0.0142344264
							186:[ucnt26<381] yes=341,no=342,missing=341
								341:leaf=0.101208687
								342:leaf=-0.0525269993
						96:[ucnt25<242] yes=187,no=188,missing=187
							187:[ucnt24<24] yes=343,no=344,missing=343
								343:leaf=-0.0325659662
								344:leaf=-0.138302982
							188:[realage<25.5] yes=345,no=346,missing=345
								345:leaf=-0.0361860804
								346:leaf=0.117870152
				24:[ucnt26<197] yes=49,no=50,missing=49
					49:[realage<21.5] yes=97,no=98,missing=97
						97:[udu26<7303] yes=189,no=190,missing=189
							189:[udu28<12751] yes=347,no=348,missing=347
								347:leaf=0.0929807499
								348:leaf=0.0340845026
							190:[ucnt25<244] yes=349,no=350,missing=349
								349:leaf=0.0451264232
								350:leaf=-0.062733531
						98:[tdays<1025.5] yes=191,no=192,missing=191
							191:[ucnt29<320] yes=351,no=352,missing=351
								351:leaf=-0.0218961835
								352:leaf=0.125513837
							192:[ucnt25<1] yes=353,no=354,missing=353
								353:leaf=0.0544318929
								354:leaf=0.00494759949
					50:[tdays<1030.5] yes=99,no=100,missing=99
						99:[tdays<957.5] yes=193,no=194,missing=193
							193:[udu26<25896] yes=355,no=356,missing=355
								355:leaf=-0.0529700331
								356:leaf=0.114350617
							194:[ucnt21<355] yes=357,no=358,missing=357
								357:leaf=-0.0490181707
								358:leaf=-0.0907993466
						100:[ucnt29<97] yes=195,no=196,missing=195
							195:[ucnt25<118] yes=359,no=360,missing=359
								359:leaf=-0.0698396862
								360:leaf=0.0559560768
							196:[ucnt28<461] yes=361,no=362,missing=361
								361:leaf=-0.0278719217
								362:leaf=0.028461501
			12:[CASE WHEN a.28 = 'True' THEN 1 ELSE 0 END<1] yes=25,no=26,missing=25
				25:[CASE WHEN a.27 = 'True' THEN 1 ELSE 0 END<1] yes=51,no=52,missing=51
					51:[realage<31.5] yes=101,no=102,missing=101
						101:[tdays<1465] yes=197,no=198,missing=197
							197:[tdays<1439] yes=363,no=364,missing=363
								363:leaf=0.0986733437
								364:leaf=0.0201969985
							198:[ucnt24<61] yes=365,no=366,missing=365
								365:leaf=0.122304372
								366:leaf=0.0372321419
						102:[ucnt26<29] yes=199,no=200,missing=199
							199:leaf=0.142534807
							200:leaf=0.0413247012
					52:[tdays<2082] yes=103,no=104,missing=103
						103:[ucnt25<228] yes=201,no=202,missing=201
							201:[ucnt23<8] yes=367,no=368,missing=367
								367:leaf=0.107735053
								368:leaf=0.065541558
							202:leaf=-0.0232160185
						104:[usex<1.5] yes=203,no=204,missing=203
							203:leaf=-0.106495731
							204:leaf=0.0963190123
				26:[realage<28.5] yes=53,no=54,missing=53
					53:[tdays<1424.5] yes=105,no=106,missing=105
						105:[realage<18.5] yes=205,no=206,missing=205
							205:[udu24<31886] yes=369,no=370,missing=369
								369:leaf=0.017693311
								370:leaf=-0.122129813
							206:[realage<24.5] yes=371,no=372,missing=371
								371:leaf=0.0824461505
								372:leaf=0.0168700293
						106:[realage<25.5] yes=207,no=208,missing=207
							207:[realage<17.5] yes=373,no=374,missing=373
								373:leaf=0.156522557
								374:leaf=0.06993635
							208:[ucnt23<17] yes=375,no=376,missing=375
								375:leaf=0.0820918903
								376:leaf=0.140537247
					54:[realage<43.5] yes=107,no=108,missing=107
						107:[tdays<1658.5] yes=209,no=210,missing=209
							209:[udu21<73] yes=377,no=378,missing=377
								377:leaf=0.0631112456
								378:leaf=0.0140613467
							210:[tdays<1875.5] yes=379,no=380,missing=379
								379:leaf=0.0651908517
								380:leaf=0.0355834924
						108:[ucnt24<132] yes=211,no=212,missing=211
							211:[udu26<1024] yes=381,no=382,missing=381
								381:leaf=0.0720251501
								382:leaf=0.173630998
							212:[ucnt24<234] yes=383,no=384,missing=383
								383:leaf=-0.0360959917
								384:leaf=0.130069405
		6:[ucnt21<5] yes=13,no=14,missing=13
			13:[CASE WHEN a.22 = 'True' THEN 1 ELSE 0 END<1] yes=27,no=28,missing=27
				27:[ucnt29<19] yes=55,no=56,missing=55
					55:[udu21<17] yes=109,no=110,missing=109
						109:[realage<53.5] yes=213,no=214,missing=213
							213:[tdays<1630.5] yes=385,no=386,missing=385
								385:leaf=0.0278958511
								386:leaf=0.0975490138
							214:leaf=0.132430673
						110:leaf=-0.0745511875
					56:[usex<1.5] yes=111,no=112,missing=111
						111:leaf=-0.0222410243
						112:leaf=-0.110238902
				28:[tdays<1185] yes=57,no=58,missing=57
					57:[udu24<6493] yes=113,no=114,missing=113
						113:[realage<52.5] yes=215,no=216,missing=215
							215:[ucnt21<3] yes=387,no=388,missing=387
								387:leaf=-0.10029421
								388:leaf=-0.0110151758
							216:[ucnt22<7] yes=389,no=390,missing=389
								389:leaf=0.0908385813
								390:leaf=-0.0701936409
						114:[ucnt29<10] yes=217,no=218,missing=217
							217:[ucnt25<23] yes=391,no=392,missing=391
								391:leaf=0.125771523
								392:leaf=-0.0204893406
							218:[ucnt22<27] yes=393,no=394,missing=393
								393:leaf=-0.113879681
								394:leaf=0.0396296866
					58:[tdays<1679] yes=115,no=116,missing=115
						115:[tdays<1595] yes=219,no=220,missing=219
							219:[tdays<1363.5] yes=395,no=396,missing=395
								395:leaf=0.0372987241
								396:leaf=-0.0229640361
							220:[udu24<686] yes=397,no=398,missing=397
								397:leaf=0.0348973759
								398:leaf=0.149728715
						116:[tdays<1962.5] yes=221,no=222,missing=221
							221:[ucnt23<16] yes=399,no=400,missing=399
								399:leaf=-0.114145495
								400:leaf=0.0283734594
							222:[ucnt24<2] yes=401,no=402,missing=401
								401:leaf=-0.00596871739
								402:leaf=0.114188492
			14:[tdays<1397.5] yes=29,no=30,missing=29
				29:[realage<49.5] yes=59,no=60,missing=59
					59:[realage<48.5] yes=117,no=118,missing=117
						117:[udu26<9468] yes=223,no=224,missing=223
							223:[ucnt29<13] yes=403,no=404,missing=403
								403:leaf=0.0891663209
								404:leaf=-0.0201240927
							224:[udu21<2523] yes=405,no=406,missing=405
								405:leaf=0.0293466505
								406:leaf=-0.129409969
						118:[tdays<1006] yes=225,no=226,missing=225
							225:[udu26<12776] yes=407,no=408,missing=407
								407:leaf=-0.0109737767
								408:leaf=-0.111885659
							226:[tdays<1204] yes=409,no=410,missing=409
								409:leaf=0.0349665023
								410:leaf=0.139014602
					60:[ucnt26<215] yes=119,no=120,missing=119
						119:[CASE WHEN a.28 = 'True' THEN 1 ELSE 0 END<1] yes=227,no=228,missing=227
							227:[ucnt21<89] yes=411,no=412,missing=411
								411:leaf=-0.0630914792
								412:leaf=0.0959136635
							228:[udu21<19510] yes=413,no=414,missing=413
								413:leaf=-0.0721480474
								414:leaf=-0.101533532
						120:[ucnt29<146] yes=229,no=230,missing=229
							229:[udu21<25782] yes=415,no=416,missing=415
								415:leaf=-0.0405888818
								416:leaf=0.12854217
							230:[udu28<13240] yes=417,no=418,missing=417
								417:leaf=0.00174233306
								418:leaf=-0.0724027604
				30:[realage<52.5] yes=61,no=62,missing=61
					61:[udu24<17884] yes=121,no=122,missing=121
						121:[ucnt26<44] yes=231,no=232,missing=231
							231:[ucnt29<3] yes=419,no=420,missing=419
								419:leaf=-0.00581800332
								420:leaf=-0.0771927983
							232:[ucnt25<73] yes=421,no=422,missing=421
								421:leaf=0.042255383
								422:leaf=-0.0415604971
						122:[tdays<1807.5] yes=233,no=234,missing=233
							233:[ucnt28<8] yes=423,no=424,missing=423
								423:leaf=0.0363654904
								424:leaf=-0.12799105
							234:[ucnt26<67] yes=425,no=426,missing=425
								425:leaf=0.112901606
								426:leaf=-0.0666275844
					62:[ucnt25<13] yes=123,no=124,missing=123
						123:[udu26<8048] yes=235,no=236,missing=235
							235:leaf=0.126813993
							236:leaf=0.0246753618
						124:[ucnt25<24] yes=237,no=238,missing=237
							237:leaf=-0.13654168
							238:[ucnt26<64] yes=427,no=428,missing=427
								427:leaf=0.065939419
								428:leaf=-0.0211839322
booster[4]:
0:[tdays<923.5] yes=1,no=2,missing=1
	1:[tdays<534.5] yes=3,no=4,missing=3
		3:[ucnt21<8] yes=7,no=8,missing=7
			7:[uage<2.5] yes=15,no=16,missing=15
				15:[realage<19.5] yes=31,no=32,missing=31
					31:[uage<0.5] yes=63,no=64,missing=63
						63:[udu27<9777] yes=125,no=126,missing=125
							125:[tdays<62.5] yes=241,no=242,missing=241
								241:leaf=-0.0391917787
								242:leaf=0.151277989
							126:leaf=-0.0438848995
						64:[udu23<46100] yes=127,no=128,missing=127
							127:[realage<18.5] yes=243,no=244,missing=243
								243:leaf=-0.114317074
								244:leaf=-0.0339010321
							128:leaf=0.110395253
					32:[udu28<27458] yes=65,no=66,missing=65
						65:[realage<20.5] yes=129,no=130,missing=129
							129:[ucnt22<44] yes=245,no=246,missing=245
								245:leaf=0.111054279
								246:leaf=-0.00645608315
							130:[udu28<6782] yes=247,no=248,missing=247
								247:leaf=-0.000660217425
								248:leaf=0.116436057
						66:leaf=-0.103935495
				16:[tdays<44.5] yes=33,no=34,missing=33
					33:[udu24<11490] yes=67,no=68,missing=67
						67:[realage<31.5] yes=131,no=132,missing=131
							131:[realage<30.5] yes=249,no=250,missing=249
								249:leaf=-0.123710468
								250:leaf=-0.0234425552
							132:[realage<64] yes=251,no=252,missing=251
								251:leaf=-0.151639089
								252:leaf=-0.0391154699
						68:leaf=0.0529522002
					34:[udu23<191] yes=69,no=70,missing=69
						69:[CASE WHEN a.27 = 'True' THEN 1 ELSE 0 END<1] yes=133,no=134,missing=133
							133:[usex<1.5] yes=253,no=254,missing=253
								253:leaf=0.0555175357
								254:leaf=-0.0582121797
							134:[tdays<460.5] yes=255,no=256,missing=255
								255:leaf=-0.0400731526
								256:leaf=0.0419401862
						70:[udu22<62999] yes=135,no=136,missing=135
							135:[udu28<133] yes=257,no=258,missing=257
								257:leaf=-0.0394467525
								258:leaf=-0.0900217667
							136:leaf=0.0938465297
			8:[uage<5.5] yes=17,no=18,missing=17
				17:[tdays<312.5] yes=35,no=36,missing=35
					35:[uage<0.5] yes=71,no=72,missing=71
						71:[udu27<48143] yes=137,no=138,missing=137
							137:[tdays<228] yes=259,no=260,missing=259
								259:leaf=0.121962145
								260:leaf=-0.016538417
							138:leaf=-0.0836337432
						72:[ucnt24<39] yes=139,no=140,missing=139
							139:[realage<28.5] yes=261,no=262,missing=261
								261:leaf=-0.0605315343
								262:leaf=-0.106612675
							140:[udu22<74185] yes=263,no=264,missing=263
								263:leaf=-0.115833245
								264:leaf=-0.0417327732
					36:[ucnt28<8] yes=73,no=74,missing=73
						73:[realage<30.5] yes=141,no=142,missing=141
							141:[tdays<321.5] yes=265,no=266,missing=265
								265:leaf=0.0812743381
								266:leaf=-0.0573428273
							142:[udu23<2851] yes=267,no=268,missing=267
								267:leaf=0.0933747813
								268:leaf=-0.0216710884
						74:[tdays<405.5] yes=143,no=144,missing=143
							143:[udu27<85] yes=269,no=270,missing=269
								269:leaf=0.00569843594
								270:leaf=-0.100704864
							144:[ucnt24<1349] yes=271,no=272,missing=271
								271:leaf=-0.0856010243
								272:leaf=0.0780109391
				18:[tdays<388.5] yes=37,no=38,missing=37
					37:[udu23<48732] yes=75,no=76,missing=75
						75:[ucnt28<936] yes=145,no=146,missing=145
							145:[realage<41.5] yes=273,no=274,missing=273
								273:leaf=-0.127759635
								274:leaf=-0.138820037
							146:[ucnt26<1025] yes=275,no=276,missing=275
								275:leaf=0.0554564409
								276:leaf=-0.103831492
						76:[udu26<28783] yes=147,no=148,missing=147
							147:[udu22<37735] yes=277,no=278,missing=277
								277:leaf=-0.109744251
								278:leaf=0.0976412818
							148:[ucnt24<1117] yes=279,no=280,missing=279
								279:leaf=-0.105994008
								280:leaf=0.048841849
					38:[ucnt22<7] yes=77,no=78,missing=77
						77:[ucnt29<103] yes=149,no=150,missing=149
							149:[ucnt26<7] yes=281,no=282,missing=281
								281:leaf=-0.133850038
								282:leaf=-0.0274373982
							150:[ucnt21<88] yes=283,no=284,missing=283
								283:leaf=0.131041393
								284:leaf=-0.000721206248
						78:[CASE WHEN a.23 = 'True' THEN 1 ELSE 0 END<1] yes=151,no=152,missing=151
							151:[ucnt28<78] yes=285,no=286,missing=285
								285:leaf=0.0711636469
								286:leaf=-0.0457534753
							152:[udu24<47358] yes=287,no=288,missing=287
								287:leaf=-0.12002635
								288:leaf=-0.0684776083
		4:[ucnt21<3] yes=9,no=10,missing=9
			9:[udu26<60] yes=19,no=20,missing=19
				19:[tdays<740] yes=39,no=40,missing=39
					39:[realage<30.5] yes=79,no=80,missing=79
						79:[udu23<48] yes=153,no=154,missing=153
							153:[udu21<3] yes=289,no=290,missing=289
								289:leaf=0.0334420763
								290:leaf=-0.071139507
							154:[udu23<256] yes=291,no=292,missing=291
								291:leaf=-0.141581833
								292:leaf=-0.00876551215
						80:[udu22<5827] yes=155,no=156,missing=155
							155:[udu23<3] yes=293,no=294,missing=293
								293:leaf=0.0853083059
								294:leaf=0.00826663803
							156:leaf=-0.0394275188
					40:[udu28<11141] yes=81,no=82,missing=81
						81:[ucnt24<68] yes=157,no=158,missing=157
							157:[uage<5.5] yes=295,no=296,missing=295
								295:leaf=0.0916985273
								296:leaf=0.028188128
							158:[udu27<76] yes=297,no=298,missing=297
								297:leaf=-0.120203316
								298:leaf=0.0185493417
						82:[udu27<21925] yes=159,no=160,missing=159
							159:[udu29<18377] yes=299,no=300,missing=299
								299:leaf=-0.110201158
								300:leaf=-0.00670793001
							160:leaf=0.035721045
				20:[udu22<8515] yes=41,no=42,missing=41
					41:[udu26<1785] yes=83,no=84,missing=83
						83:[udu23<5542] yes=161,no=162,missing=161
							161:[udu28<1953] yes=301,no=302,missing=301
								301:leaf=-0.056555666
								302:leaf=0.0375725813
							162:[ucnt28<2] yes=303,no=304,missing=303
								303:leaf=0.0357449017
								304:leaf=0.146973565
						84:[ucnt29<12] yes=163,no=164,missing=163
							163:[udu23<15975] yes=305,no=306,missing=305
								305:leaf=0.0769224912
								306:leaf=-0.0617437623
							164:[udu28<1677] yes=307,no=308,missing=307
								307:leaf=-0.0591568947
								308:leaf=0.0309626795
					42:[tdays<664.5] yes=85,no=86,missing=85
						85:[udu23<54788] yes=165,no=166,missing=165
							165:[realage<23] yes=309,no=310,missing=309
								309:leaf=-0.069924131
								310:leaf=-0.14900066
							166:leaf=0.0283854455
						86:[ucnt24<63] yes=167,no=168,missing=167
							167:[ucnt22<41] yes=311,no=312,missing=311
								311:leaf=-0.0436779745
								312:leaf=0.118772648
							168:[uage<3.5] yes=313,no=314,missing=313
								313:leaf=0.04172685
								314:leaf=-0.102754712
			10:[realage<31.5] yes=21,no=22,missing=21
				21:[tdays<679.5] yes=43,no=44,missing=43
					43:[udu28<10828] yes=87,no=88,missing=87
						87:[realage<20.5] yes=169,no=170,missing=169
							169:[uage<1.5] yes=315,no=316,missing=315
								315:leaf=-0.0994358882
								316:leaf=0.0368652456
							170:[udu21<224] yes=317,no=318,missing=317
								317:leaf=0.0466824137
								318:leaf=-0.0478517935
						88:[CASE WHEN a.24 = 'True' THEN 1 ELSE 0 END<1] yes=171,no=172,missing=171
							171:[tdays<608.5] yes=319,no=320,missing=319
								319:leaf=-0.022735063
								320:leaf=0.147445545
							172:[ucnt26<780] yes=321,no=322,missing=321
								321:leaf=-0.0701904744
								322:leaf=-0.11992041
					44:[realage<30.5] yes=89,no=90,missing=89
						89:[uage<2.5] yes=173,no=174,missing=173
							173:[udu28<17434] yes=323,no=324,missing=323
								323:leaf=0.0251160692
								324:leaf=-0.0369647965
							174:[ucnt29<78] yes=325,no=326,missing=325
								325:leaf=-0.0509987585
								326:leaf=-0.028796399
						90:[udu21<17699] yes=175,no=176,missing=175
							175:[ucnt29<116] yes=327,no=328,missing=327
								327:leaf=0.0606629737
								328:leaf=-0.0404060967
							176:[udu23<43533] yes=329,no=330,missing=329
								329:leaf=-0.0533493124
								330:leaf=0.0511680841
				22:[udu27<3] yes=45,no=46,missing=45
					45:[ucnt28<12] yes=91,no=92,missing=91
						91:[ucnt21<21] yes=177,no=178,missing=177
							177:[ucnt26<16] yes=331,no=332,missing=331
								331:leaf=0.117417686
								332:leaf=-0.055751618
							178:[uage<7.5] yes=333,no=334,missing=333
								333:leaf=0.0507063158
								334:leaf=-0.0550008304
						92:[udu29<43855] yes=179,no=180,missing=179
							179:[realage<37.5] yes=335,no=336,missing=335
								335:leaf=-0.00637297332
								336:leaf=-0.0989532098
							180:leaf=0.13553077
					46:[realage<41.5] yes=93,no=94,missing=93
						93:[udu23<7998] yes=181,no=182,missing=181
							181:[tdays<680] yes=337,no=338,missing=337
								337:leaf=-0.0862389877
								338:leaf=-0.0208260696
							182:[ucnt24<69] yes=339,no=340,missing=339
								339:leaf=-0.0573387444
								340:leaf=-0.0898538753
						94:[usex<1.5] yes=183,no=184,missing=183
							183:[realage<67.5] yes=341,no=342,missing=341
								341:leaf=-0.0944556743
								342:leaf=0.0331622437
							184:[ucnt24<105] yes=343,no=344,missing=343
								343:leaf=-0.130189463
								344:leaf=-0.103636645
	2:[realage<47.5] yes=5,no=6,missing=5
		5:[tdays<1199.5] yes=11,no=12,missing=11
			11:[udu23<4] yes=23,no=24,missing=23
				23:[CASE WHEN a.30 = 'True' THEN 1 ELSE 0 END<1] yes=47,no=48,missing=47
					47:[udu24<20084] yes=95,no=96,missing=95
						95:[tdays<1187.5] yes=185,no=186,missing=185
							185:[CASE WHEN a.29 = 'True' THEN 1 ELSE 0 END<1] yes=345,no=346,missing=345
								345:leaf=0.108409964
								346:leaf=0.0491611697
							186:leaf=-0.0251038224
						96:leaf=-0.0799172819
					48:[realage<28.5] yes=97,no=98,missing=97
						97:[udu29<8461] yes=187,no=188,missing=187
							187:[tdays<1015] yes=347,no=348,missing=347
								347:leaf=0.00103933481
								348:leaf=0.0828162208
							188:[udu28<44100] yes=349,no=350,missing=349
								349:leaf=0.132371441
								350:leaf=-0.0154766012
						98:[CASE WHEN a.27 = 'True' THEN 1 ELSE 0 END<1] yes=189,no=190,missing=189
							189:[CASE WHEN a.26 = 'True' THEN 1 ELSE 0 END<1] yes=351,no=352,missing=351
								351:leaf=-0.00745856762
								352:leaf=-0.101433925
							190:[udu27<27082] yes=353,no=354,missing=353
								353:leaf=0.026401246
								354:leaf=0.129725307
				24:[udu28<12573] yes=49,no=50,missing=49
					49:[tdays<959.5] yes=99,no=100,missing=99
						99:[ucnt26<1] yes=191,no=192,missing=191
							191:[ucnt22<1] yes=355,no=356,missing=355
								355:leaf=-0.0314029083
								356:leaf=0.0904277563
							192:[ucnt29<50] yes=357,no=358,missing=357
								357:leaf=-0.0702981576
								358:leaf=-0.00848774891
						100:[udu23<26] yes=193,no=194,missing=193
							193:[udu26<1584] yes=359,no=360,missing=359
								359:leaf=-0.123497583
								360:leaf=0.0434373729
							194:[uage<3.5] yes=361,no=362,missing=361
								361:leaf=0.0459611937
								362:leaf=0.00941478927
					50:[realage<31.5] yes=101,no=102,missing=101
						101:[udu23<50721] yes=195,no=196,missing=195
							195:[udu28<13244] yes=363,no=364,missing=363
								363:leaf=-0.0829969868
								364:leaf=-0.00421747752
							196:[ucnt28<823] yes=365,no=366,missing=365
								365:leaf=-0.0815030858
								366:leaf=0.0502535813
						102:[ucnt22<129] yes=197,no=198,missing=197
							197:[udu27<42741] yes=367,no=368,missing=367
								367:leaf=-0.00593537232
								368:leaf=-0.0967415497
							198:[udu27<50974] yes=369,no=370,missing=369
								369:leaf=-0.0714664608
								370:leaf=0.0140440864
			12:[udu22<43] yes=25,no=26,missing=25
				25:[CASE WHEN a.27 = 'True' THEN 1 ELSE 0 END<1] yes=51,no=52,missing=51
					51:[uage<3.5] yes=103,no=104,missing=103
						103:leaf=0.139401823
						104:[realage<25.5] yes=199,no=200,missing=199
							199:[tdays<1458] yes=371,no=372,missing=371
								371:leaf=0.015597418
								372:leaf=0.08695703
							200:[CASE WHEN a.28 = 'True' THEN 1 ELSE 0 END<1] yes=373,no=374,missing=373
								373:leaf=0.116002135
								374:leaf=0.0746963024
					52:[ucnt28<21] yes=105,no=106,missing=105
						105:[udu28<23855] yes=201,no=202,missing=201
							201:[realage<28.5] yes=375,no=376,missing=375
								375:leaf=0.0771017671
								376:leaf=0.0449042879
							202:[ucnt26<4] yes=377,no=378,missing=377
								377:leaf=-0.134407684
								378:leaf=0.00206928025
						106:[udu21<223] yes=203,no=204,missing=203
							203:[udu27<3942] yes=379,no=380,missing=379
								379:leaf=0.0959470868
								380:leaf=0.150330052
							204:[ucnt24<24] yes=381,no=382,missing=381
								381:leaf=0.0136346016
								382:leaf=0.102028787
				26:[realage<28.5] yes=53,no=54,missing=53
					53:[realage<25.5] yes=107,no=108,missing=107
						107:[tdays<1625.5] yes=205,no=206,missing=205
							205:[realage<18.5] yes=383,no=384,missing=383
								383:leaf=-0.0264127795
								384:leaf=0.0440261923
							206:[udu21<76] yes=385,no=386,missing=385
								385:leaf=0.0164410118
								386:leaf=0.0875209793
						108:[udu26<47886] yes=207,no=208,missing=207
							207:[tdays<1434.5] yes=387,no=388,missing=387
								387:leaf=0.0874264166
								388:leaf=0.124480389
							208:[ucnt29<131] yes=389,no=390,missing=389
								389:leaf=0.057873603
								390:leaf=-0.0837700069
					54:[tdays<1664.5] yes=109,no=110,missing=109
						109:[udu27<222] yes=209,no=210,missing=209
							209:[udu22<123] yes=391,no=392,missing=391
								391:leaf=-0.0132873198
								392:leaf=0.0715050325
							210:[realage<30.5] yes=393,no=394,missing=393
								393:leaf=-0.0156480763
								394:leaf=0.0132628744
						110:[ucnt21<1] yes=211,no=212,missing=211
							211:[ucnt28<25] yes=395,no=396,missing=395
								395:leaf=0.00883382838
								396:leaf=-0.113426946
							212:[udu28<532] yes=397,no=398,missing=397
								397:leaf=0.10376592
								398:leaf=0.0500319414
		6:[udu29<34] yes=13,no=14,missing=13
			13:[ucnt22<1] yes=27,no=28,missing=27
				27:[realage<53.5] yes=55,no=56,missing=55
					55:[CASE WHEN a.24 = 'True' THEN 1 ELSE 0 END<1] yes=111,no=112,missing=111
						111:[usex<1.5] yes=213,no=214,missing=213
							213:[tdays<1040] yes=399,no=400,missing=399
								399:leaf=-0.033930853
								400:leaf=0.113401376
							214:[tdays<1458] yes=401,no=402,missing=401
								401:leaf=0.0339650176
								402:leaf=-0.025254488
						112:[tdays<1171] yes=215,no=216,missing=215
							215:[usex<1.5] yes=403,no=404,missing=403
								403:leaf=0.0835260972
								404:leaf=-0.0128057022
							216:[ucnt26<5] yes=405,no=406,missing=405
								405:leaf=0.000587188813
								406:leaf=-0.100777052
					56:leaf=0.121845774
				28:[udu24<1021] yes=57,no=58,missing=57
					57:[udu23<2] yes=113,no=114,missing=113
						113:[ucnt26<10] yes=217,no=218,missing=217
							217:[CASE WHEN a.24 = 'True' THEN 1 ELSE 0 END<1] yes=407,no=408,missing=407
								407:leaf=0.0696327239
								408:leaf=-0.0518681705
							218:leaf=0.129656047
						114:[tdays<1815] yes=219,no=220,missing=219
							219:[ucnt22<68] yes=409,no=410,missing=409
								409:leaf=-0.116226569
								410:leaf=0.00209143967
							220:leaf=0.0319323502
					58:[ucnt21<11] yes=115,no=116,missing=115
						115:[ucnt21<1] yes=221,no=222,missing=221
							221:[udu23<3791] yes=411,no=412,missing=411
								411:leaf=-0.0816394314
								412:leaf=0.0374664515
							222:[udu28<795] yes=413,no=414,missing=413
								413:leaf=0.150246814
								414:leaf=0.0219898652
						116:[ucnt22<90] yes=223,no=224,missing=223
							223:[ucnt24<81] yes=415,no=416,missing=415
								415:leaf=-0.0789080858
								416:leaf=0.0318853036
							224:[ucnt28<153] yes=417,no=418,missing=417
								417:leaf=0.124006405
								418:leaf=0.00834167469
			14:[tdays<1232.5] yes=29,no=30,missing=29
				29:[ucnt24<409] yes=59,no=60,missing=59
					59:[ucnt21<139] yes=117,no=118,missing=117
						117:[ucnt26<134] yes=225,no=226,missing=225
							225:[realage<52.5] yes=419,no=420,missing=419
								419:leaf=-0.0773007497
								420:leaf=-0.0421254188
							226:[ucnt26<147] yes=421,no=422,missing=421
								421:leaf=0.0391886607
								422:leaf=-0.0551266856
						118:[udu26<12232] yes=227,no=228,missing=227
							227:[ucnt24<41] yes=423,no=424,missing=423
								423:leaf=-0.032019373
								424:leaf=-0.153091818
							228:[udu26<12894] yes=425,no=426,missing=425
								425:leaf=0.0836578533
								426:leaf=-0.0926635638
					60:[udu28<21556] yes=119,no=120,missing=119
						119:[ucnt21<269] yes=229,no=230,missing=229
							229:leaf=-0.00406228332
							230:leaf=0.141223893
						120:[ucnt24<424] yes=231,no=232,missing=231
							231:leaf=0.0870482251
							232:[udu29<22190] yes=427,no=428,missing=427
								427:leaf=-0.00821921788
								428:leaf=-0.115076177
				30:[realage<52.5] yes=61,no=62,missing=61
					61:[ucnt21<4] yes=121,no=122,missing=121
						121:[udu22<4706] yes=233,no=234,missing=233
							233:[ucnt28<34] yes=429,no=430,missing=429
								429:leaf=-0.00585214188
								430:leaf=0.119236343
							234:[udu26<745] yes=431,no=432,missing=431
								431:leaf=0.0305940658
								432:leaf=-0.0967207178
						122:[ucnt28<201] yes=235,no=236,missing=235
							235:[udu23<15366] yes=433,no=434,missing=433
								433:leaf=-0.0540206619
								434:leaf=-0.0874471292
							236:[ucnt21<251] yes=435,no=436,missing=435
								435:leaf=0.0480324067
								436:leaf=-0.0753824413
					62:[tdays<1436.5] yes=123,no=124,missing=123
						123:[ucnt24<3] yes=237,no=238,missing=237
							237:leaf=0.114914335
							238:[ucnt22<34] yes=437,no=438,missing=437
								437:leaf=-0.104086839
								438:leaf=-0.0220044497
						124:[udu28<13824] yes=239,no=240,missing=239
							239:[ucnt26<80] yes=439,no=440,missing=439
								439:leaf=0.0983266532
								440:leaf=-0.0091918949
							240:[realage<58] yes=441,no=442,missing=441
								441:leaf=-0.0849840343
								442:leaf=0.0617757142
booster[5]:
0:[ucnt21<16] yes=1,no=2,missing=1
	1:[uage<7.5] yes=3,no=4,missing=3
		3:[udu27<121] yes=7,no=8,missing=7
			7:[realage<21.5] yes=15,no=16,missing=15
				15:[realage<18.5] yes=31,no=32,missing=31
					31:[realage<15.5] yes=63,no=64,missing=63
						63:[udu24<656] yes=125,no=126,missing=125
							125:leaf=0.122294925
							126:leaf=0.00910765957
						64:[ucnt25<1] yes=127,no=128,missing=127
							127:[udu22<280] yes=235,no=236,missing=235
								235:leaf=-0.0653157756
								236:leaf=0.0248174109
							128:[ucnt26<12] yes=237,no=238,missing=237
								237:leaf=0.11777027
								238:leaf=-0.0268722307
					32:[ucnt29<37] yes=65,no=66,missing=65
						65:[udu26<492] yes=129,no=130,missing=129
							129:[udu26<318] yes=239,no=240,missing=239
								239:leaf=0.0726581588
								240:leaf=-0.076313667
							130:[udu24<1477] yes=241,no=242,missing=241
								241:leaf=0.154913083
								242:leaf=0.0614307597
						66:[ucnt25<1] yes=131,no=132,missing=131
							131:[udu29<7946] yes=243,no=244,missing=243
								243:leaf=-0.0942117423
								244:leaf=0.00762209762
							132:leaf=0.0647534803
				16:[realage<30.5] yes=33,no=34,missing=33
					33:[realage<28.5] yes=67,no=68,missing=67
						67:[realage<25.5] yes=133,no=134,missing=133
							133:[udu29<19543] yes=245,no=246,missing=245
								245:leaf=0.0158973988
								246:leaf=-0.109301917
							134:[CASE WHEN a.23 = 'True' THEN 1 ELSE 0 END<1] yes=247,no=248,missing=247
								247:leaf=0.0390474871
								248:leaf=0.0844390467
						68:[udu25<4] yes=135,no=136,missing=135
							135:[udu28<4056] yes=249,no=250,missing=249
								249:leaf=-0.000950480753
								250:leaf=0.0830458701
							136:[udu23<58] yes=251,no=252,missing=251
								251:leaf=-0.058405865
								252:leaf=-0.00551097607
					34:[udu29<7237] yes=69,no=70,missing=69
						69:[CASE WHEN a.30 = 'True' THEN 1 ELSE 0 END<1] yes=137,no=138,missing=137
							137:[realage<31.5] yes=253,no=254,missing=253
								253:leaf=0.0724369586
								254:leaf=0.0219040774
							138:[realage<32.5] yes=255,no=256,missing=255
								255:leaf=0.0347637199
								256:leaf=0.0764927119
						70:[ucnt26<2] yes=139,no=140,missing=139
							139:[ucnt21<2] yes=257,no=258,missing=257
								257:leaf=0.043836493
								258:leaf=-0.0749161765
							140:[udu21<5842] yes=259,no=260,missing=259
								259:leaf=-0.118595637
								260:leaf=0.0733115599
			8:[realage<28.5] yes=17,no=18,missing=17
				17:[realage<25.5] yes=35,no=36,missing=35
					35:[realage<24.5] yes=71,no=72,missing=71
						71:[ucnt27<22] yes=141,no=142,missing=141
							141:[udu24<30847] yes=261,no=262,missing=261
								261:leaf=0.0717352256
								262:leaf=-0.0259097964
							142:[udu22<8488] yes=263,no=264,missing=263
								263:leaf=0.0355084427
								264:leaf=-0.0492221341
						72:[udu23<2] yes=143,no=144,missing=143
							143:[udu22<7] yes=265,no=266,missing=265
								265:leaf=0.0599347241
								266:leaf=-0.0168591719
							144:[udu26<15843] yes=267,no=268,missing=267
								267:leaf=-0.0384174846
								268:leaf=0.0349232666
					36:[ucnt27<235] yes=73,no=74,missing=73
						73:[udu28<2564] yes=145,no=146,missing=145
							145:[udu21<764] yes=269,no=270,missing=269
								269:leaf=0.0598912314
								270:leaf=-0.0178438034
							146:[ucnt21<13] yes=271,no=272,missing=271
								271:leaf=0.109711066
								272:leaf=0.0213916525
						74:[udu26<17548] yes=147,no=148,missing=147
							147:leaf=-0.128030881
							148:leaf=0.0552880764
				18:[realage<30.5] yes=37,no=38,missing=37
					37:[udu22<203] yes=75,no=76,missing=75
						75:[udu27<12016] yes=149,no=150,missing=149
							149:[udu23<1019] yes=273,no=274,missing=273
								273:leaf=-0.00726385275
								274:leaf=-0.0692627952
							150:[ucnt24<2] yes=275,no=276,missing=275
								275:leaf=-0.013097561
								276:leaf=0.119251691
						76:[udu23<19505] yes=151,no=152,missing=151
							151:[udu23<23] yes=277,no=278,missing=277
								277:leaf=0.00385713624
								278:leaf=-0.0765064061
							152:[udu25<22535] yes=279,no=280,missing=279
								279:leaf=0.0601031668
								280:leaf=-0.0484361276
					38:[CASE WHEN a.30 = 'True' THEN 1 ELSE 0 END<1] yes=77,no=78,missing=77
						77:[CASE WHEN a.24 = 'True' THEN 1 ELSE 0 END<1] yes=153,no=154,missing=153
							153:[CASE WHEN a.29 = 'True' THEN 1 ELSE 0 END<1] yes=281,no=282,missing=281
								281:leaf=0.0446496606
								282:leaf=-0.0680755526
							154:[udu26<10514] yes=283,no=284,missing=283
								283:leaf=0.108138345
								284:leaf=0.0272376928
						78:[udu22<2950] yes=155,no=156,missing=155
							155:[realage<42.5] yes=285,no=286,missing=285
								285:leaf=0.0033117116
								286:leaf=0.0773177966
							156:[udu21<21387] yes=287,no=288,missing=287
								287:leaf=-0.035635069
								288:leaf=0.0514996164
		4:[udu22<66] yes=9,no=10,missing=9
			9:[realage<57.5] yes=19,no=20,missing=19
				19:[usex<1.5] yes=39,no=40,missing=39
					39:[ucnt27<48] yes=79,no=80,missing=79
						79:[ucnt27<11] yes=157,no=158,missing=157
							157:[udu28<1993] yes=289,no=290,missing=289
								289:leaf=-0.0167572033
								290:leaf=0.0561460517
							158:[udu25<149] yes=291,no=292,missing=291
								291:leaf=0.00587356044
								292:leaf=0.119403422
						80:[udu28<9027] yes=159,no=160,missing=159
							159:leaf=-0.142429993
							160:leaf=0.0282786936
					40:[udu24<5172] yes=81,no=82,missing=81
						81:[udu23<639] yes=161,no=162,missing=161
							161:[udu26<4579] yes=293,no=294,missing=293
								293:leaf=-0.0573984198
								294:leaf=0.0588584244
							162:leaf=-0.14296411
						82:[udu28<7499] yes=163,no=164,missing=163
							163:[ucnt27<8] yes=295,no=296,missing=295
								295:leaf=0.0237723719
								296:leaf=0.0960786715
							164:leaf=-0.0600050874
				20:[realage<62.5] yes=41,no=42,missing=41
					41:[usex<1.5] yes=83,no=84,missing=83
						83:leaf=0.142194107
						84:leaf=0.0467591137
					42:[udu27<196] yes=85,no=86,missing=85
						85:[CASE WHEN a.29 = 'True' THEN 1 ELSE 0 END<1] yes=165,no=166,missing=165
							165:[realage<66.5] yes=297,no=298,missing=297
								297:leaf=1.55634134e-05
								298:leaf=0.058460582
							166:leaf=0.125432819
						86:[udu24<448] yes=167,no=168,missing=167
							167:leaf=0.0190981738
							168:leaf=-0.10263709
			10:[ucnt25<8] yes=21,no=22,missing=21
				21:[udu24<19145] yes=43,no=44,missing=43
					43:[ucnt27<79] yes=87,no=88,missing=87
						87:[ucnt21<11] yes=169,no=170,missing=169
							169:[ucnt27<32] yes=299,no=300,missing=299
								299:leaf=-0.0348086879
								300:leaf=-0.112543307
							170:[udu25<781] yes=301,no=302,missing=301
								301:leaf=-0.0382399522
								302:leaf=0.084885709
						88:[udu28<6218] yes=171,no=172,missing=171
							171:leaf=0.0278950967
							172:leaf=0.144989789
					44:[ucnt27<2] yes=89,no=90,missing=89
						89:leaf=-0.0116739795
						90:leaf=-0.1505799
				22:[udu29<53] yes=45,no=46,missing=45
					45:[udu28<3499] yes=91,no=92,missing=91
						91:[udu28<2801] yes=173,no=174,missing=173
							173:[udu23<1302] yes=303,no=304,missing=303
								303:leaf=0.0244810618
								304:leaf=-0.072277531
							174:leaf=0.126216859
						92:leaf=-0.111770846
					46:[ucnt26<48] yes=93,no=94,missing=93
						93:[ucnt26<39] yes=175,no=176,missing=175
							175:[udu22<38020] yes=305,no=306,missing=305
								305:leaf=-0.0878789946
								306:leaf=0.0283674635
							176:[ucnt21<6] yes=307,no=308,missing=307
								307:leaf=0.0927503631
								308:leaf=-0.0665256903
						94:[udu22<627] yes=177,no=178,missing=177
							177:[udu28<2158] yes=309,no=310,missing=309
								309:leaf=-0.0553680249
								310:leaf=0.0473820828
							178:[realage<63.5] yes=311,no=312,missing=311
								311:leaf=-0.118703425
								312:leaf=-0.0065796352
	2:[realage<47.5] yes=5,no=6,missing=5
		5:[ucnt26<156] yes=11,no=12,missing=11
			11:[realage<23.5] yes=23,no=24,missing=23
				23:[ucnt21<184] yes=47,no=48,missing=47
					47:[ucnt27<36] yes=95,no=96,missing=95
						95:[ucnt26<140] yes=179,no=180,missing=179
							179:[udu29<32] yes=313,no=314,missing=313
								313:leaf=0.097687982
								314:leaf=0.0422523692
							180:[ucnt21<64] yes=315,no=316,missing=315
								315:leaf=-0.122600257
								316:leaf=-0.0320287198
						96:[realage<15.5] yes=181,no=182,missing=181
							181:[udu28<8864] yes=317,no=318,missing=317
								317:leaf=0.014688367
								318:leaf=0.12484844
							182:[realage<18.5] yes=319,no=320,missing=319
								319:leaf=-0.0564227998
								320:leaf=-0.000403786224
					48:[udu28<70083] yes=97,no=98,missing=97
						97:[udu29<29520] yes=183,no=184,missing=183
							183:[realage<18.5] yes=321,no=322,missing=321
								321:leaf=-0.0913975537
								322:leaf=-0.0106680933
							184:[ucnt29<636] yes=323,no=324,missing=323
								323:leaf=-0.102168873
								324:leaf=0.044085145
						98:leaf=0.133943394
				24:[udu29<675] yes=49,no=50,missing=49
					49:[ucnt24<195] yes=99,no=100,missing=99
						99:[ucnt29<1] yes=185,no=186,missing=185
							185:[udu23<38014] yes=325,no=326,missing=325
								325:leaf=0.0235647075
								326:leaf=-0.106787324
							186:[ucnt24<85] yes=327,no=328,missing=327
								327:leaf=-0.0269516949
								328:leaf=0.0687766001
						100:[udu24<36705] yes=187,no=188,missing=187
							187:[udu26<4107] yes=329,no=330,missing=329
								329:leaf=-0.107535325
								330:leaf=-0.0132982433
							188:[realage<32] yes=331,no=332,missing=331
								331:leaf=-0.00402896386
								332:leaf=0.107038818
					50:[ucnt26<6] yes=101,no=102,missing=101
						101:[realage<25.5] yes=189,no=190,missing=189
							189:[CASE WHEN a.23 = 'True' THEN 1 ELSE 0 END<1] yes=333,no=334,missing=333
								333:leaf=0.105691038
								334:leaf=-0.0689232275
							190:[realage<28.5] yes=335,no=336,missing=335
								335:leaf=0.08000388
								336:leaf=-0.00212452863
						102:[udu28<7017] yes=191,no=192,missing=191
							191:[realage<25.5] yes=337,no=338,missing=337
								337:leaf=-0.0713627413
								338:leaf=-0.0258789361
							192:[udu22<440] yes=339,no=340,missing=339
								339:leaf=0.00925259944
								340:leaf=-0.0533032976
			12:[ucnt21<104] yes=25,no=26,missing=25
				25:[ucnt21<34] yes=51,no=52,missing=51
					51:[udu21<15039] yes=103,no=104,missing=103
						103:[ucnt21<24] yes=193,no=194,missing=193
							193:[ucnt27<417] yes=341,no=342,missing=341
								341:leaf=-0.0528862253
								342:leaf=0.12846826
							194:[udu27<20442] yes=343,no=344,missing=343
								343:leaf=0.0514648929
								344:leaf=0.131518483
						104:[usex<1.5] yes=195,no=196,missing=195
							195:leaf=-0.111798421
							196:leaf=-0.00657868013
					52:[uage<2.5] yes=105,no=106,missing=105
						105:[ucnt24<193] yes=197,no=198,missing=197
							197:[ucnt27<147] yes=345,no=346,missing=345
								345:leaf=0.0775639266
								346:leaf=-0.0189995151
							198:[ucnt27<251] yes=347,no=348,missing=347
								347:leaf=-0.0944024846
								348:leaf=0.00410414953
						106:[ucnt24<37] yes=199,no=200,missing=199
							199:[udu28<28328] yes=349,no=350,missing=349
								349:leaf=0.0539905913
								350:leaf=-0.0822682902
							200:[udu24<24639] yes=351,no=352,missing=351
								351:leaf=-0.0633237734
								352:leaf=-0.0333696194
				26:[realage<31.5] yes=53,no=54,missing=53
					53:[realage<24.5] yes=107,no=108,missing=107
						107:[ucnt26<275] yes=201,no=202,missing=201
							201:[realage<21.5] yes=353,no=354,missing=353
								353:leaf=-0.0390072316
								354:leaf=-0.0896623433
							202:[udu23<31414] yes=355,no=356,missing=355
								355:leaf=-0.0716283247
								356:leaf=-0.092366226
						108:[udu23<5301] yes=203,no=204,missing=203
							203:[ucnt27<212] yes=357,no=358,missing=357
								357:leaf=0.0610248819
								358:leaf=-0.0345279835
							204:[udu26<41829] yes=359,no=360,missing=359
								359:leaf=-0.0625293776
								360:leaf=-0.0384598523
					54:[udu21<8935] yes=109,no=110,missing=109
						109:[udu22<5363] yes=205,no=206,missing=205
							205:[udu23<14833] yes=361,no=362,missing=361
								361:leaf=-0.0104542803
								362:leaf=0.148865044
							206:[ucnt25<100] yes=363,no=364,missing=363
								363:leaf=0.0477112532
								364:leaf=-0.0671152025
						110:[realage<32.5] yes=207,no=208,missing=207
							207:[udu22<61122] yes=365,no=366,missing=365
								365:leaf=-0.117301576
								366:leaf=-0.00652411673
							208:[ucnt27<16] yes=367,no=368,missing=367
								367:leaf=-0.00384515757
								368:leaf=-0.0884513184
		6:[usex<1.5] yes=13,no=14,missing=13
			13:[udu24<2009] yes=27,no=28,missing=27
				27:[realage<50.5] yes=55,no=56,missing=55
					55:[udu22<5872] yes=111,no=112,missing=111
						111:[udu24<1480] yes=209,no=210,missing=209
							209:[ucnt29<95] yes=369,no=370,missing=369
								369:leaf=-0.0942877829
								370:leaf=-0.0126438588
							210:[udu28<2773] yes=371,no=372,missing=371
								371:leaf=0.052094847
								372:leaf=-0.0827254504
						112:[udu22<7938] yes=211,no=212,missing=211
							211:[udu29<8967] yes=373,no=374,missing=373
								373:leaf=-0.0143922409
								374:leaf=0.141610324
							212:[udu21<3884] yes=375,no=376,missing=375
								375:leaf=0.053206712
								376:leaf=-0.0742745623
					56:[ucnt25<136] yes=113,no=114,missing=113
						113:[udu25<7363] yes=213,no=214,missing=213
							213:[udu25<5150] yes=377,no=378,missing=377
								377:leaf=-0.024116857
								378:leaf=0.110481143
							214:leaf=-0.126779333
						114:[ucnt25<183] yes=215,no=216,missing=215
							215:leaf=0.125623837
							216:leaf=-0.00849901792
				28:[udu26<62325] yes=57,no=58,missing=57
					57:[realage<70.5] yes=115,no=116,missing=115
						115:[ucnt26<12] yes=217,no=218,missing=217
							217:[udu23<4524] yes=379,no=380,missing=379
								379:leaf=-0.094403021
								380:leaf=-0.0285388269
							218:[realage<48.5] yes=381,no=382,missing=381
								381:leaf=-0.117101155
								382:leaf=-0.0897179842
						116:[ucnt27<155] yes=219,no=220,missing=219
							219:[ucnt27<63] yes=383,no=384,missing=383
								383:leaf=-0.00649015233
								384:leaf=0.101105705
							220:leaf=-0.0717341229
					58:[uage<7.5] yes=117,no=118,missing=117
						117:leaf=0.142749563
						118:[udu21<81135] yes=221,no=222,missing=221
							221:[ucnt25<414] yes=385,no=386,missing=385
								385:leaf=-0.112662457
								386:leaf=-0.000769471226
							222:leaf=0.0903966874
			14:[udu23<2171] yes=29,no=30,missing=29
				29:[udu21<453] yes=59,no=60,missing=59
					59:leaf=0.0635057017
					60:[ucnt27<4] yes=119,no=120,missing=119
						119:[udu23<548] yes=223,no=224,missing=223
							223:[udu21<9188] yes=387,no=388,missing=387
								387:leaf=-0.117370188
								388:leaf=0.00659985188
							224:[udu25<3841] yes=389,no=390,missing=389
								389:leaf=0.135939941
								390:leaf=-0.00623262022
						120:[ucnt24<52] yes=225,no=226,missing=225
							225:[ucnt24<50] yes=391,no=392,missing=391
								391:leaf=-0.0862449333
								392:leaf=0.118700162
							226:[udu23<1522] yes=393,no=394,missing=393
								393:leaf=-0.125386715
								394:leaf=-0.0493158177
				30:[ucnt25<206] yes=61,no=62,missing=61
					61:[udu22<4120] yes=121,no=122,missing=121
						121:[udu28<2220] yes=227,no=228,missing=227
							227:[udu28<1128] yes=395,no=396,missing=395
								395:leaf=-0.0749084279
								396:leaf=0.049102243
							228:[udu25<24693] yes=397,no=398,missing=397
								397:leaf=-0.103254139
								398:leaf=0.0273310244
						122:[ucnt29<412] yes=229,no=230,missing=229
							229:[udu24<9813] yes=399,no=400,missing=399
								399:leaf=-0.128011167
								400:leaf=-0.11038655
							230:[ucnt24<255] yes=401,no=402,missing=401
								401:leaf=0.0540004559
								402:leaf=-0.0906219035
					62:[udu27<15326] yes=123,no=124,missing=123
						123:[udu21<4571] yes=231,no=232,missing=231
							231:leaf=0.0525970533
							232:[ucnt27<190] yes=403,no=404,missing=403
								403:leaf=-0.0217574816
								404:leaf=-0.0929762498
						124:[udu25<27600] yes=233,no=234,missing=233
							233:[ucnt26<88] yes=405,no=406,missing=405
								405:leaf=0.0282266829
								406:leaf=-0.122023188
							234:[udu27<19195] yes=407,no=408,missing=407
								407:leaf=0.0472679064
								408:leaf=-0.0867040232
booster[6]:
0:[tdays<752.5] yes=1,no=2,missing=1
	1:[tdays<441.5] yes=3,no=4,missing=3
		3:[uage<5.5] yes=7,no=8,missing=7
			7:[ucnt23<21] yes=15,no=16,missing=15
				15:[usex<0.5] yes=31,no=32,missing=31
					31:[tdays<197.5] yes=63,no=64,missing=63
						63:leaf=0.123332039
						64:leaf=-0.0305280816
					32:[tdays<22.5] yes=65,no=66,missing=65
						65:[uage<2.5] yes=125,no=126,missing=125
							125:[uage<1.5] yes=227,no=228,missing=227
								227:leaf=-0.133447886
								228:leaf=-0.0161919091
							126:leaf=-0.112209752
						66:[udu29<23] yes=127,no=128,missing=127
							127:[ucnt24<40] yes=229,no=230,missing=229
								229:leaf=0.011348038
								230:leaf=-0.0979694799
							128:[udu22<57294] yes=231,no=232,missing=231
								231:leaf=-0.0628718436
								232:leaf=0.115095213
				16:[uage<0.5] yes=33,no=34,missing=33
					33:[ucnt22<380] yes=67,no=68,missing=67
						67:[udu29<14802] yes=129,no=130,missing=129
							129:[ucnt28<5] yes=233,no=234,missing=233
								233:leaf=0.0529512279
								234:leaf=-0.0874392614
							130:leaf=0.132076263
						68:leaf=-0.0826003775
