booster[0]:
0:[ucnt10<11] yes=1,no=2,missing=1
	1:[realage<22.5] yes=3,no=4,missing=3
		3:[ucnt21<46] yes=7,no=8,missing=7
			7:[tdays<48] yes=15,no=16,missing=15
				15:[udu7<11337] yes=29,no=30,missing=29
					29:[ucnt1<1] yes=57,no=58,missing=57
						57:[realage<20.5] yes=97,no=98,missing=97
							97:[realage<19.5] yes=155,no=156,missing=155
								155:leaf=-0
								156:leaf=0.150000006
							98:leaf=-0.0222222228
						58:leaf=0.181395352
					30:leaf=-0.0400000028
				16:[realage<9.5] yes=31,no=32,missing=31
					31:[CASE WHEN a.15 = 'True' THEN 1 ELSE 0 END<1] yes=59,no=60,missing=59
						59:[ucnt10<1] yes=99,no=100,missing=99
							99:leaf=-0.0500000007
							100:leaf=0.0500000007
						60:leaf=0.155555561
					32:[udu8<13090] yes=61,no=62,missing=61
						61:[udu1<539] yes=101,no=102,missing=101
							101:[ucnt15<6] yes=157,no=158,missing=157
								157:leaf=-0.0571428612
								158:leaf=0.0933333337
							102:[ucnt1<10] yes=159,no=160,missing=159
								159:leaf=0.0222222228
								160:leaf=-0.136842117
						62:leaf=0.111111119
			8:[udu20<16924] yes=17,no=18,missing=17
				17:[udu13<7004] yes=33,no=34,missing=33
					33:leaf=-0.114285722
					34:leaf=0.0909090936
				18:[udu9<53186] yes=35,no=36,missing=35
					35:leaf=-0.164705887
					36:leaf=-0
		4:[ucnt3<3] yes=9,no=10,missing=9
			9:[ucnt26<2] yes=19,no=20,missing=19
				19:[udu1<1540] yes=37,no=38,missing=37
					37:[tdays<21.5] yes=63,no=64,missing=63
						63:[ucnt1<17] yes=103,no=104,missing=103
							103:[ucnt10<3] yes=161,no=162,missing=161
								161:leaf=-0.157894745
								162:leaf=-0
							104:leaf=0.0800000057
						64:[CASE WHEN a.0 = 'True' THEN 1 ELSE 0 END<1] yes=105,no=106,missing=105
							105:[udu22<222] yes=163,no=164,missing=163
								163:leaf=0.167999998
								164:leaf=0.0153846163
							106:[udu11<2327] yes=165,no=166,missing=165
								165:leaf=-0.0133333346
								166:leaf=0.111111119
					38:[udu5<6547] yes=65,no=66,missing=65
						65:[udu1<19801] yes=107,no=108,missing=107
							107:leaf=-0.15384616
							108:leaf=0.0181818195
						66:leaf=0.100000001
				20:[ucnt1<1] yes=39,no=40,missing=39
					39:[udu8<23] yes=67,no=68,missing=67
						67:[realage<31.5] yes=109,no=110,missing=109
							109:[ucnt12<3] yes=167,no=168,missing=167
								167:leaf=-0.0666666701
								168:leaf=0.0909090936
							110:leaf=0.138461545
						68:[ucnt14<25] yes=111,no=112,missing=111
							111:[udu12<4574] yes=169,no=170,missing=169
								169:leaf=-0.145454556
								170:leaf=-0.0222222228
							112:leaf=0.0545454584
					40:[ucnt19<99] yes=69,no=70,missing=69
						69:[CASE WHEN a.5 = 'True' THEN 1 ELSE 0 END<1] yes=113,no=114,missing=113
							113:[ucnt12<2] yes=171,no=172,missing=171
								171:leaf=-0.0666666701
								172:leaf=0.0500000007
							114:[tdays<332.5] yes=173,no=174,missing=173
								173:leaf=-0.186440691
								174:leaf=-0.0500000007
						70:[ucnt1<7] yes=115,no=116,missing=115
							115:leaf=0.100000001
							116:leaf=-0.0500000007
			10:[ucnt12<6] yes=21,no=22,missing=21
				21:[udu2<28156] yes=41,no=42,missing=41
					41:[udu2<899] yes=71,no=72,missing=71
						71:[CASE WHEN a.16 = 'True' THEN 1 ELSE 0 END<1] yes=117,no=118,missing=117
							117:[realage<30.5] yes=175,no=176,missing=175
								175:leaf=-0.0400000028
								176:leaf=0.105882362
							118:[udu12<544] yes=177,no=178,missing=177
								177:leaf=-0.111688316
								178:leaf=0.0400000028
						72:[ucnt9<111] yes=119,no=120,missing=119
							119:[udu26<22471] yes=179,no=180,missing=179
								179:leaf=-0.144000009
								180:leaf=-0.0181818195
							120:leaf=0.0500000007
					42:[ucnt9<9] yes=73,no=74,missing=73
						73:leaf=0.138461545
						74:leaf=-0.0500000007
				22:[udu5<28150] yes=43,no=44,missing=43
					43:[ucnt1<4] yes=75,no=76,missing=75
						75:[ucnt13<7] yes=121,no=122,missing=121
							121:[udu10<210] yes=181,no=182,missing=181
								181:leaf=-0.0720000044
								182:leaf=0.120000005
							122:[tdays<156.5] yes=183,no=184,missing=183
								183:leaf=-0.171428576
								184:leaf=-0.0836363658
						76:[udu8<31627] yes=123,no=124,missing=123
							123:[ucnt23<316] yes=185,no=186,missing=185
								185:leaf=-0.166857153
								186:leaf=-0.0571428612
							124:leaf=-0.0181818195
					44:[ucnt21<8] yes=77,no=78,missing=77
						77:[ucnt27<1] yes=125,no=126,missing=125
							125:leaf=-0.0400000028
							126:leaf=0.100000001
						78:[udu5<31344] yes=127,no=128,missing=127
							127:[ucnt9<181] yes=187,no=188,missing=187
								187:leaf=0.0666666701
								188:leaf=-0.0500000007
							128:[udu26<46311] yes=189,no=190,missing=189
								189:leaf=-0.161290333
								190:leaf=-0.0400000028
	2:[realage<31.5] yes=5,no=6,missing=5
		5:[ucnt5<6] yes=11,no=12,missing=11
			11:[ucnt10<118] yes=23,no=24,missing=23
				23:[realage<22.5] yes=45,no=46,missing=45
					45:[ucnt28<29] yes=79,no=80,missing=79
						79:[ucnt3<85] yes=129,no=130,missing=129
							129:[ucnt1<173] yes=191,no=192,missing=191
								191:leaf=0.144827589
								192:leaf=-0
							130:leaf=-0.0666666701
						80:leaf=-0.120000005
					46:[ucnt4<89] yes=81,no=82,missing=81
						81:[ucnt23<143] yes=131,no=132,missing=131
							131:[ucnt2<39] yes=193,no=194,missing=193
								193:leaf=-0.110000007
								194:leaf=-0.179661021
							132:[ucnt4<1] yes=195,no=196,missing=195
								195:leaf=0.111111119
								196:leaf=-0.111111119
						82:[ucnt3<71] yes=133,no=134,missing=133
							133:leaf=0.100000001
							134:leaf=-0.0545454584
				24:[ucnt1<1157] yes=47,no=48,missing=47
					47:[udu10<49964] yes=83,no=84,missing=83
						83:[udu26<51437] yes=135,no=136,missing=135
							135:[usex<0.5] yes=197,no=198,missing=197
								197:leaf=-0.0666666701
								198:leaf=-0.174683556
							136:leaf=-0.0400000028
						84:[ucnt10<389] yes=137,no=138,missing=137
							137:leaf=0.0181818195
							138:leaf=-0.13333334
					48:leaf=-0
			12:[udu1<1057] yes=25,no=26,missing=25
				25:[CASE WHEN a.15 = 'True' THEN 1 ELSE 0 END<1] yes=49,no=50,missing=49
					49:[ucnt14<1] yes=85,no=86,missing=85
						85:[ucnt4<50] yes=139,no=140,missing=139
							139:leaf=-0.13333334
							140:[ucnt10<39] yes=199,no=200,missing=199
								199:leaf=0.100000001
								200:leaf=-0.0666666701
						86:leaf=0.111111119
					50:[udu22<61676] yes=87,no=88,missing=87
						87:[ucnt4<395] yes=141,no=142,missing=141
							141:[udu1<1028] yes=201,no=202,missing=201
								201:leaf=-0.149458483
								202:leaf=-0
							142:[ucnt5<461] yes=203,no=204,missing=203
								203:leaf=0.120000005
								204:leaf=-0.13333334
						88:leaf=0.0500000007
				26:[udu2<1031] yes=51,no=52,missing=51
					51:[ucnt27<5] yes=89,no=90,missing=89
						89:[realage<20.5] yes=143,no=144,missing=143
							143:leaf=0.0909090936
							144:[tdays<311] yes=205,no=206,missing=205
								205:leaf=-0.116666667
								206:leaf=0.0666666701
						90:[udu22<11476] yes=145,no=146,missing=145
							145:[ucnt23<2] yes=207,no=208,missing=207
								207:leaf=-0
								208:leaf=-0.179797992
							146:[udu2<518] yes=209,no=210,missing=209
								209:leaf=-0.136842117
								210:leaf=0.075000003
					52:[ucnt2<4] yes=91,no=92,missing=91
						91:leaf=0.0222222228
						92:[tdays<206.5] yes=147,no=148,missing=147
							147:[ucnt27<1778] yes=211,no=212,missing=211
								211:leaf=-0.178503871
								212:leaf=-0
							148:[udu21<44] yes=213,no=214,missing=213
								213:leaf=-0.101176478
								214:leaf=-0.16813162
		6:[ucnt15<1403] yes=13,no=14,missing=13
			13:[udu7<85814] yes=27,no=28,missing=27
				27:[realage<44.5] yes=53,no=54,missing=53
					53:[ucnt9<30] yes=93,no=94,missing=93
						93:[tdays<130] yes=149,no=150,missing=149
							149:[ucnt10<28] yes=215,no=216,missing=215
								215:leaf=-0.115151517
								216:leaf=-0.190062121
							150:[udu29<319] yes=217,no=218,missing=217
								217:leaf=0.0333333351
								218:leaf=-0.148872182
						94:[ucnt21<1156] yes=151,no=152,missing=151
							151:[udu16<69361] yes=219,no=220,missing=219
								219:leaf=-0.183467284
								220:leaf=-0.0857142881
							152:[ucnt26<615] yes=221,no=222,missing=221
								221:leaf=0.0500000007
								222:leaf=-0.127272725
					54:[udu8<76065] yes=95,no=96,missing=95
						95:[ucnt13<1039] yes=153,no=154,missing=153
							153:[udu10<222] yes=223,no=224,missing=223
								223:leaf=-0.0500000007
								224:leaf=-0.192750067
							154:leaf=-0.0545454584
						96:leaf=-0.0400000028
				28:[uage<7.5] yes=55,no=56,missing=55
					55:leaf=-0.100000001
					56:leaf=0.0500000007
			14:leaf=0.0222222228
booster[1]:
0:[ucnt10<7] yes=1,no=2,missing=1
	1:[realage<22.5] yes=3,no=4,missing=3
		3:[ucnt21<33] yes=7,no=8,missing=7
			7:[ucnt8<120] yes=15,no=16,missing=15
				15:[ucnt4<37] yes=31,no=32,missing=31
					31:[tdays<276] yes=57,no=58,missing=57
						57:[ucnt24<29] yes=95,no=96,missing=95
							95:[ucnt14<61] yes=145,no=146,missing=145
								145:leaf=0.15113084
								146:leaf=0.0481799133
							96:leaf=0.0198662058
						58:[tdays<306.5] yes=97,no=98,missing=97
							97:leaf=-0.11255224
							98:leaf=0.132028028
					32:[tdays<34.5] yes=59,no=60,missing=59
						59:leaf=0.0877374634
						60:leaf=-0.0751288831
				16:leaf=-0.0480485
			8:[udu22<32224] yes=17,no=18,missing=17
				17:[ucnt5<17] yes=33,no=34,missing=33
					33:leaf=-0.131658301
					34:[ucnt3<117] yes=61,no=62,missing=61
						61:leaf=0.124002613
						62:leaf=0.0257509835
				18:[udu19<52141] yes=35,no=36,missing=35
					35:leaf=-0.148652539
					36:leaf=-0.0167821776
		4:[ucnt5<4] yes=9,no=10,missing=9
			9:[udu24<28625] yes=19,no=20,missing=19
				19:[ucnt3<7] yes=37,no=38,missing=37
					37:[udu8<22] yes=63,no=64,missing=63
						63:[ucnt24<4] yes=99,no=100,missing=99
							99:[udu25<646] yes=147,no=148,missing=147
								147:leaf=0.006251771
								148:leaf=-0.12826176
							100:[udu17<343] yes=149,no=150,missing=149
								149:leaf=0.135203063
								150:leaf=-0.0321155451
						64:[ucnt9<13] yes=101,no=102,missing=101
							101:[CASE WHEN a.3 = 'True' THEN 1 ELSE 0 END<1] yes=151,no=152,missing=151
								151:leaf=0.0270155128
								152:leaf=-0.100341976
							102:[udu21<77] yes=153,no=154,missing=153
								153:leaf=-0.0963739082
								154:leaf=0.0804367736
					38:[udu11<18617] yes=65,no=66,missing=65
						65:[udu24<521] yes=103,no=104,missing=103
							103:[tdays<67] yes=155,no=156,missing=155
								155:leaf=-0.135864243
								156:leaf=-0.0104900207
							104:leaf=-0.161399111
						66:leaf=0.0379508398
				20:[ucnt25<9] yes=39,no=40,missing=39
					39:leaf=-0.0636040196
					40:leaf=0.161506057
			10:[udu23<150] yes=21,no=22,missing=21
				21:[udu18<6254] yes=41,no=42,missing=41
					41:[udu11<301] yes=67,no=68,missing=67
						67:[CASE WHEN a.16 = 'True' THEN 1 ELSE 0 END<1] yes=105,no=106,missing=105
							105:[ucnt4<27] yes=157,no=158,missing=157
								157:leaf=0.113431565
								158:leaf=-0.0714332834
							106:[udu4<178] yes=159,no=160,missing=159
								159:leaf=-0.147607848
								160:leaf=0.0370173566
						68:[uage<6.5] yes=107,no=108,missing=107
							107:leaf=-0.15410006
							108:leaf=-0.0356310159
					42:[usex<1.5] yes=69,no=70,missing=69
						69:[ucnt7<43] yes=109,no=110,missing=109
							109:leaf=0.139889345
							110:leaf=-0.0127993869
						70:leaf=-0.0756529644
				22:[udu12<18152] yes=43,no=44,missing=43
					43:[udu9<36212] yes=71,no=72,missing=71
						71:[ucnt23<402] yes=111,no=112,missing=111
							111:[tdays<347.5] yes=161,no=162,missing=161
								161:leaf=-0.154659644
								162:leaf=-0.016667176
							112:leaf=-0.01371786
						72:leaf=-0.0120329568
					44:[udu1<19003] yes=73,no=74,missing=73
						73:[ucnt21<100] yes=113,no=114,missing=113
							113:[ucnt19<15] yes=163,no=164,missing=163
								163:leaf=0.0682704002
								164:leaf=-0.121702485
							114:[uage<5.5] yes=165,no=166,missing=165
								165:leaf=0.11410892
								166:leaf=-0.0495644175
						74:[tdays<189.5] yes=115,no=116,missing=115
							115:[ucnt7<111] yes=167,no=168,missing=167
								167:leaf=-0.0649107248
								168:leaf=0.0274294298
							116:leaf=-0.154505834
	2:[ucnt7<12] yes=5,no=6,missing=5
		5:[tdays<8.5] yes=11,no=12,missing=11
			11:[realage<20.5] yes=23,no=24,missing=23
				23:[realage<19.5] yes=45,no=46,missing=45
					45:leaf=-0.137094244
					46:[ucnt2<145] yes=75,no=76,missing=75
						75:leaf=0.108450077
						76:[ucnt3<108] yes=117,no=118,missing=117
							117:leaf=0.028847253
							118:leaf=-0.101745062
				24:leaf=-0.169245318
			12:[ucnt9<9] yes=25,no=26,missing=25
				25:[realage<23.5] yes=47,no=48,missing=47
					47:[realage<19.5] yes=77,no=78,missing=77
						77:[ucnt1<126] yes=119,no=120,missing=119
							119:[ucnt18<2] yes=169,no=170,missing=169
								169:leaf=0.0705371723
								170:leaf=-0.0802778378
							120:leaf=-0.14656584
						78:[ucnt21<39] yes=121,no=122,missing=121
							121:[ucnt2<66] yes=171,no=172,missing=171
								171:leaf=0.124930382
								172:leaf=0.00723943487
							122:leaf=-0.0328652039
					48:[udu24<134] yes=79,no=80,missing=79
						79:[tdays<80.5] yes=123,no=124,missing=123
							123:[udu4<17480] yes=173,no=174,missing=173
								173:leaf=-0.13518624
								174:leaf=0.0754887089
							124:[tdays<138] yes=175,no=176,missing=175
								175:leaf=0.0993856341
								176:leaf=-0.0413601361
						80:[ucnt23<126] yes=125,no=126,missing=125
							125:[udu21<27065] yes=177,no=178,missing=177
								177:leaf=-0.140787661
								178:leaf=0.00022315525
							126:[ucnt1<34] yes=179,no=180,missing=179
								179:leaf=-0.0583884493
								180:leaf=0.0813910589
				26:[udu4<20787] yes=49,no=50,missing=49
					49:[ucnt1<5] yes=81,no=82,missing=81
						81:[ucnt22<118] yes=127,no=128,missing=127
							127:[udu12<6710] yes=181,no=182,missing=181
								181:leaf=-0.130330101
								182:leaf=0.0100791445
							128:leaf=0.0732343569
						82:[udu9<357] yes=129,no=130,missing=129
							129:[uage<4.5] yes=183,no=184,missing=183
								183:leaf=-0.0906844214
								184:leaf=0.0248989686
							130:[ucnt11<295] yes=185,no=186,missing=185
								185:leaf=-0.155945987
								186:leaf=-0.06498757
					50:[ucnt22<15] yes=83,no=84,missing=83
						83:leaf=0.0874187052
						84:[udu12<13708] yes=131,no=132,missing=131
							131:leaf=-0.00676313508
							132:[usex<1.5] yes=187,no=188,missing=187
								187:leaf=-0.153005764
								188:leaf=-0.0338557847
		6:[uage<0.5] yes=13,no=14,missing=13
			13:[ucnt8<106] yes=27,no=28,missing=27
				27:leaf=-0.117419504
				28:[udu22<29395] yes=51,no=52,missing=51
					51:leaf=0.135924265
					52:[tdays<134.5] yes=85,no=86,missing=85
						85:leaf=-0.101668037
						86:leaf=-0.012613398
			14:[realage<41.5] yes=29,no=30,missing=29
				29:[udu1<229] yes=53,no=54,missing=53
					53:[ucnt24<10] yes=87,no=88,missing=87
						87:[udu2<4077] yes=133,no=134,missing=133
							133:[ucnt2<10] yes=189,no=190,missing=189
								189:leaf=0.0171666574
								190:leaf=-0.136270806
							134:leaf=0.107731938
						88:[udu9<54436] yes=135,no=136,missing=135
							135:[udu27<327] yes=191,no=192,missing=191
								191:leaf=-0.0455229506
								192:leaf=-0.148555309
							136:leaf=0.04087466
					54:[usex<1.5] yes=89,no=90,missing=89
						89:[udu18<849] yes=137,no=138,missing=137
							137:[ucnt20<57] yes=193,no=194,missing=193
								193:leaf=-0.141983926
								194:leaf=-0.078590095
							138:[tdays<152.5] yes=195,no=196,missing=195
								195:leaf=-0.164990172
								196:leaf=-0.15392229
						90:[udu25<89441] yes=139,no=140,missing=139
							139:[ucnt28<1423] yes=197,no=198,missing=197
								197:leaf=-0.167183325
								198:leaf=-0.0149481939
							140:leaf=-0.0137482183
				30:[ucnt13<657] yes=55,no=56,missing=55
					55:[udu7<75291] yes=91,no=92,missing=91
						91:[ucnt22<987] yes=141,no=142,missing=141
							141:[ucnt3<916] yes=199,no=200,missing=199
								199:leaf=-0.175227612
								200:leaf=-0.0564746223
							142:leaf=-0.0562799759
						92:leaf=0.00182354066
					56:[udu18<16612] yes=93,no=94,missing=93
						93:leaf=0.0577634834
						94:[udu4<55673] yes=143,no=144,missing=143
							143:[udu25<24344] yes=201,no=202,missing=201
								201:leaf=-0.0353531204
								202:leaf=-0.158267722
							144:[udu11<58811] yes=203,no=204,missing=203
								203:leaf=0.0741410106
								204:leaf=-0.115798019
booster[2]:
0:[ucnt10<10] yes=1,no=2,missing=1
	1:[udu8<41] yes=3,no=4,missing=3
		3:[realage<28.5] yes=7,no=8,missing=7
			7:[ucnt6<37] yes=15,no=16,missing=15
				15:[tdays<279.5] yes=29,no=30,missing=29
					29:[ucnt3<27] yes=51,no=52,missing=51
						51:[ucnt17<3] yes=87,no=88,missing=87
							87:[uage<3.5] yes=133,no=134,missing=133
								133:leaf=0.123838447
								134:leaf=0.00995640084
							88:leaf=0.170557067
						52:[ucnt1<16] yes=89,no=90,missing=89
							89:[realage<20.5] yes=135,no=136,missing=135
								135:leaf=0.0536242016
								136:leaf=-0.108789258
							90:[ucnt1<73] yes=137,no=138,missing=137
								137:leaf=0.109273516
								138:leaf=0.0179606099
					30:[tdays<307.5] yes=53,no=54,missing=53
						53:leaf=-0.119115487
						54:[ucnt18<5] yes=91,no=92,missing=91
							91:leaf=0.114210598
							92:leaf=-0.0311471727
				16:[tdays<44.5] yes=31,no=32,missing=31
					31:leaf=-0.0221300051
					32:leaf=-0.123086907
			8:[udu20<36005] yes=17,no=18,missing=17
				17:[ucnt11<23] yes=33,no=34,missing=33
					33:[uage<4.5] yes=55,no=56,missing=55
						55:[tdays<260] yes=93,no=94,missing=93
							93:[udu4<2596] yes=139,no=140,missing=139
								139:leaf=-0.148641407
								140:leaf=-0.0178424288
							94:leaf=-0.0114777917
						56:[CASE WHEN a.6 = 'True' THEN 1 ELSE 0 END<1] yes=95,no=96,missing=95
							95:[CASE WHEN a.1 = 'True' THEN 1 ELSE 0 END<1] yes=141,no=142,missing=141
								141:leaf=-0.0469980948
								142:leaf=0.068373017
							96:[udu6<1686] yes=143,no=144,missing=143
								143:leaf=-0.0588584729
								144:leaf=0.0612829588
					34:[ucnt9<68] yes=57,no=58,missing=57
						57:leaf=-0.159577131
						58:leaf=-0.0595286153
				18:leaf=0.108753823
		4:[udu2<4] yes=9,no=10,missing=9
			9:[ucnt22<5] yes=19,no=20,missing=19
				19:[ucnt3<18] yes=35,no=36,missing=35
					35:[udu8<105] yes=59,no=60,missing=59
						59:leaf=-0.0324476324
						60:[udu12<5422] yes=97,no=98,missing=97
							97:[CASE WHEN a.15 = 'True' THEN 1 ELSE 0 END<1] yes=145,no=146,missing=145
								145:leaf=0.0438514687
								146:leaf=0.159481809
							98:leaf=-0.0106622083
					36:[ucnt16<40] yes=61,no=62,missing=61
						61:leaf=-0.110530317
						62:leaf=-0.0137051987
				20:[udu28<38512] yes=37,no=38,missing=37
					37:[ucnt15<22] yes=63,no=64,missing=63
						63:leaf=-0.149708077
						64:[ucnt3<26] yes=99,no=100,missing=99
							99:[realage<20] yes=147,no=148,missing=147
								147:leaf=-0.104148053
								148:leaf=0.0827552751
							100:[ucnt15<231] yes=149,no=150,missing=149
								149:leaf=-0.130757973
								150:leaf=0.0347255878
					38:leaf=0.120103553
			10:[udu19<61366] yes=21,no=22,missing=21
				21:[ucnt22<2] yes=39,no=40,missing=39
					39:[ucnt21<8] yes=65,no=66,missing=65
						65:[udu28<8681] yes=101,no=102,missing=101
							101:[udu12<782] yes=151,no=152,missing=151
								151:leaf=0.00301998924
								152:leaf=-0.106006615
							102:[ucnt18<6] yes=153,no=154,missing=153
								153:leaf=0.0259385295
								154:leaf=0.123698093
						66:leaf=-0.143447816
					40:[udu9<669] yes=67,no=68,missing=67
						67:[udu18<666] yes=103,no=104,missing=103
							103:[ucnt4<25] yes=155,no=156,missing=155
								155:leaf=-0.136570573
								156:leaf=-5.08271296e-05
							104:[udu12<4755] yes=157,no=158,missing=157
								157:leaf=-0.0605371073
								158:leaf=0.107811034
						68:[uage<1.5] yes=105,no=106,missing=105
							105:[ucnt6<82] yes=159,no=160,missing=159
								159:leaf=0.10194879
								160:leaf=-0.10729941
							106:[CASE WHEN a.15 = 'True' THEN 1 ELSE 0 END<1] yes=161,no=162,missing=161
								161:leaf=-0.0347901769
								162:leaf=-0.13584432
				22:leaf=0.121082358
	2:[realage<31.5] yes=5,no=6,missing=5
		5:[ucnt7<10] yes=11,no=12,missing=11
			11:[realage<22.5] yes=23,no=24,missing=23
				23:[ucnt1<118] yes=41,no=42,missing=41
					41:[ucnt1<1] yes=69,no=70,missing=69
						69:[udu10<13835] yes=107,no=108,missing=107
							107:leaf=0.0461619832
							108:[realage<19.5] yes=163,no=164,missing=163
								163:leaf=-0.113042653
								164:leaf=-0.0402644984
						70:[ucnt3<66] yes=109,no=110,missing=109
							109:[udu20<10003] yes=165,no=166,missing=165
								165:leaf=0.146560058
								166:leaf=-0.0186789986
							110:[udu4<7221] yes=167,no=168,missing=167
								167:leaf=0.0322103016
								168:leaf=-0.0974478498
					42:[usex<0.5] yes=71,no=72,missing=71
						71:leaf=0.0626738593
						72:[udu21<49327] yes=111,no=112,missing=111
							111:[ucnt2<160] yes=169,no=170,missing=169
								169:leaf=-0.0841392055
								170:leaf=-0.144591227
							112:leaf=-0.00816567708
				24:[tdays<9.5] yes=43,no=44,missing=43
					43:[CASE WHEN a.1 = 'True' THEN 1 ELSE 0 END<1] yes=73,no=74,missing=73
						73:[ucnt10<131] yes=113,no=114,missing=113
							113:leaf=-0.000532766106
							114:leaf=-0.120433055
						74:leaf=-0.159265235
					44:[udu18<101] yes=75,no=76,missing=75
						75:[udu19<1703] yes=115,no=116,missing=115
							115:[ucnt21<29] yes=171,no=172,missing=171
								171:leaf=-0.0829371512
								172:leaf=0.0740475431
							116:[ucnt9<3] yes=173,no=174,missing=173
								173:leaf=0.0283416212
								174:leaf=0.129160464
						76:[udu3<10345] yes=117,no=118,missing=117
							117:[ucnt18<3] yes=175,no=176,missing=175
								175:leaf=-0.0272716712
								176:leaf=-0.141768515
							118:[udu15<12035] yes=177,no=178,missing=177
								177:leaf=-0.00843969826
								178:leaf=-0.109066762
			12:[udu7<110] yes=25,no=26,missing=25
				25:leaf=0.0370570421
				26:[uage<0.5] yes=45,no=46,missing=45
					45:[udu5<12074] yes=77,no=78,missing=77
						77:leaf=0.0550825782
						78:[ucnt2<476] yes=119,no=120,missing=119
							119:leaf=-0.139748797
							120:leaf=0.0259142704
					46:[ucnt1<26] yes=79,no=80,missing=79
						79:[uage<2.5] yes=121,no=122,missing=121
							121:[tdays<67.5] yes=179,no=180,missing=179
								179:leaf=0.126345575
								180:leaf=-0.110571206
							122:[ucnt7<216] yes=181,no=182,missing=181
								181:leaf=-0.138248101
								182:leaf=-0.0122371567
						80:[udu17<100447] yes=123,no=124,missing=123
							123:[ucnt11<17] yes=183,no=184,missing=183
								183:leaf=-0.12063124
								184:leaf=-0.144940138
							124:leaf=0.0180683993
		6:[ucnt15<1403] yes=13,no=14,missing=13
			13:[realage<44.5] yes=27,no=28,missing=27
				27:[udu10<2694] yes=47,no=48,missing=47
					47:[udu13<211] yes=81,no=82,missing=81
						81:[ucnt10<23] yes=125,no=126,missing=125
							125:leaf=-0.125286147
							126:[tdays<44] yes=185,no=186,missing=185
								185:leaf=-0.046153184
								186:leaf=0.0777179599
						82:[ucnt15<292] yes=127,no=128,missing=127
							127:[ucnt2<2] yes=187,no=188,missing=187
								187:leaf=-0.00509269442
								188:leaf=-0.138323247
							128:leaf=-0.0110540511
					48:[udu5<91811] yes=83,no=84,missing=83
						83:[ucnt7<854] yes=129,no=130,missing=129
							129:[ucnt17<1080] yes=189,no=190,missing=189
								189:leaf=-0.152533308
								190:leaf=-0.0675650313
							130:[realage<40.5] yes=191,no=192,missing=191
								191:leaf=-0.128670216
								192:leaf=0.0330108218
						84:leaf=-0.00414267415
				28:[udu20<76696] yes=49,no=50,missing=49
					49:[ucnt13<1091] yes=85,no=86,missing=85
						85:[udu21<68751] yes=131,no=132,missing=131
							131:[ucnt15<1137] yes=193,no=194,missing=193
								193:leaf=-0.161671326
								194:leaf=-0.0502599142
							132:leaf=-0.047491502
						86:leaf=-0.0313728787
					50:leaf=0.0273900237
			14:leaf=0.0445169397
booster[3]:
0:[ucnt10<7] yes=1,no=2,missing=1
	1:[udu3<153] yes=3,no=4,missing=3
		3:[uage<3.5] yes=7,no=8,missing=7
			7:[ucnt23<35] yes=15,no=16,missing=15
				15:[ucnt18<61] yes=31,no=32,missing=31
					31:[tdays<279.5] yes=57,no=58,missing=57
						57:[CASE WHEN a.17 = 'True' THEN 1 ELSE 0 END<1] yes=95,no=96,missing=95
							95:[tdays<12.5] yes=147,no=148,missing=147
								147:leaf=0.123122431
								148:leaf=-0.048986271
							96:leaf=0.154030651
						58:leaf=0.0177117735
					32:leaf=-0.0256369915
				16:[udu16<10659] yes=33,no=34,missing=33
					33:leaf=-0.116856597
					34:leaf=-0.00484820036
			8:[udu2<126] yes=17,no=18,missing=17
				17:[udu20<838] yes=35,no=36,missing=35
					35:[udu16<1] yes=59,no=60,missing=59
						59:[tdays<102] yes=97,no=98,missing=97
							97:[udu2<16] yes=149,no=150,missing=149
								149:leaf=-0.0877794027
								150:leaf=0.0704834163
							98:[uage<7.5] yes=151,no=152,missing=151
								151:leaf=0.0822185501
								152:leaf=-0.0846586153
						60:[udu3<105] yes=99,no=100,missing=99
							99:[ucnt9<1] yes=153,no=154,missing=153
								153:leaf=-0.0329890326
								154:leaf=-0.160969615
							100:leaf=0.0340252183
					36:[ucnt18<3] yes=61,no=62,missing=61
						61:[ucnt24<12] yes=101,no=102,missing=101
							101:leaf=0.0414577201
							102:leaf=-0.0868709534
						62:[ucnt4<22] yes=103,no=104,missing=103
							103:[udu13<109] yes=155,no=156,missing=155
								155:leaf=0.0341165811
								156:leaf=0.168744177
							104:leaf=-0.0295753311
				18:[udu23<46] yes=37,no=38,missing=37
					37:[CASE WHEN a.22 = 'True' THEN 1 ELSE 0 END<1] yes=63,no=64,missing=63
						63:[udu6<112] yes=105,no=106,missing=105
							105:[udu2<4376] yes=157,no=158,missing=157
								157:leaf=-0.139739379
								158:leaf=-0.00719951047
							106:[udu14<677] yes=159,no=160,missing=159
								159:leaf=0.0800660178
								160:leaf=-0.0570372157
						64:[udu20<37] yes=107,no=108,missing=107
							107:[ucnt27<2] yes=161,no=162,missing=161
								161:leaf=0.0387035832
								162:leaf=-0.10223794
							108:leaf=0.125052467
					38:[udu27<30771] yes=65,no=66,missing=65
						65:[CASE WHEN a.5 = 'True' THEN 1 ELSE 0 END<1] yes=109,no=110,missing=109
							109:leaf=-0.0138173318
							110:[ucnt24<79] yes=163,no=164,missing=163
								163:leaf=-0.156235501
								164:leaf=-0.0477350317
						66:leaf=0.075611636
		4:[uage<0.5] yes=9,no=10,missing=9
			9:[udu1<1351] yes=19,no=20,missing=19
				19:leaf=0.127186164
				20:leaf=0.00746988738
			10:[ucnt24<7] yes=21,no=22,missing=21
				21:[realage<22.5] yes=39,no=40,missing=39
					39:[ucnt7<186] yes=67,no=68,missing=67
						67:[udu11<3152] yes=111,no=112,missing=111
							111:leaf=0.124605551
							112:leaf=0.0253219586
						68:leaf=-0.099867925
					40:[udu2<27649] yes=69,no=70,missing=69
						69:[CASE WHEN a.5 = 'True' THEN 1 ELSE 0 END<1] yes=113,no=114,missing=113
							113:[tdays<113] yes=165,no=166,missing=165
								165:leaf=-0.0767353252
								166:leaf=0.115479253
							114:[realage<30.5] yes=167,no=168,missing=167
								167:leaf=-0.124482118
								168:leaf=-0.0416384302
						70:[udu3<41541] yes=115,no=116,missing=115
							115:leaf=0.136547789
							116:leaf=-0.0411453433
				22:[tdays<156.5] yes=41,no=42,missing=41
					41:[ucnt25<503] yes=71,no=72,missing=71
						71:[udu19<27816] yes=117,no=118,missing=117
							117:[ucnt7<105] yes=169,no=170,missing=169
								169:leaf=-0.15643993
								170:leaf=-0.0824402571
							118:[udu21<15835] yes=171,no=172,missing=171
								171:leaf=0.0323938541
								172:leaf=-0.123607159
						72:leaf=-0.00335012632
					42:[udu21<1519] yes=73,no=74,missing=73
						73:[udu29<10446] yes=119,no=120,missing=119
							119:[tdays<185] yes=173,no=174,missing=173
								173:leaf=-0.0328095667
								174:leaf=-0.147371948
							120:[udu10<32] yes=175,no=176,missing=175
								175:leaf=0.123976469
								176:leaf=-0.100476339
						74:[udu1<5974] yes=121,no=122,missing=121
							121:[udu5<11757] yes=177,no=178,missing=177
								177:leaf=-0.0290761441
								178:leaf=0.111336805
							122:[udu2<4814] yes=179,no=180,missing=179
								179:leaf=0.00189592957
								180:leaf=-0.11143028
	2:[ucnt6<15] yes=5,no=6,missing=5
		5:[realage<20.5] yes=11,no=12,missing=11
			11:[realage<19.5] yes=23,no=24,missing=23
				23:[ucnt10<12] yes=43,no=44,missing=43
					43:leaf=0.116334215
					44:[udu20<2924] yes=75,no=76,missing=75
						75:[ucnt10<115] yes=123,no=124,missing=123
							123:[tdays<128] yes=181,no=182,missing=181
								181:leaf=-0.0953473449
								182:leaf=0.0695636496
							124:[ucnt4<410] yes=183,no=184,missing=183
								183:leaf=-0.154128388
								184:leaf=-0.0318673812
						76:[udu17<13558] yes=125,no=126,missing=125
							125:leaf=0.113996163
							126:[ucnt9<419] yes=185,no=186,missing=185
								185:leaf=-0.109538041
								186:leaf=0.00175487495
				24:[udu17<1040] yes=45,no=46,missing=45
					45:[ucnt10<470] yes=77,no=78,missing=77
						77:leaf=0.158286765
						78:leaf=0.0158938691
					46:leaf=-0.00803385954
			12:[udu11<36257] yes=25,no=26,missing=25
				25:[tdays<7.5] yes=47,no=48,missing=47
					47:[udu3<45800] yes=79,no=80,missing=79
						79:[ucnt10<14] yes=127,no=128,missing=127
							127:leaf=-0.0479649901
							128:leaf=-0.149454594
						80:leaf=-0.0402853936
					48:[ucnt23<2] yes=81,no=82,missing=81
						81:[ucnt10<92] yes=129,no=130,missing=129
							129:[udu10<5955] yes=187,no=188,missing=187
								187:leaf=-0.059321411
								188:leaf=0.0395146422
							130:[udu3<7] yes=189,no=190,missing=189
								189:leaf=-0.0689173415
								190:leaf=-0.150304645
						82:[CASE WHEN a.29 = 'True' THEN 1 ELSE 0 END<1] yes=131,no=132,missing=131
							131:[udu12<1062] yes=191,no=192,missing=191
								191:leaf=-0.0880770907
								192:leaf=0.0666359514
							132:[ucnt1<507] yes=193,no=194,missing=193
								193:leaf=-0.128067076
								194:leaf=0.0180213023
				26:[ucnt4<6] yes=49,no=50,missing=49
					49:leaf=0.142995164
					50:[realage<27] yes=83,no=84,missing=83
						83:leaf=0.0787005052
						84:leaf=-0.113359571
		6:[realage<31.5] yes=13,no=14,missing=13
			13:[usex<0.5] yes=27,no=28,missing=27
				27:[udu29<34375] yes=51,no=52,missing=51
					51:[ucnt9<184] yes=85,no=86,missing=85
						85:leaf=0.130600363
						86:[ucnt13<393] yes=133,no=134,missing=133
							133:leaf=-0.0948000625
							134:leaf=0.0737073049
					52:leaf=-0.0814232826
				28:[ucnt1<25] yes=53,no=54,missing=53
					53:[udu29<54227] yes=87,no=88,missing=87
						87:[realage<22.5] yes=135,no=136,missing=135
							135:[udu29<1030] yes=195,no=196,missing=195
								195:leaf=0.0940022394
								196:leaf=-0.0940314606
							136:[ucnt7<231] yes=197,no=198,missing=197
								197:leaf=-0.126235411
								198:leaf=-0.00921775308
						88:leaf=0.0452795438
					54:[tdays<203.5] yes=89,no=90,missing=89
						89:[udu15<86924] yes=137,no=138,missing=137
							137:[udu2<89] yes=199,no=200,missing=199
								199:leaf=-0.0612928383
								200:leaf=-0.140697911
							138:leaf=0.0438802429
						90:[CASE WHEN a.22 = 'True' THEN 1 ELSE 0 END<1] yes=139,no=140,missing=139
							139:[udu14<1] yes=201,no=202,missing=201
								201:leaf=0.0634693801
								202:leaf=-0.0670173839
							140:[udu26<64582] yes=203,no=204,missing=203
								203:leaf=-0.129843667
								204:leaf=-0.0926877111
			14:[ucnt25<1461] yes=29,no=30,missing=29
				29:[realage<44.5] yes=55,no=56,missing=55
					55:[udu27<55802] yes=91,no=92,missing=91
						91:[udu4<73626] yes=141,no=142,missing=141
							141:[udu10<4620] yes=205,no=206,missing=205
								205:leaf=-0.117318235
								206:leaf=-0.143213913
							142:leaf=0.00528920256
						92:[udu27<56376] yes=143,no=144,missing=143
							143:[udu7<49668] yes=207,no=208,missing=207
								207:leaf=-0.0619969442
								208:leaf=0.136387572
							144:[udu5<19413] yes=209,no=210,missing=209
								209:leaf=0.0508229993
								210:leaf=-0.131012484
					56:[udu29<69495] yes=93,no=94,missing=93
						93:[ucnt15<1188] yes=145,no=146,missing=145
							145:[ucnt22<1079] yes=211,no=212,missing=211
								211:leaf=-0.150807813
								212:leaf=-0.0442994684
							146:leaf=-0.00782315526
						94:leaf=-0.0117251882
				30:leaf=-0.00455098227
booster[4]:
0:[ucnt10<6] yes=1,no=2,missing=1
	1:[udu8<2575] yes=3,no=4,missing=3
		3:[realage<20.5] yes=7,no=8,missing=7
			7:[ucnt24<22] yes=15,no=16,missing=15
				15:[ucnt22<28] yes=29,no=30,missing=29
					29:leaf=0.144463375
					30:leaf=0.01306195
				16:leaf=-0.0854012445
			8:[ucnt2<13] yes=17,no=18,missing=17
				17:[udu25<14867] yes=31,no=32,missing=31
					31:[udu22<157] yes=55,no=56,missing=55
						55:[tdays<103.5] yes=93,no=94,missing=93
							93:[udu5<1639] yes=147,no=148,missing=147
								147:leaf=-0.0595208369
								148:leaf=0.0685412213
							94:[ucnt25<1] yes=149,no=150,missing=149
								149:leaf=0.0737970248
								150:leaf=-0.0272759385
						56:[ucnt18<34] yes=95,no=96,missing=95
							95:[ucnt27<55] yes=151,no=152,missing=151
								151:leaf=-0.0966921896
								152:leaf=0.00997615047
							96:[ucnt4<1] yes=153,no=154,missing=153
								153:leaf=0.105294742
								154:leaf=-0.0181026068
					32:[udu29<6594] yes=57,no=58,missing=57
						57:leaf=-0.0201466773
						58:[udu3<2714] yes=97,no=98,missing=97
							97:leaf=0.144975051
							98:leaf=-0.0106516676
				18:[ucnt13<7] yes=33,no=34,missing=33
					33:[CASE WHEN a.4 = 'True' THEN 1 ELSE 0 END<1] yes=59,no=60,missing=59
						59:[ucnt2<25] yes=99,no=100,missing=99
							99:leaf=-0.0236139987
							100:leaf=-0.118224464
						60:[udu7<139] yes=101,no=102,missing=101
							101:[tdays<26] yes=155,no=156,missing=155
								155:leaf=-0.0501089804
								156:leaf=0.0991330668
							102:[ucnt12<13] yes=157,no=158,missing=157
								157:leaf=-0.0864400715
								158:leaf=0.0314452462
					34:[udu2<30990] yes=61,no=62,missing=61
						61:[udu20<3213] yes=103,no=104,missing=103
							103:[udu15<1297] yes=159,no=160,missing=159
								159:leaf=-0.115604065
								160:leaf=0.0199062135
							104:leaf=-0.148200914
						62:leaf=0.0374330804
		4:[udu27<53043] yes=9,no=10,missing=9
			9:[ucnt9<277] yes=19,no=20,missing=19
				19:[tdays<157] yes=35,no=36,missing=35
					35:[ucnt13<1] yes=63,no=64,missing=63
						63:[udu1<1234] yes=105,no=106,missing=105
							105:leaf=0.0272494685
							106:leaf=-0.108145796
						64:[udu18<41440] yes=107,no=108,missing=107
							107:leaf=-0.145743832
							108:leaf=-0.010379618
					36:[realage<46] yes=65,no=66,missing=65
						65:[tdays<215.5] yes=109,no=110,missing=109
							109:[ucnt8<58] yes=161,no=162,missing=161
								161:leaf=-0.042015668
								162:leaf=0.112098373
							110:[CASE WHEN a.30 = 'True' THEN 1 ELSE 0 END<1] yes=163,no=164,missing=163
								163:leaf=0.0678922608
								164:leaf=-0.0967285261
						66:leaf=-0.136276409
				20:[udu2<29040] yes=37,no=38,missing=37
					37:[tdays<76.5] yes=67,no=68,missing=67
						67:[udu26<8922] yes=111,no=112,missing=111
							111:leaf=-0.00501138903
							112:leaf=-0.087905705
						68:[ucnt19<369] yes=113,no=114,missing=113
							113:leaf=0.165041208
							114:leaf=0.0182230137
					38:leaf=-0.125526533
			10:leaf=0.0772023126
	2:[realage<31.5] yes=5,no=6,missing=5
		5:[udu1<1220] yes=11,no=12,missing=11
			11:[realage<20.5] yes=21,no=22,missing=21
				21:[realage<19.5] yes=39,no=40,missing=39
					39:[uage<0.5] yes=69,no=70,missing=69
						69:leaf=0.0668135285
						70:[ucnt24<510] yes=115,no=116,missing=115
							115:[ucnt22<11] yes=165,no=166,missing=165
								165:leaf=-0.0434223935
								166:leaf=-0.142140135
							116:leaf=0.00491815945
					40:[ucnt17<159] yes=71,no=72,missing=71
						71:leaf=0.161596686
						72:leaf=-0.0484176688
				22:[udu24<20884] yes=41,no=42,missing=41
					41:[udu2<10552] yes=73,no=74,missing=73
						73:[udu25<2227] yes=117,no=118,missing=117
							117:[udu21<403] yes=167,no=168,missing=167
								167:leaf=-0.113777719
								168:leaf=-0.041372288
							118:[tdays<37.5] yes=169,no=170,missing=169
								169:leaf=0.0050608865
								170:leaf=-0.133812785
						74:[ucnt11<59] yes=119,no=120,missing=119
							119:[udu17<6673] yes=171,no=172,missing=171
								171:leaf=-0.0747475475
								172:leaf=0.140881643
							120:[ucnt22<40] yes=173,no=174,missing=173
								173:leaf=-0.00126117782
								174:leaf=-0.128504217
					42:[udu27<19830] yes=75,no=76,missing=75
						75:[udu18<13776] yes=121,no=122,missing=121
							121:leaf=0.169773445
							122:leaf=-0.0221139397
						76:[tdays<92.5] yes=123,no=124,missing=123
							123:leaf=0.0429764092
							124:[udu1<705] yes=175,no=176,missing=175
								175:leaf=-0.120949052
								176:leaf=-0.00056861405
			12:[ucnt8<4] yes=23,no=24,missing=23
				23:[ucnt10<12] yes=43,no=44,missing=43
					43:[ucnt9<1] yes=77,no=78,missing=77
						77:[udu1<3796] yes=125,no=126,missing=125
							125:leaf=0.025335988
							126:leaf=0.129047692
						78:leaf=-0.0895924196
					44:[tdays<14.5] yes=79,no=80,missing=79
						79:[udu1<3964] yes=127,no=128,missing=127
							127:[ucnt4<17] yes=177,no=178,missing=177
								177:leaf=0.00218010414
								178:leaf=-0.106419384
							128:leaf=-0.127784953
						80:[udu29<1750] yes=129,no=130,missing=129
							129:[udu15<1258] yes=179,no=180,missing=179
								179:leaf=-0.0584905222
								180:leaf=0.0469597541
							130:[CASE WHEN a.11 = 'True' THEN 1 ELSE 0 END<1] yes=181,no=182,missing=181
								181:leaf=-0.0202992577
								182:leaf=-0.119833075
				24:[usex<0.5] yes=45,no=46,missing=45
					45:[udu20<13277] yes=81,no=82,missing=81
						81:leaf=0.120250523
						82:[udu15<39757] yes=131,no=132,missing=131
							131:leaf=-0.135052621
							132:leaf=0.0349772833
					46:[tdays<236.5] yes=83,no=84,missing=83
						83:[ucnt9<1651] yes=133,no=134,missing=133
							133:[ucnt25<1697] yes=183,no=184,missing=183
								183:leaf=-0.129596621
								184:leaf=0.00999371242
							134:leaf=0.0107908687
						84:[udu21<46] yes=135,no=136,missing=135
							135:[udu22<3401] yes=185,no=186,missing=185
								185:leaf=-0.017182244
								186:leaf=-0.113318942
							136:[realage<15.5] yes=187,no=188,missing=187
								187:leaf=0.0293096341
								188:leaf=-0.117781423
		6:[ucnt4<27] yes=13,no=14,missing=13
			13:[udu22<38264] yes=25,no=26,missing=25
				25:[udu11<41754] yes=47,no=48,missing=47
					47:[ucnt23<108] yes=85,no=86,missing=85
						85:[ucnt25<4] yes=137,no=138,missing=137
							137:[ucnt10<36] yes=189,no=190,missing=189
								189:leaf=-0.0243383758
								190:leaf=-0.127578482
							138:[CASE WHEN a.17 = 'True' THEN 1 ELSE 0 END<1] yes=191,no=192,missing=191
								191:leaf=-0.0175546017
								192:leaf=-0.134192422
						86:[udu18<3893] yes=139,no=140,missing=139
							139:[ucnt9<17] yes=193,no=194,missing=193
								193:leaf=-0.0490103997
								194:leaf=0.123781979
							140:[uage<5.5] yes=195,no=196,missing=195
								195:leaf=-0.0412316546
								196:leaf=-0.135703713
					48:leaf=0.0163684357
				26:[udu7<4461] yes=49,no=50,missing=49
					49:leaf=0.104380742
					50:[realage<36] yes=87,no=88,missing=87
						87:leaf=0.0579189733
						88:leaf=-0.119685985
			14:[udu8<77018] yes=27,no=28,missing=27
				27:[ucnt8<779] yes=51,no=52,missing=51
					51:[udu18<82232] yes=89,no=90,missing=89
						89:[ucnt17<1087] yes=141,no=142,missing=141
							141:[tdays<207.5] yes=197,no=198,missing=197
								197:leaf=-0.142927989
								198:leaf=-0.135054395
							142:[ucnt17<1134] yes=199,no=200,missing=199
								199:leaf=0.0555589199
								200:leaf=-0.0850213617
						90:leaf=0.0114477603
					52:[udu8<51685] yes=91,no=92,missing=91
						91:[tdays<325.5] yes=143,no=144,missing=143
							143:[udu27<49732] yes=201,no=202,missing=201
								201:leaf=-0.137775049
								202:leaf=-0.0426028371
							144:leaf=-0.00534184044
						92:[udu5<53354] yes=145,no=146,missing=145
							145:[ucnt13<585] yes=203,no=204,missing=203
								203:leaf=-0.000695234747
								204:leaf=0.157259718
							146:leaf=-0.0959333926
				28:[udu15<56443] yes=53,no=54,missing=53
					53:leaf=0.070223026
					54:leaf=-0.087274842
booster[5]:
0:[ucnt10<11] yes=1,no=2,missing=1
	1:[udu23<87] yes=3,no=4,missing=3
		3:[uage<2.5] yes=7,no=8,missing=7
			7:[CASE WHEN a.29 = 'True' THEN 1 ELSE 0 END<1] yes=15,no=16,missing=15
				15:[uage<1.5] yes=31,no=32,missing=31
					31:leaf=-0.012904319
					32:[ucnt4<76] yes=57,no=58,missing=57
						57:[tdays<4] yes=105,no=106,missing=105
							105:leaf=0.046210371
							106:leaf=0.142074764
						58:leaf=-0.00254308782
				16:[udu5<132] yes=33,no=34,missing=33
					33:[ucnt6<1] yes=59,no=60,missing=59
						59:leaf=-0.0137063358
						60:leaf=-0.107989542
					34:leaf=0.0835371092
			8:[tdays<58.5] yes=17,no=18,missing=17
				17:[CASE WHEN a.11 = 'True' THEN 1 ELSE 0 END<1] yes=35,no=36,missing=35
					35:[ucnt1<1] yes=61,no=62,missing=61
						61:leaf=-0.126522422
						62:[ucnt1<59] yes=107,no=108,missing=107
							107:[ucnt1<13] yes=167,no=168,missing=167
								167:leaf=0.00769541785
								168:leaf=0.140894219
							108:[ucnt1<98] yes=169,no=170,missing=169
								169:leaf=-0.00219808845
								170:leaf=-0.0963236392
					36:[ucnt10<2] yes=63,no=64,missing=63
						63:[ucnt21<1] yes=109,no=110,missing=109
							109:[ucnt20<34] yes=171,no=172,missing=171
								171:leaf=-0.150969461
								172:leaf=-0.0450570136
							110:leaf=-0.0183387715
						64:[udu14<285] yes=111,no=112,missing=111
							111:[ucnt8<18] yes=173,no=174,missing=173
								173:leaf=-0.0337049514
								174:leaf=0.11413952
							112:leaf=-0.118228786
				18:[ucnt2<12] yes=37,no=38,missing=37
					37:[ucnt2<4] yes=65,no=66,missing=65
						65:[CASE WHEN a.14 = 'True' THEN 1 ELSE 0 END<1] yes=113,no=114,missing=113
							113:[udu1<620] yes=175,no=176,missing=175
								175:leaf=0.103785358
								176:leaf=-0.0198013987
							114:[udu29<320] yes=177,no=178,missing=177
								177:leaf=-0.000253551319
								178:leaf=-0.0927571803
						66:[udu11<471] yes=115,no=116,missing=115
							115:[udu2<80] yes=179,no=180,missing=179
								179:leaf=-0.00509141153
								180:leaf=0.159201354
							116:[ucnt14<12] yes=181,no=182,missing=181
								181:leaf=-0.0687293783
								182:leaf=0.0615695827
					38:[udu18<14076] yes=67,no=68,missing=67
						67:[ucnt9<7] yes=117,no=118,missing=117
							117:[ucnt13<5] yes=183,no=184,missing=183
								183:leaf=0.0318584703
								184:leaf=-0.115941398
							118:[ucnt16<79] yes=185,no=186,missing=185
								185:leaf=-0.144440845
								186:leaf=-0.00756784482
						68:leaf=0.0995585546
		4:[uage<3.5] yes=9,no=10,missing=9
			9:[ucnt23<14] yes=19,no=20,missing=19
				19:leaf=0.130097121
				20:[ucnt27<225] yes=39,no=40,missing=39
					39:[ucnt14<21] yes=69,no=70,missing=69
						69:[ucnt8<10] yes=119,no=120,missing=119
							119:[tdays<216.5] yes=187,no=188,missing=187
								187:leaf=0.106380954
								188:leaf=-0.0861914903
							120:leaf=-0.131401524
						70:[ucnt1<6] yes=121,no=122,missing=121
							121:leaf=0.117342405
							122:[ucnt8<213] yes=189,no=190,missing=189
								189:leaf=-0.0556188226
								190:leaf=0.0835512951
					40:[udu27<54068] yes=71,no=72,missing=71
						71:leaf=-0.137024209
						72:leaf=0.0388124287
			10:[udu2<4] yes=21,no=22,missing=21
				21:[ucnt12<17] yes=41,no=42,missing=41
					41:[udu21<144] yes=73,no=74,missing=73
						73:[udu18<17] yes=123,no=124,missing=123
							123:leaf=0.105974257
							124:leaf=-0.0782575756
						74:[ucnt23<126] yes=125,no=126,missing=125
							125:[tdays<300.5] yes=191,no=192,missing=191
								191:leaf=-0.149918005
								192:leaf=-0.0179955177
							126:leaf=0.0336016193
					42:[udu3<3365] yes=75,no=76,missing=75
						75:[ucnt4<28] yes=127,no=128,missing=127
							127:[ucnt23<16] yes=193,no=194,missing=193
								193:leaf=-0.0210108012
								194:leaf=0.131678566
							128:leaf=-0.0660093427
						76:[ucnt4<50] yes=129,no=130,missing=129
							129:leaf=-0.104509406
							130:leaf=-0.0044427393
				22:[udu28<27513] yes=43,no=44,missing=43
					43:[ucnt29<3] yes=77,no=78,missing=77
						77:[ucnt18<13] yes=131,no=132,missing=131
							131:[udu24<1407] yes=195,no=196,missing=195
								195:leaf=-0.063669771
								196:leaf=0.0906317756
							132:[ucnt1<47] yes=197,no=198,missing=197
								197:leaf=-0.11844746
								198:leaf=-0.00874361955
						78:[ucnt1<1] yes=133,no=134,missing=133
							133:[ucnt12<33] yes=199,no=200,missing=199
								199:leaf=-0.11975006
								200:leaf=0.0179638602
							134:[ucnt26<251] yes=201,no=202,missing=201
								201:leaf=-0.131256923
								202:leaf=-0.0465806797
					44:[udu4<2581] yes=79,no=80,missing=79
						79:[udu3<1304] yes=135,no=136,missing=135
							135:leaf=-0.0171913821
							136:leaf=0.126201391
						80:[udu23<64075] yes=137,no=138,missing=137
							137:[ucnt21<4] yes=203,no=204,missing=203
								203:leaf=0.0328149609
								204:leaf=-0.0894745514
							138:leaf=0.0700908527
	2:[ucnt1<7] yes=5,no=6,missing=5
		5:[ucnt10<40] yes=11,no=12,missing=11
			11:[uage<4.5] yes=23,no=24,missing=23
				23:[ucnt2<30] yes=45,no=46,missing=45
					45:[ucnt1<6] yes=81,no=82,missing=81
						81:[udu15<38] yes=139,no=140,missing=139
							139:[ucnt1<2] yes=205,no=206,missing=205
								205:leaf=0.0478497669
								206:leaf=-0.0848771706
							140:[udu20<4681] yes=207,no=208,missing=207
								207:leaf=0.177131131
								208:leaf=0.0286608674
						82:leaf=-0.080178678
					46:[CASE WHEN a.11 = 'True' THEN 1 ELSE 0 END<1] yes=83,no=84,missing=83
						83:leaf=-0.00615246734
						84:leaf=-0.108573988
				24:[ucnt5<1] yes=47,no=48,missing=47
					47:[udu25<3] yes=85,no=86,missing=85
						85:leaf=-0.0465433188
						86:leaf=0.0950879976
					48:[ucnt20<81] yes=87,no=88,missing=87
						87:[udu11<25] yes=141,no=142,missing=141
							141:leaf=-0.0138966413
							142:[CASE WHEN a.24 = 'True' THEN 1 ELSE 0 END<1] yes=209,no=210,missing=209
								209:leaf=-0.0243104491
								210:leaf=-0.139647275
						88:leaf=0.0283124
			12:[udu15<52297] yes=25,no=26,missing=25
				25:[tdays<275] yes=49,no=50,missing=49
					49:[udu29<48964] yes=89,no=90,missing=89
						89:[uage<2.5] yes=143,no=144,missing=143
							143:[ucnt14<305] yes=211,no=212,missing=211
								211:leaf=-0.0905817971
								212:leaf=0.0189738926
							144:[udu15<44972] yes=213,no=214,missing=213
								213:leaf=-0.129862309
								214:leaf=-0.0359508023
						90:leaf=-0.00120445027
					50:[ucnt15<20] yes=91,no=92,missing=91
						91:leaf=0.0816919431
						92:[uage<5.5] yes=145,no=146,missing=145
							145:leaf=-0.119706593
							146:[ucnt17<62] yes=215,no=216,missing=215
								215:leaf=-0.0753092542
								216:leaf=0.079596445
				26:leaf=0.072233662
		6:[uage<5.5] yes=13,no=14,missing=13
			13:[udu6<1522] yes=27,no=28,missing=27
				27:[udu24<33138] yes=51,no=52,missing=51
					51:[uage<2.5] yes=93,no=94,missing=93
						93:[ucnt10<360] yes=147,no=148,missing=147
							147:[udu14<3275] yes=217,no=218,missing=217
								217:leaf=0.0358827971
								218:leaf=-0.118389204
							148:[ucnt4<260] yes=219,no=220,missing=219
								219:leaf=-0.131591395
								220:leaf=-0.0545766912
						94:[udu1<3436] yes=149,no=150,missing=149
							149:[ucnt2<89] yes=221,no=222,missing=221
								221:leaf=-0.093050018
								222:leaf=0.00554452278
							150:[ucnt8<367] yes=223,no=224,missing=223
								223:leaf=-0.120300308
								224:leaf=0.0155873103
					52:[ucnt4<32] yes=95,no=96,missing=95
						95:[ucnt28<35] yes=151,no=152,missing=151
							151:leaf=0.0445823818
							152:leaf=0.156786859
						96:[ucnt18<387] yes=153,no=154,missing=153
							153:[ucnt4<151] yes=225,no=226,missing=225
								225:leaf=-0.0327627435
								226:leaf=-0.115393452
							154:leaf=0.0576347485
				28:[tdays<234.5] yes=53,no=54,missing=53
					53:[ucnt10<1095] yes=97,no=98,missing=97
						97:[udu28<1601] yes=155,no=156,missing=155
							155:[uage<2.5] yes=227,no=228,missing=227
								227:leaf=-0.0768925622
								228:leaf=-0.120203398
							156:[ucnt15<1274] yes=229,no=230,missing=229
								229:leaf=-0.127607614
								230:leaf=-0.026276594
						98:[udu1<31846] yes=157,no=158,missing=157
							157:[udu24<39753] yes=231,no=232,missing=231
								231:leaf=-0.0624057241
								232:leaf=0.12873064
							158:[udu2<63712] yes=233,no=234,missing=233
								233:leaf=-0.114642553
								234:leaf=0.0132912742
					54:[ucnt20<1] yes=99,no=100,missing=99
						99:[udu1<50813] yes=159,no=160,missing=159
							159:[tdays<309.5] yes=235,no=236,missing=235
								235:leaf=-0.114453666
								236:leaf=0.0150540536
							160:[tdays<287] yes=237,no=238,missing=237
								237:leaf=0.157456577
								238:leaf=0.0178332925
						100:[ucnt18<1] yes=161,no=162,missing=161
							161:[ucnt15<17] yes=239,no=240,missing=239
								239:leaf=0.0923416615
								240:leaf=-0.0889185593
							162:[uage<0.5] yes=241,no=242,missing=241
								241:leaf=0.0170100015
								242:leaf=-0.112374701
			14:[udu21<85271] yes=29,no=30,missing=29
				29:[ucnt15<1262] yes=55,no=56,missing=55
					55:[udu1<202] yes=101,no=102,missing=101
						101:[udu21<128] yes=163,no=164,missing=163
							163:leaf=0.05640487
							164:leaf=-0.0954854935
						102:[udu26<54635] yes=165,no=166,missing=165
							165:[udu23<80199] yes=243,no=244,missing=243
								243:leaf=-0.132143721
								244:leaf=-0.0269073788
							166:[udu12<25973] yes=245,no=246,missing=245
								245:leaf=0.000162144468
								246:leaf=-0.116524614
					56:[udu1<32867] yes=103,no=104,missing=103
						103:leaf=-0.0918953866
						104:leaf=0.0870259628
				30:leaf=0.0296494849
booster[6]:
0:[ucnt10<11] yes=1,no=2,missing=1
	1:[uage<3.5] yes=3,no=4,missing=3
		3:[ucnt24<22] yes=7,no=8,missing=7
			7:[ucnt22<51] yes=15,no=16,missing=15
				15:[tdays<277.5] yes=29,no=30,missing=29
					29:[udu10<70] yes=53,no=54,missing=53
						53:[ucnt10<6] yes=93,no=94,missing=93
							93:[ucnt15<2] yes=155,no=156,missing=155
								155:leaf=0.0415060781
								156:leaf=0.141247198
							94:leaf=-0.0704577863
						54:leaf=0.143759668
					30:[udu2<170] yes=55,no=56,missing=55
						55:leaf=-0.0813652351
						56:leaf=0.0634855703
				16:leaf=-0.0801932216
			8:[ucnt3<2] yes=17,no=18,missing=17
				17:[ucnt18<10] yes=31,no=32,missing=31
					31:leaf=-0.0985167623
					32:[udu14<29264] yes=57,no=58,missing=57
						57:leaf=0.132283956
						58:leaf=0.0224532317
				18:[udu10<3266] yes=33,no=34,missing=33
					33:[udu19<1116] yes=59,no=60,missing=59
						59:leaf=0.0298803486
						60:[ucnt27<575] yes=95,no=96,missing=95
							95:leaf=-0.144229293
							96:leaf=0.0277742725
					34:leaf=0.0714058205
		4:[udu3<44] yes=9,no=10,missing=9
			9:[tdays<116.5] yes=19,no=20,missing=19
				19:[uage<6.5] yes=35,no=36,missing=35
					35:[udu12<9900] yes=61,no=62,missing=61
						61:[CASE WHEN a.29 = 'True' THEN 1 ELSE 0 END<1] yes=97,no=98,missing=97
							97:[tdays<62] yes=157,no=158,missing=157
								157:leaf=-0.0674015284
								158:leaf=0.0648818612
							98:[udu19<4819] yes=159,no=160,missing=159
								159:leaf=-0.138737217
								160:leaf=-0.0150739299
						62:leaf=0.0347782522
					36:[ucnt10<1] yes=63,no=64,missing=63
						63:[tdays<33.5] yes=99,no=100,missing=99
							99:leaf=-0.0919256359
							100:leaf=0.0713367984
						64:leaf=0.0940240696
				20:[ucnt8<1] yes=37,no=38,missing=37
					37:[udu27<6176] yes=65,no=66,missing=65
						65:[udu25<570] yes=101,no=102,missing=101
							101:[ucnt18<1] yes=161,no=162,missing=161
								161:leaf=0.0280940384
								162:leaf=0.147778407
							102:[udu29<1528] yes=163,no=164,missing=163
								163:leaf=-0.119322062
								164:leaf=-0.003033282
						66:[tdays<173.5] yes=103,no=104,missing=103
							103:leaf=0.0492882729
							104:leaf=0.150534108
					38:[udu18<1653] yes=67,no=68,missing=67
						67:[CASE WHEN a.3 = 'True' THEN 1 ELSE 0 END<1] yes=105,no=106,missing=105
							105:[udu1<667] yes=165,no=166,missing=165
								165:leaf=0.100347541
								166:leaf=-0.0407452397
							106:[ucnt13<36] yes=167,no=168,missing=167
								167:leaf=-0.104083613
								168:leaf=0.022430189
						68:[udu12<4606] yes=107,no=108,missing=107
							107:[udu15<617] yes=169,no=170,missing=169
								169:leaf=-0.00863837171
								170:leaf=0.130400479
							108:[udu15<21049] yes=171,no=172,missing=171
								171:leaf=-0.0967228785
								172:leaf=0.0279211234
			10:[udu29<8] yes=21,no=22,missing=21
				21:[ucnt6<36] yes=39,no=40,missing=39
					39:[CASE WHEN a.29 = 'True' THEN 1 ELSE 0 END<1] yes=69,no=70,missing=69
						69:[ucnt11<3] yes=109,no=110,missing=109
							109:[tdays<4.5] yes=173,no=174,missing=173
								173:leaf=-0.107158087
								174:leaf=0.0494622998
							110:[ucnt13<66] yes=175,no=176,missing=175
								175:leaf=-0.10326723
								176:leaf=0.0536818504
						70:[tdays<187.5] yes=111,no=112,missing=111
							111:[udu4<34] yes=177,no=178,missing=177
								177:leaf=-0.0621517673
								178:leaf=0.12591897
							112:[ucnt13<20] yes=179,no=180,missing=179
								179:leaf=-0.0660940409
								180:leaf=0.0966296196
					40:[udu2<26918] yes=71,no=72,missing=71
						71:[ucnt18<223] yes=113,no=114,missing=113
							113:leaf=-0.141506702
							114:leaf=-0.0438737422
						72:leaf=-0.0174604859
				22:[udu8<18116] yes=41,no=42,missing=41
					41:[CASE WHEN a.15 = 'True' THEN 1 ELSE 0 END<1] yes=73,no=74,missing=73
						73:[ucnt28<13] yes=115,no=116,missing=115
							115:leaf=0.113651924
							116:leaf=-0.0966604277
						74:[udu29<26493] yes=117,no=118,missing=117
							117:[udu3<1953] yes=181,no=182,missing=181
								181:leaf=-0.0910096392
								182:leaf=-0.132273927
							118:[udu14<3366] yes=183,no=184,missing=183
								183:leaf=0.0782841966
								184:leaf=-0.0870910212
					42:[udu1<13093] yes=75,no=76,missing=75
						75:[uage<5.5] yes=119,no=120,missing=119
							119:[udu12<14292] yes=185,no=186,missing=185
								185:leaf=-0.0129625378
								186:leaf=0.138710558
							120:[ucnt24<44] yes=187,no=188,missing=187
								187:leaf=0.0228141509
								188:leaf=-0.113631807
						76:[udu15<12121] yes=121,no=122,missing=121
							121:leaf=0.0137939556
							122:leaf=-0.133375272
	2:[uage<5.5] yes=5,no=6,missing=5
		5:[ucnt5<7] yes=11,no=12,missing=11
			11:[usex<0.5] yes=23,no=24,missing=23
				23:[ucnt1<212] yes=43,no=44,missing=43
					43:leaf=0.10118065
					44:leaf=-0.0258328225
				24:[ucnt10<36] yes=45,no=46,missing=45
					45:[udu6<5452] yes=77,no=78,missing=77
						77:[uage<3.5] yes=123,no=124,missing=123
							123:[ucnt10<29] yes=189,no=190,missing=189
								189:leaf=0.0969144925
								190:leaf=-0.0477305576
							124:[ucnt22<87] yes=191,no=192,missing=191
								191:leaf=-0.0739700794
								192:leaf=0.104701556
						78:[udu11<17396] yes=125,no=126,missing=125
							125:[ucnt22<1] yes=193,no=194,missing=193
								193:leaf=0.0314219892
								194:leaf=0.159249648
							126:leaf=-0.043963816
					46:[tdays<257.5] yes=79,no=80,missing=79
						79:[udu2<49144] yes=127,no=128,missing=127
							127:[udu10<49889] yes=195,no=196,missing=195
								195:leaf=-0.105333231
								196:leaf=-0.0303376447
							128:leaf=-0.0206144806
						80:[udu25<26589] yes=129,no=130,missing=129
							129:[udu29<5777] yes=197,no=198,missing=197
								197:leaf=0.0224326532
								198:leaf=-0.120928705
							130:[ucnt27<447] yes=199,no=200,missing=199
								199:leaf=0.173495814
								200:leaf=-0.042666696
			12:[udu1<180] yes=25,no=26,missing=25
				25:[ucnt15<19] yes=47,no=48,missing=47
					47:[tdays<131.5] yes=81,no=82,missing=81
						81:[ucnt2<7] yes=131,no=132,missing=131
							131:leaf=0.0332467519
							132:leaf=-0.11014612
						82:[ucnt22<31] yes=133,no=134,missing=133
							133:[ucnt17<1] yes=201,no=202,missing=201
								201:leaf=0.00945473649
								202:leaf=0.156728849
							134:leaf=-0.0325736552
					48:[ucnt7<232] yes=83,no=84,missing=83
						83:[udu11<178] yes=135,no=136,missing=135
							135:leaf=0.0548004583
							136:[ucnt16<11] yes=203,no=204,missing=203
								203:leaf=-0.0208041016
								204:leaf=-0.130576476
						84:[ucnt24<315] yes=137,no=138,missing=137
							137:[ucnt2<268] yes=205,no=206,missing=205
								205:leaf=0.127411172
								206:leaf=0.0344852172
							138:[udu4<29846] yes=207,no=208,missing=207
								207:leaf=-7.51785919e-05
								208:leaf=-0.110405527
				26:[usex<1.5] yes=49,no=50,missing=49
					49:[ucnt24<3] yes=85,no=86,missing=85
						85:[tdays<25.5] yes=139,no=140,missing=139
							139:[uage<2.5] yes=209,no=210,missing=209
								209:leaf=-0.0493954904
								210:leaf=-0.126704842
							140:[ucnt20<266] yes=211,no=212,missing=211
								211:leaf=-0.022547951
								212:leaf=-0.115582444
						86:[ucnt22<1148] yes=141,no=142,missing=141
							141:[udu11<203] yes=213,no=214,missing=213
								213:leaf=-0.07259278
								214:leaf=-0.109028392
							142:[udu29<69394] yes=215,no=216,missing=215
								215:leaf=-0.0600928478
								216:leaf=0.108950377
					50:[udu7<1797] yes=87,no=88,missing=87
						87:[udu22<5161] yes=143,no=144,missing=143
							143:[udu23<20228] yes=217,no=218,missing=217
								217:leaf=-0.126755327
								218:leaf=-0.023732638
							144:[udu2<7413] yes=219,no=220,missing=219
								219:leaf=0.0536013916
								220:leaf=-0.0702536106
						88:[ucnt7<1357] yes=145,no=146,missing=145
							145:[udu7<82647] yes=221,no=222,missing=221
								221:leaf=-0.123169437
								222:leaf=-0.00766123552
							146:[ucnt28<1234] yes=223,no=224,missing=223
								223:leaf=-0.0855049416
								224:leaf=0.0711446255
		6:[ucnt25<1433] yes=13,no=14,missing=13
			13:[udu20<80182] yes=27,no=28,missing=27
				27:[ucnt28<623] yes=51,no=52,missing=51
					51:[ucnt22<893] yes=89,no=90,missing=89
						89:[udu3<5643] yes=147,no=148,missing=147
							147:[udu19<36980] yes=225,no=226,missing=225
								225:leaf=-0.117398277
								226:leaf=-0.0204749703
							148:[ucnt6<227] yes=227,no=228,missing=227
								227:leaf=-0.129492953
								228:leaf=-0.120713353
						90:[ucnt27<660] yes=149,no=150,missing=149
							149:leaf=-0.102140009
							150:leaf=0.0206409562
					52:[ucnt6<469] yes=91,no=92,missing=91
						91:[ucnt7<337] yes=151,no=152,missing=151
							151:[tdays<291.5] yes=229,no=230,missing=229
								229:leaf=-0.122329794
								230:leaf=-0.0116705317
							152:[udu29<34277] yes=231,no=232,missing=231
								231:leaf=-0.0795952603
								232:leaf=0.122971766
						92:[udu18<55927] yes=153,no=154,missing=153
							153:[ucnt1<216] yes=233,no=234,missing=233
								233:leaf=-0.0274262112
								234:leaf=-0.131414637
							154:[udu11<63382] yes=235,no=236,missing=235
								235:leaf=0.0616331175
								236:leaf=-0.0976226777
				28:leaf=0.0290228408
			14:leaf=0.0671615228
booster[7]:
0:[ucnt10<11] yes=1,no=2,missing=1
	1:[ucnt3<4] yes=3,no=4,missing=3
		3:[udu13<11194] yes=7,no=8,missing=7
			7:[udu29<115] yes=15,no=16,missing=15
				15:[ucnt10<1] yes=29,no=30,missing=29
					29:[ucnt14<3] yes=53,no=54,missing=53
						53:[ucnt15<4] yes=93,no=94,missing=93
							93:[udu11<74] yes=145,no=146,missing=145
								145:leaf=0.00717987586
								146:leaf=-0.10181991
							94:[CASE WHEN a.4 = 'True' THEN 1 ELSE 0 END<1] yes=147,no=148,missing=147
								147:leaf=-0.0258675423
								148:leaf=0.119879678
						54:[udu6<2201] yes=95,no=96,missing=95
							95:[CASE WHEN a.16 = 'True' THEN 1 ELSE 0 END<1] yes=149,no=150,missing=149
								149:leaf=-0.0292935055
								150:leaf=-0.137483537
							96:leaf=0.028173143
					30:[CASE WHEN a.25 = 'True' THEN 1 ELSE 0 END<1] yes=55,no=56,missing=55
						55:[udu2<712] yes=97,no=98,missing=97
							97:[udu12<2814] yes=151,no=152,missing=151
								151:leaf=0.142060027
								152:leaf=0.0205778461
							98:leaf=0.01985218
						56:[ucnt25<3] yes=99,no=100,missing=99
							99:[udu18<27] yes=153,no=154,missing=153
								153:leaf=0.030101493
								154:leaf=-0.104741111
							100:leaf=0.0844025314
				16:[CASE WHEN a.8 = 'True' THEN 1 ELSE 0 END<1] yes=31,no=32,missing=31
					31:[ucnt17<6] yes=57,no=58,missing=57
						57:[CASE WHEN a.15 = 'True' THEN 1 ELSE 0 END<1] yes=101,no=102,missing=101
							101:leaf=0.0284310915
							102:leaf=0.112242162
						58:leaf=-0.0611203089
					32:[udu16<27941] yes=59,no=60,missing=59
						59:[ucnt19<11] yes=103,no=104,missing=103
							103:[udu21<485] yes=155,no=156,missing=155
								155:leaf=-0.102715194
								156:leaf=-0.00516662141
							104:[udu9<8416] yes=157,no=158,missing=157
								157:leaf=-0.138571128
								158:leaf=-0.0312379785
						60:leaf=0.0914189145
			8:[tdays<322.5] yes=17,no=18,missing=17
				17:[ucnt19<1] yes=33,no=34,missing=33
					33:leaf=-0.050852824
					34:[ucnt21<295] yes=61,no=62,missing=61
						61:[ucnt14<4] yes=105,no=106,missing=105
							105:leaf=-0.00785105489
							106:[udu26<44515] yes=159,no=160,missing=159
								159:leaf=0.163283423
								160:leaf=0.047723107
						62:leaf=-0.0251716059
				18:leaf=-0.0484871417
		4:[udu18<88] yes=9,no=10,missing=9
			9:[udu12<693] yes=19,no=20,missing=19
				19:[usex<1.5] yes=35,no=36,missing=35
					35:[udu13<1753] yes=63,no=64,missing=63
						63:[ucnt9<7] yes=107,no=108,missing=107
							107:[CASE WHEN a.9 = 'True' THEN 1 ELSE 0 END<1] yes=161,no=162,missing=161
								161:leaf=0.0555437692
								162:leaf=-0.0341710411
							108:[udu9<4800] yes=163,no=164,missing=163
								163:leaf=0.142122969
								164:leaf=-0.0169385206
						64:leaf=-0.0939292535
					36:[ucnt11<1] yes=65,no=66,missing=65
						65:leaf=-0.132657036
						66:leaf=0.00441952469
				20:[tdays<317] yes=37,no=38,missing=37
					37:[udu15<31015] yes=67,no=68,missing=67
						67:[udu1<1063] yes=109,no=110,missing=109
							109:[udu12<2593] yes=165,no=166,missing=165
								165:leaf=0.0162020829
								166:leaf=-0.0994097218
							110:[udu15<13487] yes=167,no=168,missing=167
								167:leaf=-0.137810975
								168:leaf=-0.0408320315
						68:leaf=0.0259579755
					38:leaf=0.0641591474
			10:[udu12<28510] yes=21,no=22,missing=21
				21:[ucnt22<202] yes=39,no=40,missing=39
					39:[udu14<3301] yes=69,no=70,missing=69
						69:[ucnt14<52] yes=111,no=112,missing=111
							111:[udu6<8776] yes=169,no=170,missing=169
								169:leaf=-0.104984276
								170:leaf=0.00649652351
							112:[udu15<649] yes=171,no=172,missing=171
								171:leaf=0.168789372
								172:leaf=-0.0503960811
						70:[CASE WHEN a.21 = 'True' THEN 1 ELSE 0 END<1] yes=113,no=114,missing=113
							113:[udu9<14158] yes=173,no=174,missing=173
								173:leaf=-0.0630099177
								174:leaf=0.0804099664
							114:[uage<2.5] yes=175,no=176,missing=175
								175:leaf=-0.0296496507
								176:leaf=-0.129851535
					40:[uage<6] yes=71,no=72,missing=71
						71:[ucnt2<364] yes=115,no=116,missing=115
							115:[udu22<27543] yes=177,no=178,missing=177
								177:leaf=0.132250234
								178:leaf=-0.0329982005
							116:leaf=-0.0908792019
						72:leaf=-0.105345011
				22:[udu1<10988] yes=41,no=42,missing=41
					41:[ucnt14<203] yes=73,no=74,missing=73
						73:[udu8<14468] yes=117,no=118,missing=117
							117:leaf=0.0282545127
							118:leaf=0.14583753
						74:leaf=-0.0525233932
					42:[udu13<43872] yes=75,no=76,missing=75
						75:[tdays<164] yes=119,no=120,missing=119
							119:leaf=-0.0814992934
							120:[udu26<38793] yes=179,no=180,missing=179
								179:leaf=0.00427400507
								180:leaf=0.109883867
						76:leaf=-0.123343766
	2:[usex<0.5] yes=5,no=6,missing=5
		5:[uage<1] yes=11,no=12,missing=11
			11:[ucnt2<506] yes=23,no=24,missing=23
				23:[udu1<6689] yes=43,no=44,missing=43
					43:[ucnt13<12] yes=77,no=78,missing=77
						77:leaf=-0.0195979998
						78:leaf=0.100280583
					44:[udu15<37335] yes=79,no=80,missing=79
						79:[udu8<21121] yes=121,no=122,missing=121
							121:leaf=-0.119581811
							122:leaf=-0.0395234041
						80:leaf=0.0045175706
				24:leaf=0.131863356
			12:leaf=0.151484862
		6:[uage<5.5] yes=13,no=14,missing=13
			13:[udu1<2112] yes=25,no=26,missing=25
				25:[udu29<16321] yes=45,no=46,missing=45
					45:[ucnt17<13] yes=81,no=82,missing=81
						81:[udu26<536] yes=123,no=124,missing=123
							123:[uage<2.5] yes=181,no=182,missing=181
								181:leaf=0.0194923859
								182:leaf=-0.101006068
							124:[udu13<7034] yes=183,no=184,missing=183
								183:leaf=-0.0260843672
								184:leaf=0.122033358
						82:[ucnt5<3] yes=125,no=126,missing=125
							125:[udu6<1112] yes=185,no=186,missing=185
								185:leaf=0.0577111728
								186:leaf=-0.0994774252
							126:[ucnt18<6] yes=187,no=188,missing=187
								187:leaf=-0.00688846502
								188:leaf=-0.111800328
					46:[udu2<7641] yes=83,no=84,missing=83
						83:[ucnt10<40] yes=127,no=128,missing=127
							127:[ucnt21<26] yes=189,no=190,missing=189
								189:leaf=-0.0347357504
								190:leaf=0.143716559
							128:[udu2<5100] yes=191,no=192,missing=191
								191:leaf=-0.0830674022
								192:leaf=0.102451675
						84:[udu11<31314] yes=129,no=130,missing=129
							129:[tdays<289.5] yes=193,no=194,missing=193
								193:leaf=-0.121189073
								194:leaf=-0.0156768691
							130:[udu4<40716] yes=195,no=196,missing=195
								195:leaf=0.125046313
								196:leaf=-0.0882372558
				26:[usex<1.5] yes=47,no=48,missing=47
					47:[CASE WHEN a.3 = 'True' THEN 1 ELSE 0 END<1] yes=85,no=86,missing=85
						85:[ucnt10<39] yes=131,no=132,missing=131
							131:[ucnt15<1] yes=197,no=198,missing=197
								197:leaf=0.00321475277
								198:leaf=0.14897804
							132:[udu27<27914] yes=199,no=200,missing=199
								199:leaf=-0.102436654
								200:leaf=0.0526258163
						86:[ucnt22<1148] yes=133,no=134,missing=133
							133:[udu13<1130] yes=201,no=202,missing=201
								201:leaf=-0.0803658143
								202:leaf=-0.102943338
							134:[udu14<57354] yes=203,no=204,missing=203
								203:leaf=-0.0819973722
								204:leaf=0.075808458
					48:[udu18<81934] yes=87,no=88,missing=87
						87:[udu29<69116] yes=135,no=136,missing=135
							135:[udu22<86335] yes=205,no=206,missing=205
								205:leaf=-0.115652695
								206:leaf=0.00984997023
							136:[udu2<63062] yes=207,no=208,missing=207
								207:leaf=-0.0977536738
								208:leaf=0.127360135
						88:leaf=0.0281515103
			14:[udu8<77961] yes=27,no=28,missing=27
				27:[ucnt22<312] yes=49,no=50,missing=49
					49:[ucnt3<931] yes=89,no=90,missing=89
						89:[ucnt21<798] yes=137,no=138,missing=137
							137:[udu1<801] yes=209,no=210,missing=209
								209:leaf=-0.0881568193
								210:leaf=-0.122424364
							138:leaf=0.0171444621
						90:[ucnt2<789] yes=139,no=140,missing=139
							139:leaf=0.0776252374
							140:leaf=-0.0732608959
					50:[tdays<257.5] yes=91,no=92,missing=91
						91:[ucnt15<1262] yes=141,no=142,missing=141
							141:[udu23<69464] yes=211,no=212,missing=211
								211:leaf=-0.118256144
								212:leaf=-0.0230329242
							142:leaf=0.00438475749
						92:[udu15<9108] yes=143,no=144,missing=143
							143:leaf=0.151386008
							144:[ucnt17<238] yes=213,no=214,missing=213
								213:leaf=-0.0197174456
								214:leaf=-0.0973754004
				28:[udu8<83129] yes=51,no=52,missing=51
					51:leaf=0.0773001239
					52:leaf=-0.067830883
booster[8]:
0:[ucnt10<11] yes=1,no=2,missing=1
	1:[ucnt23<1] yes=3,no=4,missing=3
		3:[realage<20.5] yes=7,no=8,missing=7
			7:[ucnt22<4] yes=15,no=16,missing=15
				15:[ucnt3<7] yes=31,no=32,missing=31
					31:leaf=0.131538704
					32:[realage<18.5] yes=61,no=62,missing=61
						61:leaf=-0.0240376778
						62:[udu2<2359] yes=101,no=102,missing=101
							101:leaf=0.0236342773
							102:leaf=0.0944790617
				16:leaf=-0.0576068461
			8:[tdays<75.5] yes=17,no=18,missing=17
				17:[CASE WHEN a.11 = 'True' THEN 1 ELSE 0 END<1] yes=33,no=34,missing=33
					33:[udu10<5] yes=63,no=64,missing=63
						63:[udu4<3941] yes=103,no=104,missing=103
							103:[tdays<8.5] yes=163,no=164,missing=163
								163:leaf=-0.101129882
								164:leaf=-0.0309178568
							104:leaf=0.0468706302
						64:[ucnt4<33] yes=105,no=106,missing=105
							105:[uage<4.5] yes=165,no=166,missing=165
								165:leaf=0.0231338721
								166:leaf=0.122267805
							106:leaf=-0.0451635532
					34:[ucnt28<19] yes=65,no=66,missing=65
						65:[realage<22.5] yes=107,no=108,missing=107
							107:leaf=-0.0111646326
							108:[ucnt10<9] yes=167,no=168,missing=167
								167:leaf=-0.129065141
								168:leaf=-0.0323597305
						66:leaf=0.0413016751
				18:[realage<41] yes=35,no=36,missing=35
					35:[realage<32.5] yes=67,no=68,missing=67
						67:[ucnt15<67] yes=109,no=110,missing=109
							109:[tdays<329] yes=169,no=170,missing=169
								169:leaf=-0.0161062907
								170:leaf=0.0911002383
							110:[ucnt29<7] yes=171,no=172,missing=171
								171:leaf=0.118707858
								172:leaf=0.0299223848
						68:[ucnt29<7] yes=111,no=112,missing=111
							111:[udu12<17309] yes=173,no=174,missing=173
								173:leaf=0.131494701
								174:leaf=0.0186071042
							112:leaf=-0.0708091035
					36:[udu14<5846] yes=69,no=70,missing=69
						69:[tdays<185] yes=113,no=114,missing=113
							113:leaf=-0.0247140657
							114:leaf=-0.133729503
						70:leaf=0.0333437733
		4:[ucnt1<2] yes=9,no=10,missing=9
			9:[ucnt5<186] yes=19,no=20,missing=19
				19:[ucnt3<34] yes=37,no=38,missing=37
					37:[ucnt17<2] yes=71,no=72,missing=71
						71:[CASE WHEN a.18 = 'True' THEN 1 ELSE 0 END<1] yes=115,no=116,missing=115
							115:leaf=0.0532947257
							116:[ucnt27<7] yes=175,no=176,missing=175
								175:leaf=-0.115412831
								176:leaf=-0.0218357071
						72:[ucnt23<15] yes=117,no=118,missing=117
							117:[tdays<245] yes=177,no=178,missing=177
								177:leaf=0.000844716735
								178:leaf=0.131497353
							118:[udu27<8992] yes=179,no=180,missing=179
								179:leaf=-0.07930547
								180:leaf=0.039192494
					38:[ucnt19<8] yes=73,no=74,missing=73
						73:leaf=0.0010632812
						74:leaf=-0.124293111
				20:[udu5<25148] yes=39,no=40,missing=39
					39:leaf=0.115451865
					40:leaf=-0.00514104497
			10:[ucnt23<114] yes=21,no=22,missing=21
				21:[udu5<27794] yes=41,no=42,missing=41
					41:[ucnt29<1] yes=75,no=76,missing=75
						75:[udu2<1389] yes=119,no=120,missing=119
							119:[udu7<118] yes=181,no=182,missing=181
								181:leaf=-0.112206794
								182:leaf=-0.0169844665
							120:[ucnt25<18] yes=183,no=184,missing=183
								183:leaf=0.111977398
								184:leaf=-0.0850044712
						76:[udu7<73] yes=121,no=122,missing=121
							121:[udu17<257] yes=185,no=186,missing=185
								185:leaf=-0.12739186
								186:leaf=-0.00802128576
							122:[tdays<343] yes=187,no=188,missing=187
								187:leaf=-0.114565291
								188:leaf=0.003449518
					42:[ucnt4<21] yes=77,no=78,missing=77
						77:[udu26<29287] yes=123,no=124,missing=123
							123:leaf=-0.0253809988
							124:leaf=0.114984751
						78:[ucnt8<70] yes=125,no=126,missing=125
							125:leaf=-0.0927785337
							126:leaf=0.000970365887
				22:[udu2<1572] yes=43,no=44,missing=43
					43:[udu4<5898] yes=79,no=80,missing=79
						79:[tdays<313] yes=127,no=128,missing=127
							127:leaf=0.149228424
							128:leaf=0.0211556554
						80:leaf=-0.0425772183
					44:[udu10<6647] yes=81,no=82,missing=81
						81:[udu27<54682] yes=129,no=130,missing=129
							129:[ucnt8<15] yes=189,no=190,missing=189
								189:leaf=0.0016627548
								190:leaf=-0.0796411559
							130:leaf=0.0277170595
						82:leaf=0.0784939453
	2:[realage<31.5] yes=5,no=6,missing=5
		5:[ucnt6<25] yes=11,no=12,missing=11
			11:[realage<22.5] yes=23,no=24,missing=23
				23:[realage<18.5] yes=45,no=46,missing=45
					45:[ucnt1<136] yes=83,no=84,missing=83
						83:[CASE WHEN a.7 = 'True' THEN 1 ELSE 0 END<1] yes=131,no=132,missing=131
							131:leaf=-0.0953574926
							132:[udu29<7746] yes=191,no=192,missing=191
								191:leaf=0.0988012031
								192:leaf=-0.0710171983
						84:leaf=-0.133894309
					46:[realage<20.5] yes=85,no=86,missing=85
						85:[udu29<6475] yes=133,no=134,missing=133
							133:[ucnt3<197] yes=193,no=194,missing=193
								193:leaf=0.12165644
								194:leaf=-0.0429318883
							134:[ucnt15<10] yes=195,no=196,missing=195
								195:leaf=0.0692623407
								196:leaf=-0.0734222978
						86:[ucnt25<36] yes=135,no=136,missing=135
							135:[udu3<30164] yes=197,no=198,missing=197
								197:leaf=-0.0965301171
								198:leaf=0.0209290665
							136:[ucnt27<40] yes=199,no=200,missing=199
								199:leaf=0.104771927
								200:leaf=-0.0421565585
				24:[udu14<52757] yes=47,no=48,missing=47
					47:[realage<30.5] yes=87,no=88,missing=87
						87:[udu1<143] yes=137,no=138,missing=137
							137:[ucnt14<7] yes=201,no=202,missing=201
								201:leaf=-0.0774668455
								202:leaf=0.0814900771
							138:[ucnt9<30] yes=203,no=204,missing=203
								203:leaf=-0.102598131
								204:leaf=-0.0681766346
						88:[ucnt28<5] yes=139,no=140,missing=139
							139:[udu5<74] yes=205,no=206,missing=205
								205:leaf=-0.0691271573
								206:leaf=0.141813621
							140:[ucnt6<19] yes=207,no=208,missing=207
								207:leaf=-0.120324172
								208:leaf=0.0179308876
					48:leaf=0.0747259781
			12:[ucnt1<26] yes=25,no=26,missing=25
				25:[udu7<5347] yes=49,no=50,missing=49
					49:[udu3<146] yes=89,no=90,missing=89
						89:[udu12<392] yes=141,no=142,missing=141
							141:leaf=0.0936586112
							142:leaf=-0.076968126
						90:[udu21<31948] yes=143,no=144,missing=143
							143:[ucnt1<24] yes=209,no=210,missing=209
								209:leaf=-0.123248629
								210:leaf=-0.0197343435
							144:leaf=0.0468593352
					50:[ucnt24<17] yes=91,no=92,missing=91
						91:[ucnt4<25] yes=145,no=146,missing=145
							145:leaf=-0.096526742
							146:[tdays<171] yes=211,no=212,missing=211
								211:leaf=0.176257759
								212:leaf=-0.0286002159
						92:[udu1<4449] yes=147,no=148,missing=147
							147:[ucnt6<229] yes=213,no=214,missing=213
								213:leaf=-0.00156353228
								214:leaf=-0.0869641677
							148:[ucnt22<16] yes=215,no=216,missing=215
								215:leaf=-0.0211410802
								216:leaf=-0.121386826
				26:[tdays<232.5] yes=51,no=52,missing=51
					51:[ucnt15<1274] yes=93,no=94,missing=93
						93:[udu7<530] yes=149,no=150,missing=149
							149:[tdays<33.5] yes=217,no=218,missing=217
								217:leaf=-0.0994013175
								218:leaf=-0.00866138563
							150:[uage<2.5] yes=219,no=220,missing=219
								219:leaf=-0.0972467884
								220:leaf=-0.113315783
						94:[ucnt25<774] yes=151,no=152,missing=151
							151:[udu25<38424] yes=221,no=222,missing=221
								221:leaf=0.00503648398
								222:leaf=0.169336334
							152:leaf=-0.107983686
					52:[CASE WHEN a.22 = 'True' THEN 1 ELSE 0 END<1] yes=95,no=96,missing=95
						95:[udu6<12675] yes=153,no=154,missing=153
							153:leaf=-0.0986355618
							154:[udu1<20478] yes=223,no=224,missing=223
								223:leaf=0.137846529
								224:leaf=-0.0426133983
						96:[udu22<88859] yes=155,no=156,missing=155
							155:[udu2<1893] yes=225,no=226,missing=225
								225:leaf=-0.0435416959
								226:leaf=-0.0929574817
							156:leaf=0.027417738
		6:[ucnt14<1045] yes=13,no=14,missing=13
			13:[udu8<76692] yes=27,no=28,missing=27
				27:[realage<44.5] yes=53,no=54,missing=53
					53:[tdays<268.5] yes=97,no=98,missing=97
						97:[ucnt4<107] yes=157,no=158,missing=157
							157:[ucnt16<217] yes=227,no=228,missing=227
								227:leaf=-0.101822458
								228:leaf=-0.0166056603
							158:[udu4<3851] yes=229,no=230,missing=229
								229:leaf=-0.0127333803
								230:leaf=-0.117026329
						98:[ucnt23<1042] yes=159,no=160,missing=159
							159:[CASE WHEN a.7 = 'True' THEN 1 ELSE 0 END<1] yes=231,no=232,missing=231
								231:leaf=0.0342656635
								232:leaf=-0.0982922092
							160:leaf=0.0469362997
					54:[udu10<276] yes=99,no=100,missing=99
						99:leaf=0.0311587881
						100:[udu21<68683] yes=161,no=162,missing=161
							161:[udu26<63776] yes=233,no=234,missing=233
								233:leaf=-0.119883955
								234:leaf=-0.024293283
							162:leaf=0.0253186915
				28:[tdays<243] yes=55,no=56,missing=55
					55:leaf=0.0940460637
					56:leaf=-0.0988618806
			14:[ucnt22<758] yes=29,no=30,missing=29
				29:[udu12<35845] yes=57,no=58,missing=57
					57:leaf=-0.0276544485
					58:leaf=0.153340623
				30:[tdays<317] yes=59,no=60,missing=59
					59:leaf=-0.112085782
					60:leaf=-0.0298795607
booster[9]:
0:[udu10<295] yes=1,no=2,missing=1
	1:[realage<23.5] yes=3,no=4,missing=3
		3:[udu9<26309] yes=7,no=8,missing=7
			7:[udu1<28790] yes=15,no=16,missing=15
				15:[udu2<920] yes=31,no=32,missing=31
					31:[udu2<666] yes=61,no=62,missing=61
						61:[udu20<2999] yes=99,no=100,missing=99
							99:[usex<1.5] yes=163,no=164,missing=163
								163:leaf=0.0821203217
								164:leaf=-0.022954395
							100:[udu18<21555] yes=165,no=166,missing=165
								165:leaf=-0.0993436351
								166:leaf=0.0624149106
						62:leaf=-0.0895798802
					32:[ucnt1<56] yes=63,no=64,missing=63
						63:leaf=0.131089419
						64:[udu9<8307] yes=101,no=102,missing=101
							101:leaf=-0.0695562586
							102:leaf=0.125633553
				16:[udu1<37835] yes=33,no=34,missing=33
					33:leaf=-0.083600007
					34:leaf=0.0246235784
			8:[ucnt4<6] yes=17,no=18,missing=17
				17:leaf=0.0442097299
				18:[ucnt27<543] yes=35,no=36,missing=35
					35:leaf=-0.122928955
					36:leaf=-0.00562918233
		4:[ucnt2<18] yes=9,no=10,missing=9
			9:[udu24<28844] yes=19,no=20,missing=19
				19:[realage<30.5] yes=37,no=38,missing=37
					37:[realage<28.5] yes=65,no=66,missing=65
						65:[ucnt8<24] yes=103,no=104,missing=103
							103:[udu15<138] yes=167,no=168,missing=167
								167:leaf=0.0206581336
								168:leaf=-0.109335899
							104:[ucnt7<13] yes=169,no=170,missing=169
								169:leaf=0.0109213674
								170:leaf=0.133255154
						66:[ucnt5<71] yes=105,no=106,missing=105
							105:[tdays<198.5] yes=171,no=172,missing=171
								171:leaf=-0.121407509
								172:leaf=-0.0570681952
							106:leaf=0.0779459476
					38:[ucnt5<12] yes=67,no=68,missing=67
						67:[ucnt5<2] yes=107,no=108,missing=107
							107:[udu2<79] yes=173,no=174,missing=173
								173:leaf=-0.0519191213
								174:leaf=0.0647501275
							108:[ucnt17<5] yes=175,no=176,missing=175
								175:leaf=0.128188759
								176:leaf=-0.00036887874
						68:[ucnt7<56] yes=109,no=110,missing=109
							109:[CASE WHEN a.14 = 'True' THEN 1 ELSE 0 END<1] yes=177,no=178,missing=177
								177:leaf=-0.00831765588
								178:leaf=-0.111500613
							110:leaf=0.0468593128
				20:[udu4<344] yes=39,no=40,missing=39
					39:leaf=0.121646106
					40:leaf=-0.0179977398
			10:[tdays<159.5] yes=21,no=22,missing=21
				21:[ucnt7<439] yes=41,no=42,missing=41
					41:[ucnt5<17] yes=69,no=70,missing=69
						69:[ucnt5<10] yes=111,no=112,missing=111
							111:[udu9<590] yes=179,no=180,missing=179
								179:leaf=-0.119358897
								180:leaf=-0.0328604691
							112:[ucnt29<4] yes=181,no=182,missing=181
								181:leaf=0.100044608
								182:leaf=-0.0702226236
						70:[ucnt29<37] yes=113,no=114,missing=113
							113:leaf=-0.132320955
							114:[ucnt29<45] yes=183,no=184,missing=183
								183:leaf=0.0483760349
								184:leaf=-0.0972583517
					42:leaf=-0.00409460627
				22:[tdays<185.5] yes=43,no=44,missing=43
					43:[ucnt4<22] yes=71,no=72,missing=71
						71:[ucnt14<12] yes=115,no=116,missing=115
							115:leaf=0.0462351404
							116:leaf=-0.082965523
						72:leaf=0.123133637
					44:[udu6<23424] yes=73,no=74,missing=73
						73:[udu29<25428] yes=117,no=118,missing=117
							117:[udu3<1823] yes=185,no=186,missing=185
								185:leaf=-0.0585799031
								186:leaf=-0.123048425
							118:leaf=0.0375210643
						74:[ucnt2<219] yes=119,no=120,missing=119
							119:[udu24<29778] yes=187,no=188,missing=187
								187:leaf=0.143034458
								188:leaf=-0.027182607
							120:leaf=-0.0949852988
	2:[ucnt6<25] yes=5,no=6,missing=5
		5:[realage<23.5] yes=11,no=12,missing=11
			11:[ucnt1<126] yes=23,no=24,missing=23
				23:[realage<20.5] yes=45,no=46,missing=45
					45:[ucnt29<32] yes=75,no=76,missing=75
						75:[ucnt4<36] yes=121,no=122,missing=121
							121:[CASE WHEN a.1 = 'True' THEN 1 ELSE 0 END<1] yes=189,no=190,missing=189
								189:leaf=-0.0107964342
								190:leaf=0.128317356
							122:leaf=-0.0474911854
						76:[ucnt5<1] yes=123,no=124,missing=123
							123:leaf=0.0251281802
							124:leaf=-0.106966928
					46:[ucnt25<41] yes=77,no=78,missing=77
						77:[udu10<2187] yes=125,no=126,missing=125
							125:[ucnt1<20] yes=191,no=192,missing=191
								191:leaf=-0.0487129353
								192:leaf=0.0942920372
							126:[ucnt6<13] yes=193,no=194,missing=193
								193:leaf=-0.114762381
								194:leaf=-0.0106296455
						78:[udu18<3445] yes=127,no=128,missing=127
							127:leaf=-0.00700063491
							128:leaf=0.168599069
				24:[ucnt5<23] yes=47,no=48,missing=47
					47:[ucnt19<302] yes=79,no=80,missing=79
						79:[ucnt1<984] yes=129,no=130,missing=129
							129:[ucnt2<733] yes=195,no=196,missing=195
								195:leaf=-0.114548221
								196:leaf=-0.0162892677
							130:leaf=-0.0102571649
						80:leaf=0.0498137064
					48:[udu4<11931] yes=81,no=82,missing=81
						81:[udu12<5793] yes=131,no=132,missing=131
							131:leaf=0.164276436
							132:leaf=0.0267760698
						82:[udu8<3550] yes=133,no=134,missing=133
							133:leaf=0.00533313071
							134:leaf=-0.100260936
			12:[udu19<36769] yes=25,no=26,missing=25
				25:[ucnt15<254] yes=49,no=50,missing=49
					49:[udu11<30091] yes=83,no=84,missing=83
						83:[ucnt2<30] yes=135,no=136,missing=135
							135:[udu4<13387] yes=197,no=198,missing=197
								197:leaf=-0.0838593766
								198:leaf=-0.0224049054
							136:[ucnt1<1] yes=199,no=200,missing=199
								199:leaf=0.00390604185
								200:leaf=-0.102645114
						84:[udu2<33227] yes=137,no=138,missing=137
							137:[ucnt19<16] yes=201,no=202,missing=201
								201:leaf=0.0145329898
								202:leaf=-0.0970353112
							138:[udu8<33006] yes=203,no=204,missing=203
								203:leaf=0.163146406
								204:leaf=-0.0739298314
					50:[udu6<117] yes=85,no=86,missing=85
						85:[ucnt18<60] yes=139,no=140,missing=139
							139:leaf=0.020738896
							140:leaf=-0.105908468
						86:[udu13<8908] yes=141,no=142,missing=141
							141:leaf=-0.0399837084
							142:leaf=0.159083664
				26:[udu2<5240] yes=51,no=52,missing=51
					51:leaf=0.133637682
					52:[ucnt1<300] yes=87,no=88,missing=87
						87:[ucnt5<6] yes=143,no=144,missing=143
							143:leaf=0.0504031554
							144:[tdays<269] yes=205,no=206,missing=205
								205:leaf=-0.118432485
								206:leaf=0.00738110486
						88:leaf=0.0976185426
		6:[realage<41.5] yes=13,no=14,missing=13
			13:[tdays<235.5] yes=27,no=28,missing=27
				27:[udu9<710] yes=53,no=54,missing=53
					53:[udu9<523] yes=89,no=90,missing=89
						89:[ucnt6<49] yes=145,no=146,missing=145
							145:[udu6<5223] yes=207,no=208,missing=207
								207:leaf=-0.0658376291
								208:leaf=0.105624951
							146:[tdays<171.5] yes=209,no=210,missing=209
								209:leaf=-0.0926510468
								210:leaf=-0.00417192467
						90:[ucnt6<57] yes=147,no=148,missing=147
							147:leaf=-0.0764148682
							148:[ucnt7<53] yes=211,no=212,missing=211
								211:leaf=0.173675045
								212:leaf=-0.0201821234
					54:[realage<20.5] yes=91,no=92,missing=91
						91:[ucnt12<137] yes=149,no=150,missing=149
							149:[ucnt2<8] yes=213,no=214,missing=213
								213:leaf=0.143523484
								214:leaf=-0.0437668525
							150:[udu15<87299] yes=215,no=216,missing=215
								215:leaf=-0.098958455
								216:leaf=0.0705051646
						92:[ucnt15<1315] yes=151,no=152,missing=151
							151:[udu22<79548] yes=217,no=218,missing=217
								217:leaf=-0.107613496
								218:leaf=0.0415901802
							152:[ucnt6<952] yes=219,no=220,missing=219
								219:leaf=0.0967701748
								220:leaf=-0.0935956761
				28:[ucnt27<29] yes=55,no=56,missing=55
					55:[udu10<27769] yes=93,no=94,missing=93
						93:[ucnt12<5] yes=153,no=154,missing=153
							153:[udu3<16250] yes=221,no=222,missing=221
								221:leaf=-0.0415968187
								222:leaf=0.151050523
							154:[udu25<1302] yes=223,no=224,missing=223
								223:leaf=-0.027588034
								224:leaf=-0.0981073976
						94:[ucnt13<124] yes=155,no=156,missing=155
							155:[udu4<24499] yes=225,no=226,missing=225
								225:leaf=-0.0122744404
								226:leaf=0.174929217
							156:[ucnt4<661] yes=227,no=228,missing=227
								227:leaf=-0.0767244622
								228:leaf=0.107413881
					56:[uage<0.5] yes=95,no=96,missing=95
						95:leaf=0.0876269564
						96:[ucnt5<1] yes=157,no=158,missing=157
							157:[ucnt15<133] yes=229,no=230,missing=229
								229:leaf=0.0872496292
								230:leaf=-0.0202350505
							158:[udu2<3142] yes=231,no=232,missing=231
								231:leaf=-0.0477578305
								232:leaf=-0.0942379758
			14:[udu29<71360] yes=29,no=30,missing=29
				29:[ucnt15<1176] yes=57,no=58,missing=57
					57:[udu10<435] yes=97,no=98,missing=97
						97:[udu9<4143] yes=159,no=160,missing=159
							159:leaf=0.0882812217
							160:leaf=-0.0757776722
						98:[ucnt8<311] yes=161,no=162,missing=161
							161:[ucnt1<760] yes=233,no=234,missing=233
								233:leaf=-0.117453113
								234:leaf=0.029420618
							162:[udu16<11499] yes=235,no=236,missing=235
								235:leaf=-0.035651546
								236:leaf=-0.10343381
					58:leaf=0.0350334644
				30:[udu24<65409] yes=59,no=60,missing=59
					59:leaf=0.06889759
					60:leaf=0.0116630374
booster[10]:
0:[ucnt10<6] yes=1,no=2,missing=1
	1:[udu3<218] yes=3,no=4,missing=3
		3:[udu8<1819] yes=7,no=8,missing=7
			7:[udu26<7286] yes=15,no=16,missing=15
				15:[CASE WHEN a.0 = 'True' THEN 1 ELSE 0 END<1] yes=31,no=32,missing=31
					31:[udu27<74] yes=61,no=62,missing=61
						61:[ucnt15<23] yes=109,no=110,missing=109
							109:[ucnt2<52] yes=173,no=174,missing=173
								173:leaf=0.101578072
								174:leaf=-0.0374831073
							110:leaf=-0.0593180954
						62:[tdays<216.5] yes=111,no=112,missing=111
							111:leaf=-0.0842779949
							112:leaf=0.03926358
					32:[tdays<159.5] yes=63,no=64,missing=63
						63:[ucnt21<17] yes=113,no=114,missing=113
							113:[realage<32.5] yes=175,no=176,missing=175
								175:leaf=-0.0801524073
								176:leaf=0.0112202894
							114:[ucnt1<4] yes=177,no=178,missing=177
								177:leaf=0.102588914
								178:leaf=-0.0156074958
						64:[ucnt27<12] yes=115,no=116,missing=115
							115:[tdays<252.5] yes=179,no=180,missing=179
								179:leaf=0.0506358519
								180:leaf=-0.0539546199
							116:[ucnt18<10] yes=181,no=182,missing=181
								181:leaf=0.158965603
								182:leaf=0.0251198169
				16:[ucnt21<323] yes=33,no=34,missing=33
					33:[realage<19.5] yes=65,no=66,missing=65
						65:leaf=-0.0192333888
						66:[CASE WHEN a.19 = 'True' THEN 1 ELSE 0 END<1] yes=117,no=118,missing=117
							117:leaf=0.0212428924
							118:leaf=0.14404951
					34:leaf=-0.0540239774
			8:[udu5<5842] yes=17,no=18,missing=17
				17:[ucnt6<5] yes=35,no=36,missing=35
					35:[udu5<109] yes=67,no=68,missing=67
						67:[udu26<33] yes=119,no=120,missing=119
							119:leaf=0.0247429311
							120:[ucnt7<20] yes=183,no=184,missing=183
								183:leaf=-0.126300499
								184:leaf=-0.0178292301
						68:leaf=0.0891699567
					36:[udu1<4881] yes=69,no=70,missing=69
						69:[udu4<3177] yes=121,no=122,missing=121
							121:leaf=-0.130320832
							122:leaf=-0.0304097086
						70:leaf=-0.0226018466
				18:[ucnt1<7] yes=37,no=38,missing=37
					37:leaf=0.100042157
					38:[tdays<75.5] yes=71,no=72,missing=71
						71:leaf=0.00809646584
						72:leaf=-0.0794310644
		4:[realage<20.5] yes=9,no=10,missing=9
			9:[ucnt17<30] yes=19,no=20,missing=19
				19:[udu9<20824] yes=39,no=40,missing=39
					39:[CASE WHEN a.4 = 'True' THEN 1 ELSE 0 END<1] yes=73,no=74,missing=73
						73:leaf=0.0262210723
						74:leaf=0.117231272
					40:leaf=0.00319190859
				20:[ucnt5<207] yes=41,no=42,missing=41
					41:[ucnt11<36] yes=75,no=76,missing=75
						75:leaf=-0.0532171838
						76:leaf=0.0775843412
					42:leaf=-0.0885156095
			10:[udu6<22650] yes=21,no=22,missing=21
				21:[udu11<127] yes=43,no=44,missing=43
					43:[udu11<81] yes=77,no=78,missing=77
						77:[udu10<382] yes=123,no=124,missing=123
							123:[udu27<243] yes=185,no=186,missing=185
								185:leaf=-0.0200252868
								186:leaf=-0.099212192
							124:[udu7<1143] yes=187,no=188,missing=187
								187:leaf=0.127359897
								188:leaf=-0.0387964882
						78:leaf=0.123756818
					44:[ucnt14<278] yes=79,no=80,missing=79
						79:[udu14<2830] yes=125,no=126,missing=125
							125:[ucnt15<23] yes=189,no=190,missing=189
								189:leaf=-0.0814960226
								190:leaf=0.00967050623
							126:[ucnt11<5] yes=191,no=192,missing=191
								191:leaf=0.028764179
								192:leaf=-0.115264535
						80:[udu3<7038] yes=127,no=128,missing=127
							127:leaf=0.0857648626
							128:leaf=-0.0495970994
				22:[udu17<29555] yes=45,no=46,missing=45
					45:[udu5<14676] yes=81,no=82,missing=81
						81:leaf=-0.0764385089
						82:[udu3<13682] yes=129,no=130,missing=129
							129:leaf=-0.0340802111
							130:[udu1<23885] yes=193,no=194,missing=193
								193:leaf=0.146518022
								194:leaf=0.0120840957
					46:[ucnt2<32] yes=83,no=84,missing=83
						83:leaf=0.0464591831
						84:[ucnt22<551] yes=131,no=132,missing=131
							131:leaf=-0.119449608
							132:leaf=-0.0201297998
	2:[realage<41.5] yes=5,no=6,missing=5
		5:[udu4<2117] yes=11,no=12,missing=11
			11:[tdays<149.5] yes=23,no=24,missing=23
				23:[ucnt10<13] yes=47,no=48,missing=47
					47:[udu15<280] yes=85,no=86,missing=85
						85:[udu1<132] yes=133,no=134,missing=133
							133:[CASE WHEN a.9 = 'True' THEN 1 ELSE 0 END<1] yes=195,no=196,missing=195
								195:leaf=0.0135453781
								196:leaf=-0.0943937823
							134:[udu6<364] yes=197,no=198,missing=197
								197:leaf=0.0521894582
								198:leaf=0.176989362
						86:[udu3<210] yes=135,no=136,missing=135
							135:leaf=0.020482406
							136:leaf=-0.114250258
					48:[ucnt21<36] yes=87,no=88,missing=87
						87:[ucnt5<58] yes=137,no=138,missing=137
							137:[uage<2.5] yes=199,no=200,missing=199
								199:leaf=-0.0383757502
								200:leaf=-0.0952109993
							138:[udu10<8371] yes=201,no=202,missing=201
								201:leaf=0.0622987449
								202:leaf=-0.0654733479
						88:[ucnt2<3] yes=139,no=140,missing=139
							139:leaf=-0.0253798943
							140:leaf=-0.124658071
				24:[CASE WHEN a.30 = 'True' THEN 1 ELSE 0 END<1] yes=49,no=50,missing=49
					49:[ucnt4<10] yes=89,no=90,missing=89
						89:[udu7<2233] yes=141,no=142,missing=141
							141:[udu5<549] yes=203,no=204,missing=203
								203:leaf=-0.00466107763
								204:leaf=-0.105618112
							142:[tdays<283] yes=205,no=206,missing=205
								205:leaf=0.15120706
								206:leaf=0.00618446572
						90:[ucnt29<27] yes=143,no=144,missing=143
							143:leaf=0.186900809
							144:leaf=0.00486641796
					50:[ucnt13<64] yes=91,no=92,missing=91
						91:[udu11<12687] yes=145,no=146,missing=145
							145:[udu16<234] yes=207,no=208,missing=207
								207:leaf=-0.0259205345
								208:leaf=-0.092350699
							146:[udu15<14760] yes=209,no=210,missing=209
								209:leaf=0.155827463
								210:leaf=-0.0346569195
						92:[ucnt6<50] yes=147,no=148,missing=147
							147:[ucnt28<228] yes=211,no=212,missing=211
								211:leaf=0.0833429843
								212:leaf=-0.0710493848
							148:[udu22<43574] yes=213,no=214,missing=213
								213:leaf=-0.0727371499
								214:leaf=0.0528551117
			12:[udu1<138] yes=25,no=26,missing=25
				25:[udu22<3305] yes=51,no=52,missing=51
					51:[udu14<1602] yes=93,no=94,missing=93
						93:[realage<28] yes=149,no=150,missing=149
							149:leaf=0.0632835925
							150:leaf=-0.0845295712
						94:[ucnt8<36] yes=151,no=152,missing=151
							151:leaf=0.155830532
							152:leaf=0.0311923716
					52:[tdays<181] yes=95,no=96,missing=95
						95:[ucnt29<62] yes=153,no=154,missing=153
							153:[ucnt10<31] yes=215,no=216,missing=215
								215:leaf=-0.0920811296
								216:leaf=-0.0236712564
							154:[udu5<14259] yes=217,no=218,missing=217
								217:leaf=0.145185933
								218:leaf=-0.025273934
						96:[udu11<4907] yes=155,no=156,missing=155
							155:leaf=0.0038481697
							156:[udu16<44339] yes=219,no=220,missing=219
								219:leaf=-0.122527592
								220:leaf=-0.0137464991
				26:[uage<2.5] yes=53,no=54,missing=53
					53:[ucnt27<38] yes=97,no=98,missing=97
						97:[udu3<9135] yes=157,no=158,missing=157
							157:[udu3<7005] yes=221,no=222,missing=221
								221:leaf=0.014324869
								222:leaf=0.191723347
							158:[udu27<8599] yes=223,no=224,missing=223
								223:leaf=-0.0641869009
								224:leaf=0.0876945555
						98:[ucnt22<1239] yes=159,no=160,missing=159
							159:[ucnt2<337] yes=225,no=226,missing=225
								225:leaf=-0.0774680153
								226:leaf=-0.0980046019
							160:[udu22<51368] yes=227,no=228,missing=227
								227:leaf=-0.0863056332
								228:leaf=0.0516930632
					54:[tdays<188.5] yes=99,no=100,missing=99
						99:[ucnt8<14] yes=161,no=162,missing=161
							161:[tdays<25.5] yes=229,no=230,missing=229
								229:leaf=-0.11098551
								230:leaf=-0.0414695106
							162:[ucnt9<1510] yes=231,no=232,missing=231
								231:leaf=-0.106114067
								232:leaf=0.0185659062
						100:[CASE WHEN a.28 = 'True' THEN 1 ELSE 0 END<1] yes=163,no=164,missing=163
							163:[udu7<9814] yes=233,no=234,missing=233
								233:leaf=-0.0824767947
								234:leaf=0.052864816
							164:[ucnt7<1005] yes=235,no=236,missing=235
								235:leaf=-0.0913618729
								236:leaf=-0.0131486328
		6:[ucnt8<748] yes=13,no=14,missing=13
			13:[udu7<75654] yes=27,no=28,missing=27
				27:[udu10<436] yes=55,no=56,missing=55
					55:[udu9<441] yes=101,no=102,missing=101
						101:[udu13<1327] yes=165,no=166,missing=165
							165:leaf=0.115735248
							166:leaf=-0.0241083428
						102:[ucnt17<147] yes=167,no=168,missing=167
							167:leaf=-0.113323413
							168:leaf=-0.0245176628
					56:[udu15<63017] yes=103,no=104,missing=103
						103:[ucnt2<11] yes=169,no=170,missing=169
							169:[ucnt10<42] yes=237,no=238,missing=237
								237:leaf=-0.0425897613
								238:leaf=-0.115361057
							170:[ucnt1<1034] yes=239,no=240,missing=239
								239:leaf=-0.113360226
								240:leaf=-0.0149903586
						104:[udu6<46382] yes=171,no=172,missing=171
							171:leaf=0.0728709698
							172:leaf=-0.0911087915
				28:leaf=0.0328116529
			14:[ucnt18<516] yes=29,no=30,missing=29
				29:[ucnt9<522] yes=57,no=58,missing=57
					57:leaf=-0.0645999908
					58:[ucnt11<737] yes=105,no=106,missing=105
						105:leaf=0.171372175
						106:leaf=0.00610716594
				30:[udu6<20958] yes=59,no=60,missing=59
					59:leaf=0.0190228764
					60:[ucnt20<1196] yes=107,no=108,missing=107
						107:leaf=-0.108483925
						108:leaf=0.00262449379
booster[11]:
0:[ucnt10<7] yes=1,no=2,missing=1
	1:[ucnt11<3] yes=3,no=4,missing=3
		3:[CASE WHEN a.22 = 'True' THEN 1 ELSE 0 END<1] yes=7,no=8,missing=7
			7:[udu4<3957] yes=15,no=16,missing=15
				15:[realage<20.5] yes=31,no=32,missing=31
					31:[ucnt14<4] yes=61,no=62,missing=61
						61:leaf=0.111859955
						62:leaf=-0.0086217178
					32:[CASE WHEN a.13 = 'True' THEN 1 ELSE 0 END<1] yes=63,no=64,missing=63
						63:[udu5<53] yes=107,no=108,missing=107
							107:[ucnt28<3] yes=171,no=172,missing=171
								171:leaf=-0.0774447322
								172:leaf=0.0448657237
							108:[ucnt9<1] yes=173,no=174,missing=173
								173:leaf=-0.0302059501
								174:leaf=0.0972757861
						64:[realage<26.5] yes=109,no=110,missing=109
							109:leaf=-0.0121015729
							110:[ucnt13<5] yes=175,no=176,missing=175
								175:leaf=0.14039515
								176:leaf=0.0302990023
				16:leaf=0.137347341
			8:[ucnt20<1] yes=17,no=18,missing=17
				17:[CASE WHEN a.11 = 'True' THEN 1 ELSE 0 END<1] yes=33,no=34,missing=33
					33:[CASE WHEN a.27 = 'True' THEN 1 ELSE 0 END<1] yes=65,no=66,missing=65
						65:leaf=-0.0752806515
						66:[ucnt25<23] yes=111,no=112,missing=111
							111:leaf=0.108398311
							112:leaf=-0.0422976762
					34:[ucnt29<1] yes=67,no=68,missing=67
						67:[ucnt3<8] yes=113,no=114,missing=113
							113:[ucnt25<6] yes=177,no=178,missing=177
								177:leaf=0.0489391908
								178:leaf=-0.102738515
							114:leaf=-0.105308138
						68:[ucnt1<15] yes=115,no=116,missing=115
							115:leaf=-0.129965037
							116:leaf=-0.0345676504
				18:[ucnt14<23] yes=35,no=36,missing=35
					35:[ucnt10<4] yes=69,no=70,missing=69
						69:[udu24<202] yes=117,no=118,missing=117
							117:[uage<6] yes=179,no=180,missing=179
								179:leaf=-0.0413283445
								180:leaf=0.0786010474
							118:[udu28<94] yes=181,no=182,missing=181
								181:leaf=0.139255151
								182:leaf=0.038045004
						70:[ucnt17<9] yes=119,no=120,missing=119
							119:leaf=-0.100145675
							120:leaf=0.0130034983
					36:[udu23<26699] yes=71,no=72,missing=71
						71:leaf=-0.102060847
						72:leaf=-0.00184410589
		4:[udu28<36090] yes=9,no=10,missing=9
			9:[ucnt3<7] yes=19,no=20,missing=19
				19:[ucnt17<13] yes=37,no=38,missing=37
					37:[uage<3.5] yes=73,no=74,missing=73
						73:leaf=0.102718651
						74:[ucnt24<40] yes=121,no=122,missing=121
							121:[tdays<330] yes=183,no=184,missing=183
								183:leaf=-0.0977177098
								184:leaf=0.031159712
							122:leaf=0.0544573776
					38:[udu1<9269] yes=75,no=76,missing=75
						75:[udu11<23148] yes=123,no=124,missing=123
							123:[udu12<461] yes=185,no=186,missing=185
								185:leaf=-0.0323009901
								186:leaf=0.0912454277
							124:[ucnt13<48] yes=187,no=188,missing=187
								187:leaf=-0.0944689587
								188:leaf=0.0200804751
						76:leaf=-0.0839046016
				20:[udu6<23668] yes=39,no=40,missing=39
					39:[udu11<2046] yes=77,no=78,missing=77
						77:[ucnt3<13] yes=125,no=126,missing=125
							125:[ucnt18<30] yes=189,no=190,missing=189
								189:leaf=-0.116308771
								190:leaf=-0.00193173252
							126:[ucnt19<36] yes=191,no=192,missing=191
								191:leaf=0.0297419708
								192:leaf=-0.0861087888
						78:[ucnt8<159] yes=127,no=128,missing=127
							127:[ucnt3<15] yes=193,no=194,missing=193
								193:leaf=-0.0500396378
								194:leaf=-0.11283844
							128:[ucnt8<328] yes=195,no=196,missing=195
								195:leaf=0.0322624184
								196:leaf=-0.0968125314
					40:[ucnt23<56] yes=79,no=80,missing=79
						79:[ucnt3<105] yes=129,no=130,missing=129
							129:leaf=0.129409537
							130:leaf=-0.0163604505
						80:[ucnt13<357] yes=131,no=132,missing=131
							131:leaf=-0.107533514
							132:[udu24<29947] yes=197,no=198,missing=197
								197:leaf=0.0853595212
								198:leaf=-0.0759253129
			10:[udu29<50769] yes=21,no=22,missing=21
				21:[udu10<29] yes=41,no=42,missing=41
					41:[udu6<2343] yes=81,no=82,missing=81
						81:[ucnt1<4] yes=133,no=134,missing=133
							133:leaf=0.0805808082
							134:leaf=-0.0466681756
						82:leaf=0.143481314
					42:leaf=-0.0189473238
				22:[udu5<38981] yes=43,no=44,missing=43
					43:leaf=-0.000396509247
					44:leaf=-0.10667669
	2:[realage<31.5] yes=5,no=6,missing=5
		5:[ucnt8<4] yes=11,no=12,missing=11
			11:[tdays<8.5] yes=23,no=24,missing=23
				23:[usex<0.5] yes=45,no=46,missing=45
					45:leaf=0.105535112
					46:[ucnt10<13] yes=83,no=84,missing=83
						83:leaf=0.0352362618
						84:[udu10<49889] yes=135,no=136,missing=135
							135:[ucnt1<514] yes=199,no=200,missing=199
								199:leaf=-0.104168892
								200:leaf=-0.0398505293
							136:leaf=0.0208509397
				24:[ucnt19<24] yes=47,no=48,missing=47
					47:[ucnt16<34] yes=85,no=86,missing=85
						85:[ucnt24<31] yes=137,no=138,missing=137
							137:[ucnt25<3] yes=201,no=202,missing=201
								201:leaf=0.0375100262
								202:leaf=-0.073194243
							138:[ucnt1<162] yes=203,no=204,missing=203
								203:leaf=0.158967242
								204:leaf=-0.0346760042
						86:[ucnt23<46] yes=139,no=140,missing=139
							139:leaf=-0.097734727
							140:leaf=-0.000208737401
					48:[ucnt10<450] yes=87,no=88,missing=87
						87:[udu5<308] yes=141,no=142,missing=141
							141:[ucnt9<3] yes=205,no=206,missing=205
								205:leaf=-0.0780492648
